{"learner":{"attributes":{},"feature_names":[],"feature_types":[],"gradient_booster":{"model":{"cats":{"enc":[],"feature_segments":[],"sorted_idx":[]},"gbtree_model_param":{"num_parallel_tree":"1","num_trees":"200"},"iteration_indptr":[0,1,2,3,4,5,6,7,8,9,10,11,12,13,14,15,16,17,18,19,20,21,22,23,24,25,26,27,28,29,30,31,32,33,34,35,36,37,38,39,40,41,42,43,44,45,46,47,48,49,50,51,52,53,54,55,56,57,58,59,60,61,62,63,64,65,66,67,68,69,70,71,72,73,74,75,76,77,78,79,80,81,82,83,84,85,86,87,88,89,90,91,92,93,94,95,96,97,98,99,100,101,102,103,104,105,106,107,108,109,110,111,112,113,114,115,116,117,118,119,120,121,122,123,124,125,126,127,128,129,130,131,132,133,134,135,136,137,138,139,140,141,142,143,144,145,146,147,148,149,150,151,152,153,154,155,156,157,158,159,160,161,162,163,164,165,166,167,168,169,170,171,172,173,174,175,176,177,178,179,180,181,182,183,184,185,186,187,188,189,190,191,192,193,194,195,196,197,198,199,200],"tree_info":[0,0,0,0,0,0,0,0,0,0,0,0,0,0,0,0,0,0,0,0,0,0,0,0,0,0,0,0,0,0,0,0,0,0,0,0,0,0,0,0,0,0,0,0,0,0,0,0,0,0,0,0,0,0,0,0,0,0,0,0,0,0,0,0,0,0,0,0,0,0,0,0,0,0,0,0,0,0,0,0,0,0,0,0,0,0,0,0,0,0,0,0,0,0,0,0,0,0,0,0,0,0,0,0,0,0,0,0,0,0,0,0,0,0,0,0,0,0,0,0,0,0,0,0,0,0,0,0,0,0,0,0,0,0,0,0,0,0,0,0,0,0,0,0,0,0,0,0,0,0,0,0,0,0,0,0,0,0,0,0,0,0,0,0,0,0,0,0,0,0,0,0,0,0,0,0,0,0,0,0,0,0,0,0,0,0,0,0,0,0,0,0,0,0,0,0,0,0,0,0],"trees":[{"base_weights":[-1.2987985E-2,-8.587306E-1,6.000432E-1,-1.1339474E0,-2.2063269E-1,-2.1450758E-2,8.900073E-1,-1.2933997E0,-8.095306E-1,-8.4455776E-1,6.0733836E-2,-4.7587833E-1,5.252293E-1,1.048041E0,5.926714E-1,-9.9252003E-1,-1.5204649E0,-9.959636E-1,-5.34978E-2,-9.814513E-1,-3.40619E-1,-2.2069459E-1,2.1046388E-1,-2.1760964E-1,-7.395898E-1,3.5090217E-1,7.0830727E-1,8.1427777E-1,1.1274832E0,6.718362E-1,4.2757797E-1,-7.598467E-1,-1.117214E0,-1.5369909E0,-3.75927E-2,-1.0886129E0,-7.234515E-1,-3.1520113E-1,5.132638E-1,-7.7810824E-1,-6.0941167E-2,-0E0,-7.6749635E-1,-6.2156147E-1,-5.4018326E-2,3.120994E-1,-1.6041903E-2,-3.2086897E-1,-2.375369E-2,-5.126662E-2,-5.12522E-1,4.312202E-1,-0E0,7.3539245E-1,3.3048056E-3,-1.14217915E-1,9.05616E-1,6.3344434E-2,1.012104E0,2.805057E-1,7.047508E-1,7.665494E-2,4.817471E-1,-3.5531557E-1,-8.770074E-1,-1.1702172E0,-3.057219E-2,-6.17004E-2,-7.989969E-2,-4.3831423E-2,-1.1604816E0,-9.4667614E-1,-2.819628E-1,1.3553035E-2,-4.166224E-1,4.315083E-3,3.2504346E-2,-8.4705627E-1,-3.7972406E-3,8.541076E-3,-7.7628116E-3,-1.760334E-2,-4.830259E-2,-3.6069416E-2,-7.084535E-3,2.2042997E-2,-1.1188961E-1,4.003248E-1,5.8237854E-2,1.8768553E-1,-1.1246156E-1,-0E0,-3.742514E-1,3.9634183E-2,-1.6085342E-2,-6.329029E-1,-3.171139E-1,-5.832612E-3,4.840062E-1,-1.2476509E-2,7.552056E-3,1.59402E-2,7.631281E-1,9.638934E-3,-2.7058477E-2,7.459572E-1,9.8472315E-1,7.889012E-1,1.0558661E0,2.2694765E-2,-1.2072103E-2,4.534568E-1,7.2354525E-1,-1.4565395E-2,1.5477493E-2,5.2212876E-1,-2.942667E-4,5.7888674E-3,-3.2050457E-2,-5.377063E-2,-3.1603906E-2,-6.007433E-2,-2.7861172E-2,-5.9154212E-2,-2.3620816E-2,-2.8248537E-2,-6.3648365E-2,-1.8606192E-2,5.7353073E-4,-2.4335897E-2,-0E0,-2.8386964E-2,-4.9425602E-2,7.392687E-4,-1.1895203E-2,3.878392E-3,2.2878727E-2,1.330242E-2,-4.124092E-4,-0E0,1.8672504E-2,-8.150796E-3,3.601323E-3,-2.2075005E-2,-2.8915692E-3,-1.1576443E-3,1.3995721E-2,-3.806598E-2,-2.0429812E-2,-1.8195882E-2,-1.10929555E-4,2.8443435E-2,1.7601097E-2,4.411241E-2,2.959553E-2,3.977139E-2,4.4616344E-3,3.372311E-2,5.2668072E-2,4.4761207E-2,2.17102E-2,3.2182083E-2,5.417682E-2,2.796863E-2,2.5151526E-3,2.9925937E-2,3.904219E-2,1.1507199E-2,2.8549556E-2],"categories":[],"categories_nodes":[],"categories_segments":[],"categories_sizes":[],"default_left":[0,0,0,0,0,0,0,0,0,0,0,0,0,0,0,0,0,0,0,0,0,0,0,0,0,0,0,0,0,0,0,0,0,0,0,0,0,0,0,0,0,0,0,0,0,0,0,0,0,0,0,0,0,0,0,0,0,0,0,0,0,0,0,0,0,0,0,0,0,0,0,0,0,0,0,0,0,0,0,0,0,0,0,0,0,0,0,0,0,0,0,0,0,0,0,0,0,0,0,0,0,0,0,0,0,0,0,0,0,0,0,0,0,0,0,0,0,0,0,0,0,0,0,0,0,0,0,0,0,0,0,0,0,0,0,0,0,0,0,0,0,0,0,0,0,0,0,0,0,0,0,0,0,0,0,0,0,0,0,0,0,0,0,0,0,0,0,0,0],"id":0,"left_children":[1,3,5,7,9,11,13,15,17,19,21,23,25,27,29,31,33,35,37,39,41,43,45,47,49,51,53,55,57,59,61,63,65,67,-1,69,71,73,75,77,-1,79,81,83,85,87,89,91,93,-1,95,97,99,101,-1,103,105,-1,107,109,111,113,115,117,119,121,-1,-1,-1,-1,123,125,127,-1,129,-1,-1,131,-1,-1,-1,-1,-1,-1,-1,-1,133,135,137,139,141,-1,143,145,-1,147,149,-1,151,-1,-1,-1,153,-1,-1,155,157,159,161,-1,-1,163,165,-1,-1,167,-1,-1,-1,-1,-1,-1,-1,-1,-1,-1,-1,-1,-1,-1,-1,-1,-1,-1,-1,-1,-1,-1,-1,-1,-1,-1,-1,-1,-1,-1,-1,-1,-1,-1,-1,-1,-1,-1,-1,-1,-1,-1,-1,-1,-1,-1,-1,-1,-1,-1,-1,-1,-1],"loss_changes":[8.746758E2,1.2412561E2,1.7635226E2,2.434851E1,3.7873276E1,7.7754074E1,3.0556458E1,2.0785034E1,2.3239372E1,4.1555557E0,6.3240304E0,1.1389877E1,4.1775284E0,6.947418E0,2.6610718E0,3.1702576E0,9.780884E-1,2.3892212E0,5.184971E0,1.361866E0,2.2670135E0,3.3732462E0,2.2906737E0,1.71945E0,4.770878E0,2.108077E0,1.0540657E0,9.850594E0,3.6530151E0,1.71315E0,1.4089565E0,2.1244926E0,1.572586E0,1.0902405E0,0E0,2.5678253E-1,3.2566013E0,1.554512E0,5.128586E-1,1.3441658E0,0E0,2.9052693E-1,1.05473995E-1,5.300374E-1,1.1047217E0,1.4538288E0,6.225282E-1,9.945984E-1,6.453296E-1,0E0,8.569422E-1,1.8573151E0,6.0172606E-1,3.995514E-1,0E0,1.5809646E0,4.0590668E-1,0E0,7.5053406E-1,1.3978387E0,2.2959137E-1,1.1203587E0,1.3937149E0,2.0109725E0,1.1419125E0,7.264023E-1,0E0,0E0,0E0,0E0,3.4864044E-1,2.0861473E0,4.1072118E-1,0E0,6.190398E-1,0E0,0E0,3.8946533E-1,0E0,0E0,0E0,0E0,0E0,0E0,0E0,0E0,5.845301E-1,8.348789E-1,2.9048795E-1,3.4506622E-1,2.2602725E-1,0E0,9.671979E-1,4.3949226E-1,0E0,4.0727234E-1,2.7208304E-1,0E0,3.348856E-1,0E0,0E0,0E0,5.5410004E-1,0E0,0E0,1.1076088E0,5.222893E-1,7.605686E-1,8.180084E-1,0E0,0E0,4.659989E-1,3.3317566E-1,0E0,0E0,6.8730164E-1,0E0,0E0,0E0,0E0,0E0,0E0,0E0,0E0,0E0,0E0,0E0,0E0,0E0,0E0,0E0,0E0,0E0,0E0,0E0,0E0,0E0,0E0,0E0,0E0,0E0,0E0,0E0,0E0,0E0,0E0,0E0,0E0,0E0,0E0,0E0,0E0,0E0,0E0,0E0,0E0,0E0,0E0,0E0,0E0,0E0,0E0,0E0,0E0,0E0,0E0,0E0,0E0,0E0],"parents":[2147483647,0,0,1,1,2,2,3,3,4,4,5,5,6,6,7,7,8,8,9,9,10,10,11,11,12,12,13,13,14,14,15,15,16,16,17,17,18,18,19,19,20,20,21,21,22,22,23,23,24,24,25,25,26,26,27,27,28,28,29,29,30,30,31,31,32,32,33,33,35,35,36,36,37,37,38,38,39,39,41,41,42,42,43,43,44,44,45,45,46,46,47,47,48,48,50,50,51,51,52,52,53,53,55,55,56,56,58,58,59,59,60,60,61,61,62,62,63,63,64,64,65,65,70,70,71,71,72,72,74,74,77,77,86,86,87,87,88,88,89,89,90,90,92,92,93,93,95,95,96,96,98,98,102,102,105,105,106,106,107,107,108,108,111,111,112,112,115,115],"right_children":[2,4,6,8,10,12,14,16,18,20,22,24,26,28,30,32,34,36,38,40,42,44,46,48,50,52,54,56,58,60,62,64,66,68,-1,70,72,74,76,78,-1,80,82,84,86,88,90,92,94,-1,96,98,100,102,-1,104,106,-1,108,110,112,114,116,118,120,122,-1,-1,-1,-1,124,126,128,-1,130,-1,-1,132,-1,-1,-1,-1,-1,-1,-1,-1,134,136,138,140,142,-1,144,146,-1,148,150,-1,152,-1,-1,-1,154,-1,-1,156,158,160,162,-1,-1,164,166,-1,-1,168,-1,-1,-1,-1,-1,-1,-1,-1,-1,-1,-1,-1,-1,-1,-1,-1,-1,-1,-1,-1,-1,-1,-1,-1,-1,-1,-1,-1,-1,-1,-1,-1,-1,-1,-1,-1,-1,-1,-1,-1,-1,-1,-1,-1,-1,-1,-1,-1,-1,-1,-1,-1,-1],"split_conditions":[-3.6269698E-1,7.4273187E-1,-6.1829925E-1,-9.099312E-1,-1.1331366E0,6.86903E-1,-5.610563E-2,5.4290646E-1,2.282316E-1,1.692111E0,-8.666544E-1,-4.417864E-1,1.067332E0,-2.2908954E-1,7.1888083E-1,-1.0731916E0,6.641755E-2,-5.957506E-1,-6.6855556E-1,-1.0038898E0,-2.8015298E-1,1.0413306E0,5.900789E-1,3.236672E-1,7.21782E-3,1.1760252E0,6.436128E-2,8.181933E-1,-8.597261E-1,-9.6949184E-1,-2.8165087E-1,-2.2789375E-1,9.049776E-1,-1.2059743E0,-3.75927E-2,-5.027055E-1,-4.9748352E-1,-6.552439E-1,-4.8291603E-1,-1.2306195E0,-6.0941167E-2,3.3822972E-1,-1.1705674E0,8.1524295E-1,-8.758564E-1,1.6635289E0,5.846172E-1,-6.3108325E-1,1.438295E-1,-5.126662E-2,1.7138568E-1,-9.455516E-2,1.2891282E0,4.349477E-1,3.3048056E-3,4.3679637E-1,1.2432941E0,6.3344434E-2,-1.6188752E-2,-9.9027896E-1,-3.7164292E-1,1.40059E0,2.0365968E0,-1.5904328E0,-2.3975861E-1,4.791555E-2,-3.057219E-2,-6.17004E-2,-7.989969E-2,-4.3831423E-2,1.627211E0,-7.940009E-1,1.5941408E0,1.3553035E-2,1.0416294E0,4.315083E-3,3.2504346E-2,-3.4111965E-1,-3.7972406E-3,8.541076E-3,-7.7628116E-3,-1.760334E-2,-4.830259E-2,-3.6069416E-2,-7.084535E-3,2.2042997E-2,-9.093986E-1,-2.363453E-1,-4.2309242E-1,1.1691236E0,1.6458613E0,-0E0,-2.0424712E-1,5.6505525E-1,-1.6085342E-2,-1.1955217E0,5.0801164E-1,-5.832612E-3,9.038149E-2,-1.2476509E-2,7.552056E-3,1.59402E-2,-9.1386867E-1,9.638934E-3,-2.7058477E-2,-7.2944136E-3,-1.8257419E0,-2.4854042E-1,-1.8257419E0,2.2694765E-2,-1.2072103E-2,4.3303955E-1,-1.6188752E-2,-1.4565395E-2,1.5477493E-2,-1.7071798E-1,-2.942667E-4,5.7888674E-3,-3.2050457E-2,-5.377063E-2,-3.1603906E-2,-6.007433E-2,-2.7861172E-2,-5.9154212E-2,-2.3620816E-2,-2.8248537E-2,-6.3648365E-2,-1.8606192E-2,5.7353073E-4,-2.4335897E-2,-0E0,-2.8386964E-2,-4.9425602E-2,7.392687E-4,-1.1895203E-2,3.878392E-3,2.2878727E-2,1.330242E-2,-4.124092E-4,-0E0,1.8672504E-2,-8.150796E-3,3.601323E-3,-2.2075005E-2,-2.8915692E-3,-1.1576443E-3,1.3995721E-2,-3.806598E-2,-2.0429812E-2,-1.8195882E-2,-1.10929555E-4,2.8443435E-2,1.7601097E-2,4.411241E-2,2.959553E-2,3.977139E-2,4.4616344E-3,3.372311E-2,5.2668072E-2,4.4761207E-2,2.17102E-2,3.2182083E-2,5.417682E-2,2.796863E-2,2.5151526E-3,2.9925937E-2,3.904219E-2,1.1507199E-2,2.8549556E-2],"split_indices":[0,5,5,0,0,0,6,6,5,5,0,6,0,5,6,2,4,5,0,2,7,5,6,0,0,2,8,0,6,7,5,8,8,4,0,6,4,6,0,0,0,6,2,8,6,5,8,4,2,0,7,2,4,4,0,8,0,0,0,7,5,2,6,4,5,9,0,0,0,0,6,2,7,0,7,0,0,7,0,0,0,0,0,0,0,0,4,8,6,5,5,0,7,0,0,5,0,0,9,0,0,0,6,0,0,8,8,4,8,0,0,6,0,0,0,0,0,0,0,0,0,0,0,0,0,0,0,0,0,0,0,0,0,0,0,0,0,0,0,0,0,0,0,0,0,0,0,0,0,0,0,0,0,0,0,0,0,0,0,0,0,0,0,0,0,0,0,0,0],"split_type":[0,0,0,0,0,0,0,0,0,0,0,0,0,0,0,0,0,0,0,0,0,0,0,0,0,0,0,0,0,0,0,0,0,0,0,0,0,0,0,0,0,0,0,0,0,0,0,0,0,0,0,0,0,0,0,0,0,0,0,0,0,0,0,0,0,0,0,0,0,0,0,0,0,0,0,0,0,0,0,0,0,0,0,0,0,0,0,0,0,0,0,0,0,0,0,0,0,0,0,0,0,0,0,0,0,0,0,0,0,0,0,0,0,0,0,0,0,0,0,0,0,0,0,0,0,0,0,0,0,0,0,0,0,0,0,0,0,0,0,0,0,0,0,0,0,0,0,0,0,0,0,0,0,0,0,0,0,0,0,0,0,0,0,0,0,0,0,0,0],"sum_hessian":[1.685E3,7.08E2,9.77E2,4.94E2,2.14E2,3.11E2,6.66E2,3.29E2,1.65E2,6.6E1,1.48E2,1.7E2,1.41E2,4.33E2,2.33E2,1.44E2,1.85E2,1.32E2,3.3E1,5.1E1,1.5E1,5.1E1,9.7E1,8.7E1,8.3E1,7.4E1,6.7E1,1.13E2,3.2E2,1.55E2,7.8E1,5.3E1,9.1E1,1.8E2,5E0,9.6E1,3.6E1,2.3E1,1E1,3E1,2.1E1,9E0,6E0,1.4E1,3.7E1,6.7E1,3E1,5.6E1,3.1E1,3.5E1,4.8E1,6E1,1.4E1,6.4E1,3E0,1E1,1.03E2,1.4E2,1.8E2,1.3E1,1.42E2,1.1E1,6.7E1,1.3E1,4E1,8.1E1,1E1,3.4E1,1.46E2,2.8E1,6.8E1,2.3E1,1.3E1,3E0,2E1,3E0,7E0,2.7E1,3E0,4E0,5E0,3E0,3E0,1.1E1,3E0,3E0,3.4E1,4.9E1,1.8E1,9E0,2.1E1,8E0,4.8E1,2.6E1,5E0,2.8E1,2E1,5E0,5.5E1,5E0,9E0,5E0,5.9E1,6E0,4E0,3.8E1,6.5E1,3.3E1,1.47E2,1E1,3E0,1.2E1,1.3E2,4E0,7E0,6.2E1,5E0,5E0,8E0,2E1,2E1,7.6E1,5E0,6.5E1,3E0,1.2E1,1.1E1,1E1,3E0,1.7E1,3E0,1.1E1,1.6E1,1.7E1,1.7E1,8E0,4.1E1,4E0,1.4E1,5E0,4E0,1.7E1,4E0,3.9E1,9E0,2.1E1,5E0,1.6E1,1.2E1,1.7E1,3E0,3.1E1,2.4E1,3.2E1,2.7E1,3.5E1,3E0,1.4E1,5.1E1,2.4E1,9E0,1.1E1,1.36E2,9E0,3E0,4.5E1,8.5E1,1E1,5.2E1],"tree_param":{"num_deleted":"0","num_feature":"10","num_nodes":"169","size_leaf_vector":"1"}},{"base_weights":[3.1486177E-3,-9.006597E-1,5.735134E-1,-1.0905476E0,-1.2746322E-1,-1.520445E-1,7.116867E-1,-8.502668E-1,-1.3129374E0,-2.773675E-1,9.423212E-1,-5.090063E-1,4.5271285E-2,3.0213365E-1,8.477938E-1,-9.557768E-1,-3.525201E-1,-1.4121143E0,-9.515976E-1,4.318333E-2,-4.4596303E-1,5.480655E-2,1.8235674E-2,-6.9506586E-1,-4.1033622E-2,3.218216E-1,-1.1024659E-1,-4.2148963E-1,5.3334516E-1,1.0306765E0,5.7990015E-1,-6.919169E-1,-1.0598825E0,-3.4916453E-2,-1.4147773E-1,-5.390922E-2,-1.491998E0,-1.0540122E0,-2.3164481E-1,-5.9475888E-2,2.7496522E-2,-5.960731E-1,-1.9759549E-1,-4.7877038E-1,-1.1330504E0,-3.5277736E-1,3.8024324E-1,2.0106075E-2,7.1774386E-2,-4.7918978E-1,-2.2413114E-2,-1.3710083E-1,-7.076972E-1,3.6761102E-1,8.011356E-1,3.8349074E-1,1.0431938E0,5.975506E-1,-1.4172462E-1,-8.020435E-1,-3.9520705E-1,-4.8421904E-2,-6.009538E-2,-3.0380294E-1,1.18993625E-1,-7.566076E-2,-3.3043724E-2,-6.2225748E-2,-8.359021E-1,2.936455E-3,-2.0164331E-2,1.1364329E-2,-9.778472E-2,-4.4457663E-2,-4.067919E-1,-3.611015E-1,-9.2787415E-2,-5.77223E-1,5.446867E-3,-1.7327232E-2,-6.6217385E-2,-4.275953E-3,-2.1490468E-2,2.6572434E-2,3.5587822E-3,9.598989E-3,-2.1863373E-3,-5.6396597E-3,-3.4079425E-2,-2.4626127E-1,6.1015066E-2,-1.1556222E-3,-1.1384164E-2,-4.4707157E-2,-4.4477877E-1,4.1703156E-1,-1.8927597E-1,9.247501E-1,5.7719606E-1,2.5832027E-2,7.6821367E-3,8.689035E-1,1.0980492E0,3.7210318E-1,6.4659977E-1,-1.6662806E-2,3.011901E-3,-1.8503677E-2,-4.424896E-2,-2.6930878E-2,-0E0,-2.0301279E-2,-8.06E-3,1.0625722E-2,-4.808831E-3,-2.9103676E-2,-5.5875033E-2,-1.9611293E-3,-2.2913678E-2,-8.052627E-3,-2.780576E-2,-2.468813E-3,-2.5894538E-2,2.4441967E-4,-8.3322665E-3,-2.1695133E-2,-4.449818E-2,-1.5687384E-3,-1.659969E-2,1.4130819E-2,-0E0,-2.7722484E-2,-6.920767E-3,2.669324E-2,1.3526732E-2,9.060997E-4,-1.5633097E-2,5.1656604E-2,2.5398368E-2,9.379487E-3,3.0862598E-2,1.0032453E-2,4.5932185E-2,6.088385E-2,5.1071186E-2,7.936007E-3,2.5517127E-2,3.8073357E-2,2.5889626E-2],"categories":[],"categories_nodes":[],"categories_segments":[],"categories_sizes":[],"default_left":[0,0,0,0,0,0,0,0,0,0,0,0,0,0,0,0,0,0,0,0,0,0,0,0,0,0,0,0,0,0,0,0,0,0,0,0,0,0,0,0,0,0,0,0,0,0,0,0,0,0,0,0,0,0,0,0,0,0,0,0,0,0,0,0,0,0,0,0,0,0,0,0,0,0,0,0,0,0,0,0,0,0,0,0,0,0,0,0,0,0,0,0,0,0,0,0,0,0,0,0,0,0,0,0,0,0,0,0,0,0,0,0,0,0,0,0,0,0,0,0,0,0,0,0,0,0,0,0,0,0,0,0,0,0,0,0,0,0,0,0,0,0,0,0,0,0,0,0,0],"id":1,"left_children":[1,3,5,7,9,11,13,15,17,19,21,23,25,27,29,31,33,35,37,39,41,-1,-1,43,45,47,49,51,53,55,57,59,61,-1,63,-1,65,67,69,71,-1,73,75,77,79,81,83,-1,85,87,89,91,93,95,97,99,101,103,105,107,109,-1,-1,111,113,-1,-1,-1,115,-1,-1,-1,117,-1,119,121,123,125,-1,-1,-1,-1,-1,-1,-1,-1,-1,-1,-1,127,129,-1,-1,-1,131,133,135,137,139,-1,-1,141,143,145,147,-1,-1,-1,-1,-1,-1,-1,-1,-1,-1,-1,-1,-1,-1,-1,-1,-1,-1,-1,-1,-1,-1,-1,-1,-1,-1,-1,-1,-1,-1,-1,-1,-1,-1,-1,-1,-1,-1,-1,-1,-1,-1,-1,-1],"loss_changes":[8.634315E2,9.487897E1,1.0312372E2,2.645404E1,2.088199E1,1.169106E1,4.7735138E1,1.2819107E1,8.024078E0,6.2204885E0,8.756094E-1,5.0350456E0,4.6585484E0,3.654226E1,3.0939758E1,4.805069E0,3.174316E0,3.6828308E0,4.1250305E0,2.1626437E0,2.5990372E0,0E0,0E0,3.275179E0,2.4953425E0,7.0682096E-1,2.1750834E0,4.132388E0,6.9116516E0,2.5599976E0,3.505577E0,1.5891914E0,5.281372E-1,0E0,1.3230634E0,0E0,1.6921692E0,9.53846E-1,5.0670314E-1,3.8278317E-1,0E0,2.0605354E0,4.3520796E-1,1.8455501E0,1.3298988E0,1.3817215E-1,2.7577305E-1,0E0,1.7594239E-1,8.0774E-1,1.0980392E0,2.5876784E-1,7.429342E-1,2.9639616E0,1.0323372E0,1.2903154E-1,2.4345093E0,2.5215454E0,3.1815195E-1,1.1233196E0,1.093941E0,0E0,0E0,1.5479386E-1,2.7354747E-1,0E0,0E0,0E0,1.180954E0,0E0,0E0,0E0,5.867166E-1,0E0,9.395585E-1,4.5532858E-1,1.6127293E-1,6.4683056E-1,0E0,0E0,0E0,0E0,0E0,0E0,0E0,0E0,0E0,0E0,0E0,2.48011E-1,5.62489E-1,0E0,0E0,0E0,2.9075837E-1,1.4182396E0,2.6543003E-1,1.0376167E0,1.9387627E-1,0E0,0E0,2.8614578E0,1.1080933E0,1.2974911E0,2.599701E0,0E0,0E0,0E0,0E0,0E0,0E0,0E0,0E0,0E0,0E0,0E0,0E0,0E0,0E0,0E0,0E0,0E0,0E0,0E0,0E0,0E0,0E0,0E0,0E0,0E0,0E0,0E0,0E0,0E0,0E0,0E0,0E0,0E0,0E0,0E0,0E0,0E0,0E0,0E0,0E0,0E0,0E0,0E0,0E0],"parents":[2147483647,0,0,1,1,2,2,3,3,4,4,5,5,6,6,7,7,8,8,9,9,10,10,11,11,12,12,13,13,14,14,15,15,16,16,17,17,18,18,19,19,20,20,23,23,24,24,25,25,26,26,27,27,28,28,29,29,30,30,31,31,32,32,34,34,36,36,37,37,38,38,39,39,41,41,42,42,43,43,44,44,45,45,46,46,48,48,49,49,50,50,51,51,52,52,53,53,54,54,55,55,56,56,57,57,58,58,59,59,60,60,63,63,64,64,68,68,72,72,74,74,75,75,76,76,77,77,89,89,90,90,94,94,95,95,96,96,97,97,98,98,101,101,102,102,103,103,104,104],"right_children":[2,4,6,8,10,12,14,16,18,20,22,24,26,28,30,32,34,36,38,40,42,-1,-1,44,46,48,50,52,54,56,58,60,62,-1,64,-1,66,68,70,72,-1,74,76,78,80,82,84,-1,86,88,90,92,94,96,98,100,102,104,106,108,110,-1,-1,112,114,-1,-1,-1,116,-1,-1,-1,118,-1,120,122,124,126,-1,-1,-1,-1,-1,-1,-1,-1,-1,-1,-1,128,130,-1,-1,-1,132,134,136,138,140,-1,-1,142,144,146,148,-1,-1,-1,-1,-1,-1,-1,-1,-1,-1,-1,-1,-1,-1,-1,-1,-1,-1,-1,-1,-1,-1,-1,-1,-1,-1,-1,-1,-1,-1,-1,-1,-1,-1,-1,-1,-1,-1,-1,-1,-1,-1,-1,-1],"split_conditions":[-5.0498426E-1,-2.3126398E-1,-5.078015E-1,4.776709E-1,-1.9882713E-1,7.108779E-1,-5.351842E-1,-7.5193286E-1,5.643985E-1,-9.9909955E-1,-1.1407104E0,-7.2927105E-1,2.553953E-1,6.86903E-1,-1.0788389E-1,-1.066969E0,2.6573401E-2,-1.2095529E-1,-1.0305536E0,7.602774E-1,-1.1842601E0,5.480655E-2,1.8235674E-2,-5.031096E-1,-2.8147855E-1,5.17777E-1,-1.2306195E0,-3.9057517E-1,1.2161092E0,-3.6269698E-1,2.0365968E0,7.58619E-1,-2.6696207E-2,-3.4916453E-2,-1.0030463E0,-5.390922E-2,-5.755853E-1,-9.25245E-1,-2.363453E-1,-1.2711135E0,2.7496522E-2,1.15088195E-1,-9.68947E-1,2.6055378E-1,-1.6289634E0,-3.554316E-1,-6.3145477E-1,2.0106075E-2,-1.8173037E-1,5.7381773E-1,-6.658354E-1,-1.2330421E0,9.419827E-2,4.3679637E-1,-7.039075E-1,-2.6570722E-1,-2.1252574E-1,-2.412708E-1,1.0746794E-1,-1.3672917E0,-9.693521E-1,-4.8421904E-2,-6.009538E-2,4.3679637E-1,-7.0622005E-3,-7.566076E-2,-3.3043724E-2,-6.2225748E-2,5.17777E-1,2.936455E-3,-2.0164331E-2,1.1364329E-2,-2.0824118E-1,-4.4457663E-2,-2.8883945E-3,3.6137003E-2,-6.195046E-1,6.951176E-1,5.446867E-3,-1.7327232E-2,-6.6217385E-2,-4.275953E-3,-2.1490468E-2,2.6572434E-2,3.5587822E-3,9.598989E-3,-2.1863373E-3,-5.6396597E-3,-3.4079425E-2,9.1390187E-1,3.4827098E-1,-1.1556222E-3,-1.1384164E-2,-4.4707157E-2,2.139051E-2,3.015634E-1,-2.88149E-1,1.6684636E0,-1.9522239E0,2.5832027E-2,7.6821367E-3,9.1051865E-1,-9.862005E-1,-6.0097348E-2,3.8013613E-1,-1.6662806E-2,3.011901E-3,-1.8503677E-2,-4.424896E-2,-2.6930878E-2,-0E0,-2.0301279E-2,-8.06E-3,1.0625722E-2,-4.808831E-3,-2.9103676E-2,-5.5875033E-2,-1.9611293E-3,-2.2913678E-2,-8.052627E-3,-2.780576E-2,-2.468813E-3,-2.5894538E-2,2.4441967E-4,-8.3322665E-3,-2.1695133E-2,-4.449818E-2,-1.5687384E-3,-1.659969E-2,1.4130819E-2,-0E0,-2.7722484E-2,-6.920767E-3,2.669324E-2,1.3526732E-2,9.060997E-4,-1.5633097E-2,5.1656604E-2,2.5398368E-2,9.379487E-3,3.0862598E-2,1.0032453E-2,4.5932185E-2,6.088385E-2,5.1071186E-2,7.936007E-3,2.5517127E-2,3.8073357E-2,2.5889626E-2],"split_indices":[3,0,0,6,5,5,5,3,5,6,6,0,6,0,6,2,5,8,0,0,5,0,0,2,3,9,0,6,0,0,6,8,6,0,0,0,3,3,8,8,0,0,3,3,0,7,9,0,6,6,7,6,0,8,6,6,5,0,5,2,0,0,0,8,6,0,0,0,9,0,0,0,9,0,2,9,8,9,0,0,0,0,0,0,0,0,0,0,0,5,8,0,0,0,7,9,3,3,8,0,0,0,6,7,6,0,0,0,0,0,0,0,0,0,0,0,0,0,0,0,0,0,0,0,0,0,0,0,0,0,0,0,0,0,0,0,0,0,0,0,0,0,0,0,0,0,0,0,0],"split_type":[0,0,0,0,0,0,0,0,0,0,0,0,0,0,0,0,0,0,0,0,0,0,0,0,0,0,0,0,0,0,0,0,0,0,0,0,0,0,0,0,0,0,0,0,0,0,0,0,0,0,0,0,0,0,0,0,0,0,0,0,0,0,0,0,0,0,0,0,0,0,0,0,0,0,0,0,0,0,0,0,0,0,0,0,0,0,0,0,0,0,0,0,0,0,0,0,0,0,0,0,0,0,0,0,0,0,0,0,0,0,0,0,0,0,0,0,0,0,0,0,0,0,0,0,0,0,0,0,0,0,0,0,0,0,0,0,0,0,0,0,0,0,0,0,0,0,0,0,0],"sum_hessian":[1.673E3,6.47E2,1.026E3,5.19E2,1.28E2,1.64E2,8.62E2,2.52E2,2.67E2,1.13E2,1.5E1,5.8E1,1.06E2,2.16E2,6.46E2,2.07E2,4.5E1,2.07E2,6E1,3.9E1,7.4E1,1.1E1,4E0,4.1E1,1.7E1,3.8E1,6.8E1,5.2E1,1.64E2,3.82E2,2.64E2,6.1E1,1.46E2,1.6E1,2.9E1,4.3E1,1.64E2,5.2E1,8E0,3.3E1,6E0,4.5E1,2.9E1,2.9E1,1.2E1,1E1,7E0,2.8E1,1E1,1.2E1,5.6E1,2.7E1,2.5E1,1.03E2,6.1E1,8E0,3.74E2,2.58E2,6E0,4.3E1,1.8E1,9.4E1,5.2E1,1.8E1,1.1E1,1.59E2,5E0,2.5E1,2.7E1,3E0,5E0,3E0,3E1,1.6E1,2.9E1,1E1,1.9E1,2.5E1,4E0,3E0,9E0,3E0,7E0,4E0,3E0,5E0,5E0,5E0,7E0,1.5E1,4.1E1,1.3E1,1.4E1,1.3E1,1.2E1,9.5E1,8E0,3.7E1,2.4E1,4E0,4E0,9.4E1,2.8E2,4.8E1,2.1E2,3E0,3E0,8E0,3.5E1,1.3E1,5E0,9E0,9E0,8E0,3E0,1.6E1,1.1E1,2.7E1,3E0,1.2E1,1.7E1,4E0,6E0,8E0,1.1E1,1.9E1,6E0,5E0,1E1,8E0,3.3E1,8E0,4E0,5.1E1,4.4E1,3E0,5E0,2.8E1,9E0,3E0,2.1E1,7E0,8.7E1,1.03E2,1.77E2,2E1,2.8E1,1.08E2,1.02E2],"tree_param":{"num_deleted":"0","num_feature":"10","num_nodes":"149","size_leaf_vector":"1"}},{"base_weights":[7.8393833E-4,-8.2630736E-1,5.5006546E-1,-1.0298285E0,-1.1801051E-1,-1.5610746E-1,6.894033E-1,-1.1034961E0,-6.026167E-1,-3.2115394E-1,4.4108418E-1,-5.734942E-1,2.4284313E-2,2.8989702E-1,8.0444634E-1,-9.195147E-1,-1.2010053E0,-8.764011E-1,-1.3201505E-1,-4.7530475E-1,-5.7878684E-2,6.138292E-1,-2.1101862E-1,-1.0396221E-1,-8.091937E-1,-1.6831735E-1,1.7426008E-1,-3.898945E-1,4.9486896E-1,5.4175574E-1,8.791936E-1,-4.9739224E-3,-9.453472E-1,-1.293062E0,-9.5537E-1,-1.0221342E0,-4.712639E-1,-3.3406022E-1,1.15612276E-1,-4.021914E-2,-3.4142658E-1,-1.2687318E-1,3.0214367E-2,4.3858197E-1,4.7275748E-2,-2.3868458E-2,-0E0,-2.2965984E-1,1.8419722E-2,-1.0080462E0,-4.1803235E-1,3.9429322E-2,-3.7343642E-1,9.717276E-2,4.232121E-1,-1.3090725E-1,-5.774885E-1,3.1731245E-1,6.5958786E-1,6.41009E-1,1.7943367E-1,1.052521E0,7.601969E-1,-9.921322E-1,-5.389845E-1,-1.368614E0,-1.0801638E0,-1.0203733E0,-3.8180935E-1,-1.9174155E-2,-5.5622995E-2,-2.7699787E-2,-8.75005E-3,9.160577E-3,-4.6513355E-1,1.4977425E-2,-8.144706E-3,-1.8404351E-1,-2.9577157E-2,-7.0840135E-2,-2.0329079E-2,2.9679064E-2,2.3870085E-1,-3.6172447E-1,9.947449E-3,-5.6508686E-2,-2.9402599E-2,-6.7284815E-3,-2.8293768E-2,1.04038954E-1,-1.1636946E-2,-4.734958E-1,-9.959316E-4,2.1777628E-1,-1.0168171E-1,5.733226E-1,4.2912974E-3,4.845824E-3,-1.8269476E-1,-6.2050982E-3,-7.4135536E-1,3.8303107E-1,-3.486658E-2,6.8176425E-1,1.3898097E-2,8.920406E-3,6.732958E-1,2.9300666E-1,-6.525834E-2,7.2838336E-1,1.08975E0,6.391344E-1,8.50381E-1,-4.0373567E-2,-5.305287E-2,-8.136551E-3,-3.526085E-2,-6.95966E-2,-3.478904E-2,-2.8827274E-2,-5.6801118E-2,-1.8735023E-2,-5.2078314E-2,-3.2143102E-3,-3.3323765E-2,-6.1278655E-3,-2.8995415E-2,2.935586E-3,-1.1653046E-2,5.2984767E-3,-5.804199E-3,2.3247378E-2,5.0256667E-3,-2.7934378E-2,-9.045348E-3,9.921151E-3,2.0049098E-3,-5.3605232E-3,-2.7605826E-2,4.909594E-3,2.0526651E-2,6.599897E-3,-9.752072E-3,1.3079936E-2,3.6043603E-2,-1.1528081E-2,-8.5096886E-5,-4.0207103E-2,-1.4778321E-2,2.177721E-2,-3.5002616E-3,9.47282E-3,-7.0901364E-3,1.2029349E-2,3.518369E-2,2.4877392E-2,3.874796E-2,1.8068373E-2,3.5421853E-3,-9.837545E-3,9.45207E-3,3.9555594E-2,1.5589632E-2,2.1745197E-2,5.4895975E-2,1.8430756E-2,3.7319295E-2,4.7335967E-2,3.4958895E-2],"categories":[],"categories_nodes":[],"categories_segments":[],"categories_sizes":[],"default_left":[0,0,0,0,0,0,0,0,0,0,0,0,0,0,0,0,0,0,0,0,0,0,0,0,0,0,0,0,0,0,0,0,0,0,0,0,0,0,0,0,0,0,0,0,0,0,0,0,0,0,0,0,0,0,0,0,0,0,0,0,0,0,0,0,0,0,0,0,0,0,0,0,0,0,0,0,0,0,0,0,0,0,0,0,0,0,0,0,0,0,0,0,0,0,0,0,0,0,0,0,0,0,0,0,0,0,0,0,0,0,0,0,0,0,0,0,0,0,0,0,0,0,0,0,0,0,0,0,0,0,0,0,0,0,0,0,0,0,0,0,0,0,0,0,0,0,0,0,0,0,0,0,0,0,0,0,0,0,0,0,0,0,0,0,0,0,0,0,0],"id":2,"left_children":[1,3,5,7,9,11,13,15,17,19,21,23,25,27,29,31,33,35,37,39,41,43,45,47,49,51,53,55,57,59,61,-1,63,65,67,69,71,73,75,-1,77,79,-1,81,-1,-1,-1,83,-1,85,87,89,91,93,95,97,99,101,103,105,107,109,111,113,115,117,119,121,123,-1,-1,-1,-1,-1,125,-1,-1,127,-1,129,-1,-1,131,133,-1,-1,-1,-1,-1,135,-1,137,-1,139,141,143,-1,-1,145,-1,147,149,151,153,-1,-1,155,157,159,161,163,165,167,-1,-1,-1,-1,-1,-1,-1,-1,-1,-1,-1,-1,-1,-1,-1,-1,-1,-1,-1,-1,-1,-1,-1,-1,-1,-1,-1,-1,-1,-1,-1,-1,-1,-1,-1,-1,-1,-1,-1,-1,-1,-1,-1,-1,-1,-1,-1,-1,-1,-1,-1,-1,-1,-1,-1,-1],"loss_changes":[7.536661E2,9.51933E1,9.826239E1,1.534082E1,1.7052547E1,1.2492216E1,3.794232E1,6.5233765E0,9.833246E0,4.383422E0,4.675711E0,5.357979E0,3.3806524E0,2.639902E1,1.2066101E1,3.1060944E0,4.916443E0,2.2620163E0,1.5614233E0,2.650671E0,1.9477304E0,1.3069687E0,5.1076555E-1,1.1394659E0,2.0028477E0,2.221378E0,1.1734457E0,1.9912796E0,3.9338188E0,5.053337E0,9.351898E0,0E0,2.1829224E0,1.52594E0,2.4901428E0,1.4428291E0,1.9780636E-1,1.2660193E0,7.796439E-1,0E0,1.8211412E0,5.346992E-1,0E0,4.876566E-1,0E0,0E0,0E0,9.373032E-1,0E0,2.4072647E-1,3.9860964E-1,4.6854582E-1,8.6091924E-1,1.280846E0,6.4455724E-1,2.6225245E-1,1.6788263E0,1.7145915E0,3.407898E-1,1.4973984E0,9.58979E-1,1.4499664E0,2.5938416E0,6.618805E-1,9.2426443E-1,1.0976868E0,8.0539703E-1,4.5332336E-1,7.8795886E-1,0E0,0E0,0E0,0E0,0E0,4.0914893E-1,0E0,0E0,4.2379308E-1,0E0,2.8529742E-1,0E0,0E0,2.7189416E-1,2.5234282E-1,0E0,0E0,0E0,0E0,0E0,1.0096122E-1,0E0,4.5082664E-1,0E0,6.694896E-1,4.6837488E-1,1.7312074E-1,0E0,0E0,1.2366176E-1,0E0,1.5616322E-1,1.5182571E0,3.099589E-1,4.0323257E-1,0E0,0E0,1.3810844E0,2.804848E-1,4.057888E-1,2.702179E-1,3.2147217E-1,3.4721832E0,1.6352386E0,0E0,0E0,0E0,0E0,0E0,0E0,0E0,0E0,0E0,0E0,0E0,0E0,0E0,0E0,0E0,0E0,0E0,0E0,0E0,0E0,0E0,0E0,0E0,0E0,0E0,0E0,0E0,0E0,0E0,0E0,0E0,0E0,0E0,0E0,0E0,0E0,0E0,0E0,0E0,0E0,0E0,0E0,0E0,0E0,0E0,0E0,0E0,0E0,0E0,0E0,0E0,0E0,0E0,0E0,0E0,0E0],"parents":[2147483647,0,0,1,1,2,2,3,3,4,4,5,5,6,6,7,7,8,8,9,9,10,10,11,11,12,12,13,13,14,14,15,15,16,16,17,17,18,18,19,19,20,20,21,21,22,22,23,23,24,24,25,25,26,26,27,27,28,28,29,29,30,30,32,32,33,33,34,34,35,35,36,36,37,37,38,38,40,40,41,41,43,43,47,47,49,49,50,50,51,51,52,52,53,53,54,54,55,55,56,56,57,57,58,58,59,59,60,60,61,61,62,62,63,63,64,64,65,65,66,66,67,67,68,68,74,74,77,77,79,79,82,82,83,83,89,89,91,91,93,93,94,94,95,95,98,98,100,100,101,101,102,102,103,103,106,106,107,107,108,108,109,109,110,110,111,111,112,112],"right_children":[2,4,6,8,10,12,14,16,18,20,22,24,26,28,30,32,34,36,38,40,42,44,46,48,50,52,54,56,58,60,62,-1,64,66,68,70,72,74,76,-1,78,80,-1,82,-1,-1,-1,84,-1,86,88,90,92,94,96,98,100,102,104,106,108,110,112,114,116,118,120,122,124,-1,-1,-1,-1,-1,126,-1,-1,128,-1,130,-1,-1,132,134,-1,-1,-1,-1,-1,136,-1,138,-1,140,142,144,-1,-1,146,-1,148,150,152,154,-1,-1,156,158,160,162,164,166,168,-1,-1,-1,-1,-1,-1,-1,-1,-1,-1,-1,-1,-1,-1,-1,-1,-1,-1,-1,-1,-1,-1,-1,-1,-1,-1,-1,-1,-1,-1,-1,-1,-1,-1,-1,-1,-1,-1,-1,-1,-1,-1,-1,-1,-1,-1,-1,-1,-1,-1,-1,-1,-1,-1,-1,-1],"split_conditions":[-4.7184592E-1,-2.3126398E-1,-5.078015E-1,7.784626E-1,5.911956E-1,5.643985E-1,-6.1829925E-1,-2.640094E-1,-1.1146333E0,-1.1842601E0,6.436128E-2,-1.089812E-1,-8.666544E-1,6.86903E-1,2.7952366E-2,-1.3672917E0,-9.003036E-1,-7.5193286E-1,-6.814759E-1,6.575452E-2,-2.4779549E-2,-1.5065107E-1,-4.311174E-1,1.2657939E0,-1.93495E-1,-7.940009E-1,1.3400348E0,-6.836271E-1,1.0775713E0,-3.164035E-1,2.2542565E-1,-4.9739224E-3,-7.019792E-1,2.4112172E-1,1.883706E-1,-1.3672917E0,8.1524295E-1,-1.1819155E0,-2.0824118E-1,-4.021914E-2,-3.0269405E-1,-1.1814404E-1,3.0214367E-2,-8.618271E-1,4.7275748E-2,-2.3868458E-2,-0E0,1.7170513E-1,1.8419722E-2,-6.888753E-2,5.846172E-1,1.2901897E0,1.6017928E0,9.049776E-1,-5.1594406E-1,-1.617827E0,-7.969169E-1,1.1760252E0,3.3075466E0,-1.6335396E0,-1.1209992E-1,2.3320721E-1,1.0775713E0,-9.904298E-1,-8.9996654E-1,1.1014864E0,-1.7071764E0,-1.0731916E0,-9.523921E-1,-1.9174155E-2,-5.5622995E-2,-2.7699787E-2,-8.75005E-3,9.160577E-3,-1.1953509E0,1.4977425E-2,-8.144706E-3,-3.0759197E-1,-2.9577157E-2,-1.4040977E0,-2.0329079E-2,2.9679064E-2,3.5717547E-1,-7.5335455E-1,9.947449E-3,-5.6508686E-2,-2.9402599E-2,-6.7284815E-3,-2.8293768E-2,-1.1565473E0,-1.1636946E-2,-7.2944136E-3,-9.959316E-4,4.4068015E-1,-1.0862706E-2,-2.0932284E-1,4.2912974E-3,4.845824E-3,6.0999596E-1,-6.2050982E-3,4.8153162E-1,4.3679637E-1,-5.738176E-1,-1.2806607E0,1.3898097E-2,8.920406E-3,1.1198832E0,2.208249E-1,8.064224E-1,6.2992084E-1,-5.351842E-1,8.338284E-2,1.5926981E0,-4.0373567E-2,-5.305287E-2,-8.136551E-3,-3.526085E-2,-6.95966E-2,-3.478904E-2,-2.8827274E-2,-5.6801118E-2,-1.8735023E-2,-5.2078314E-2,-3.2143102E-3,-3.3323765E-2,-6.1278655E-3,-2.8995415E-2,2.935586E-3,-1.1653046E-2,5.2984767E-3,-5.804199E-3,2.3247378E-2,5.0256667E-3,-2.7934378E-2,-9.045348E-3,9.921151E-3,2.0049098E-3,-5.3605232E-3,-2.7605826E-2,4.909594E-3,2.0526651E-2,6.599897E-3,-9.752072E-3,1.3079936E-2,3.6043603E-2,-1.1528081E-2,-8.5096886E-5,-4.0207103E-2,-1.4778321E-2,2.177721E-2,-3.5002616E-3,9.47282E-3,-7.0901364E-3,1.2029349E-2,3.518369E-2,2.4877392E-2,3.874796E-2,1.8068373E-2,3.5421853E-3,-9.837545E-3,9.45207E-3,3.9555594E-2,1.5589632E-2,2.1745197E-2,5.4895975E-2,1.8430756E-2,3.7319295E-2,4.7335967E-2,3.4958895E-2],"split_indices":[3,0,0,5,0,5,5,7,0,5,8,9,0,0,0,2,0,3,3,0,5,5,5,7,5,2,8,7,0,2,9,0,3,5,5,2,8,2,9,0,9,9,0,7,0,0,0,3,0,3,8,8,5,8,7,9,1,2,3,1,0,0,0,2,2,8,9,2,9,0,0,0,0,0,9,0,0,2,0,7,0,0,9,9,0,0,0,0,0,0,0,8,0,1,9,3,0,0,0,0,0,8,7,1,0,0,5,2,3,3,5,5,2,0,0,0,0,0,0,0,0,0,0,0,0,0,0,0,0,0,0,0,0,0,0,0,0,0,0,0,0,0,0,0,0,0,0,0,0,0,0,0,0,0,0,0,0,0,0,0,0,0,0,0,0,0,0,0,0],"split_type":[0,0,0,0,0,0,0,0,0,0,0,0,0,0,0,0,0,0,0,0,0,0,0,0,0,0,0,0,0,0,0,0,0,0,0,0,0,0,0,0,0,0,0,0,0,0,0,0,0,0,0,0,0,0,0,0,0,0,0,0,0,0,0,0,0,0,0,0,0,0,0,0,0,0,0,0,0,0,0,0,0,0,0,0,0,0,0,0,0,0,0,0,0,0,0,0,0,0,0,0,0,0,0,0,0,0,0,0,0,0,0,0,0,0,0,0,0,0,0,0,0,0,0,0,0,0,0,0,0,0,0,0,0,0,0,0,0,0,0,0,0,0,0,0,0,0,0,0,0,0,0,0,0,0,0,0,0,0,0,0,0,0,0,0,0,0,0,0,0],"sum_hessian":[1.657E3,6.61E2,9.96E2,5.13E2,1.48E2,1.64E2,8.32E2,4.36E2,7.7E1,1.09E2,3.9E1,4.9E1,1.15E2,1.87E2,6.45E2,1.55E2,2.81E2,4.8E1,2.9E1,6.8E1,4.1E1,3.1E1,8E0,1.7E1,3.2E1,5E1,6.5E1,4.3E1,1.44E2,1.45E2,5E2,5E0,1.5E2,2.01E2,8E1,3.4E1,1.4E1,1.6E1,1.3E1,1.8E1,5E1,3.8E1,3E0,2.2E1,9E0,3E0,5E0,1.4E1,3E0,2E1,1.2E1,2.5E1,2.5E1,5.1E1,1.4E1,1.9E1,2.4E1,7.1E1,7.3E1,1.13E2,3.2E1,2E2,3E2,1.33E2,1.7E1,1.44E2,5.7E1,7.1E1,9E0,5E0,2.9E1,1E1,4E0,3E0,1.3E1,8E0,5E0,3.2E1,1.8E1,3.3E1,5E0,1.1E1,1.1E1,1.1E1,3E0,1.4E1,6E0,5E0,7E0,2.1E1,4E0,1.9E1,6E0,3.2E1,1.9E1,9E0,5E0,3E0,1.6E1,7E0,1.7E1,6E1,1.1E1,6.8E1,5E0,8E0,1.05E2,2.2E1,1E1,2.3E1,1.77E2,1.32E2,1.68E2,4E1,9.3E1,6E0,1.1E1,1.38E2,6E0,7E0,5E1,3E0,6.8E1,5E0,4E0,4E0,9E0,5E0,2.7E1,6E0,2.7E1,3E0,8E0,4E0,7E0,7E0,1.4E1,4E0,1.5E1,2.1E1,1.1E1,5E0,1.4E1,4E0,5E0,1.2E1,4E0,1.4E1,3E0,5.4E1,6E0,3E0,8E0,4E0,6.4E1,4.1E1,6.4E1,1.6E1,6E0,7E0,3E0,1.9E1,4E0,3E0,1.74E2,3.9E1,9.3E1,9.9E1,6.9E1],"tree_param":{"num_deleted":"0","num_feature":"10","num_nodes":"169","size_leaf_vector":"1"}},{"base_weights":[-1.23180505E-2,-8.175448E-1,5.037487E-1,-9.711973E-1,1.1695533E-2,-1.14149556E-1,6.352208E-1,-7.739505E-1,-1.162568E0,-2.2523314E-1,4.0483543E-1,-3.1092203E-1,1.4183152E-1,7.424634E-1,3.3566794E-1,-8.7432945E-1,-3.729429E-1,-1.2157832E0,-4.3598714E-1,-1.379367E-1,-3.4514975E-2,6.677084E-1,4.024488E-3,-6.13956E-2,-4.9121812E-1,-9.755612E-2,2.3603986E-1,2.829046E-1,7.8839266E-1,-1.7286946E-1,4.324399E-1,-2.2724713E-1,-9.095794E-1,-3.9561793E-2,-2.7792507E-1,-1.2836055E0,-9.832795E-1,4.917027E-2,-6.8922085E-1,-3.644193E-2,-1.7513094E-2,7.710165E-1,1.0630735E-2,2.3826307E-1,-2.767768E-1,-4.962604E-1,2.9138979E-2,-3.5329613E-1,-7.4439734E-1,-1.5795974E-1,1.019255E-2,2.6658094E-2,1.5302913E-1,5.905063E-1,-3.0793939E-2,8.7316376E-1,6.6707104E-1,1.7173675E-1,-3.491499E-1,4.6658352E-1,2.144863E-2,-0E0,-2.932465E-2,-7.904243E-1,-1.0404377E0,-5.034376E-1,-1.6068612E-1,-1.1132282E0,-6.9949344E-2,-1.5405345E-2,-1.0097945E0,-1.5692813E-2,1.7487874E-2,-1.3459637E-2,-3.8510554E-2,1.0582833E-2,-8.078906E-2,2.7372895E-2,5.308829E-2,2.0884773E-2,4.37035E-3,-1.990523E-2,-1.5461438E-3,-4.0426623E-2,-6.3595357E-3,1.9008893E-1,-1.0544378E-1,-3.9483752E-2,-2.5306904E-1,-1.26537355E-2,-8.4516084E-1,-1.8313652E-2,-3.5263968E-1,2.4165039E-1,-1.1693695E-2,8.514557E-1,3.027096E-1,-1.5549786E-1,3.1907907E-1,9.259098E-1,7.097431E-1,5.4237634E-1,8.0384374E-1,1.679948E-2,7.2900095E-4,1.5343289E-1,-6.005673E-1,1.9930662E-1,5.1062256E-1,-8.657029E-2,1.4820217E-2,8.160692E-3,-5.621692E-3,-2.7751802E-2,-4.2426586E-2,-5.3070277E-2,-2.111747E-2,-1.0749253E-2,-3.225053E-2,-1.6448628E-3,-2.5044441E-2,-5.795899E-2,-3.62464E-2,-5.6637663E-2,-4.0465E-2,7.2494834E-3,-6.797491E-3,1.64417E-2,-1.7636362E-2,-1.4149094E-2,2.1479132E-3,-2.859327E-4,-1.8876247E-2,-1.699374E-2,-4.6396438E-2,3.625456E-3,-4.8320764E-3,-2.8568143E-2,-4.3566604E-3,-0E0,1.50017245E-2,6.0353964E-3,-2.4858799E-2,5.5688817E-2,2.3510158E-2,3.4036957E-2,5.5819093E-3,1.0840213E-2,-1.2527558E-2,5.4616984E-3,2.3830784E-2,3.6930062E-2,4.887088E-2,1.8495185E-2,3.7168097E-2,3.070117E-2,1.292173E-2,2.9825488E-2,4.4264525E-2,2.3097565E-2,-1.6135149E-2,-3.9651133E-2,-1.6513556E-2,2.0475639E-2,-6.729266E-3,2.8281933E-2,1.8934986E-2,-1.0199834E-2,2.4094433E-3],"categories":[],"categories_nodes":[],"categories_segments":[],"categories_sizes":[],"default_left":[0,0,0,0,0,0,0,0,0,0,0,0,0,0,0,0,0,0,0,0,0,0,0,0,0,0,0,0,0,0,0,0,0,0,0,0,0,0,0,0,0,0,0,0,0,0,0,0,0,0,0,0,0,0,0,0,0,0,0,0,0,0,0,0,0,0,0,0,0,0,0,0,0,0,0,0,0,0,0,0,0,0,0,0,0,0,0,0,0,0,0,0,0,0,0,0,0,0,0,0,0,0,0,0,0,0,0,0,0,0,0,0,0,0,0,0,0,0,0,0,0,0,0,0,0,0,0,0,0,0,0,0,0,0,0,0,0,0,0,0,0,0,0,0,0,0,0,0,0,0,0,0,0,0,0,0,0,0,0,0,0,0,0,0,0,0,0,0,0],"id":3,"left_children":[1,3,5,7,9,11,13,15,17,19,21,23,25,27,29,31,33,35,37,39,-1,41,43,45,47,49,51,53,55,57,59,61,63,-1,65,67,69,71,73,75,-1,77,-1,79,81,83,85,87,89,91,-1,-1,93,95,97,99,101,103,105,107,109,111,-1,113,115,117,119,121,-1,-1,123,-1,-1,-1,-1,-1,125,-1,-1,-1,-1,-1,-1,-1,-1,127,129,-1,131,-1,133,135,137,139,141,143,145,147,149,151,153,155,157,-1,-1,159,161,163,165,167,-1,-1,-1,-1,-1,-1,-1,-1,-1,-1,-1,-1,-1,-1,-1,-1,-1,-1,-1,-1,-1,-1,-1,-1,-1,-1,-1,-1,-1,-1,-1,-1,-1,-1,-1,-1,-1,-1,-1,-1,-1,-1,-1,-1,-1,-1,-1,-1,-1,-1,-1,-1,-1,-1,-1,-1,-1,-1,-1],"loss_changes":[7.0854175E2,8.4965546E1,8.452927E1,2.0120483E1,9.889484E0,9.278722E0,2.717392E1,1.0819962E1,1.024704E1,2.501469E0,4.144634E0,4.5934E0,1.8410603E0,1.2967346E1,1.1321083E1,4.7661743E0,1.978406E0,2.6584167E0,2.6779172E0,1.1769097E0,0E0,8.66065E-1,1.1802607E0,1.8328364E0,1.7223768E0,4.4635093E-1,1.2803221E0,5.7673144E0,5.1463013E0,2.3253546E0,2.6354752E0,1.0485338E0,2.2845306E0,0E0,1.1481957E0,2.1230469E0,7.0282364E-1,9.863328E-1,1.6497803E-1,4.4411117E-1,0E0,4.9279594E-1,0E0,1.8366492E-1,1.8341798E-1,7.255908E-1,8.516296E-1,1.4890995E0,6.6643524E-1,5.001724E-1,0E0,0E0,7.119248E-1,1.8798504E0,1.3421742E0,2.049652E0,3.5225525E0,2.9561904E-1,3.2958117E0,1.9106369E0,5.2184993E-1,1.8240324E-1,0E0,9.6162415E-1,6.604538E-1,4.287262E-1,1.4082634E0,5.057678E-1,0E0,0E0,3.9286423E-1,0E0,0E0,0E0,0E0,0E0,4.5470178E-1,0E0,0E0,0E0,0E0,0E0,0E0,0E0,0E0,1.4692342E0,5.8944607E-1,0E0,1.0369642E0,0E0,2.2698402E-1,1.0190204E-1,3.4894502E-1,4.402752E-1,1.1903969E0,8.18058E-1,1.0004559E0,8.716317E-1,1.5381873E-1,1.4991455E0,5.962486E-1,2.3783913E0,1.2150345E0,0E0,0E0,1.4850682E0,5.1009655E-1,1.9776329E0,7.873001E-1,2.153025E-1,0E0,0E0,0E0,0E0,0E0,0E0,0E0,0E0,0E0,0E0,0E0,0E0,0E0,0E0,0E0,0E0,0E0,0E0,0E0,0E0,0E0,0E0,0E0,0E0,0E0,0E0,0E0,0E0,0E0,0E0,0E0,0E0,0E0,0E0,0E0,0E0,0E0,0E0,0E0,0E0,0E0,0E0,0E0,0E0,0E0,0E0,0E0,0E0,0E0,0E0,0E0,0E0,0E0,0E0,0E0,0E0,0E0,0E0,0E0],"parents":[2147483647,0,0,1,1,2,2,3,3,4,4,5,5,6,6,7,7,8,8,9,9,10,10,11,11,12,12,13,13,14,14,15,15,16,16,17,17,18,18,19,19,21,21,22,22,23,23,24,24,25,25,26,26,27,27,28,28,29,29,30,30,31,31,32,32,34,34,35,35,36,36,37,37,38,38,39,39,41,41,43,43,44,44,45,45,46,46,47,47,48,48,49,49,52,52,53,53,54,54,55,55,56,56,57,57,58,58,59,59,60,60,61,61,63,63,64,64,65,65,66,66,67,67,70,70,76,76,85,85,86,86,88,88,90,90,91,91,92,92,93,93,94,94,95,95,96,96,97,97,98,98,99,99,100,100,101,101,102,102,105,105,106,106,107,107,108,108,109,109],"right_children":[2,4,6,8,10,12,14,16,18,20,22,24,26,28,30,32,34,36,38,40,-1,42,44,46,48,50,52,54,56,58,60,62,64,-1,66,68,70,72,74,76,-1,78,-1,80,82,84,86,88,90,92,-1,-1,94,96,98,100,102,104,106,108,110,112,-1,114,116,118,120,122,-1,-1,124,-1,-1,-1,-1,-1,126,-1,-1,-1,-1,-1,-1,-1,-1,128,130,-1,132,-1,134,136,138,140,142,144,146,148,150,152,154,156,158,-1,-1,160,162,164,166,168,-1,-1,-1,-1,-1,-1,-1,-1,-1,-1,-1,-1,-1,-1,-1,-1,-1,-1,-1,-1,-1,-1,-1,-1,-1,-1,-1,-1,-1,-1,-1,-1,-1,-1,-1,-1,-1,-1,-1,-1,-1,-1,-1,-1,-1,-1,-1,-1,-1,-1,-1,-1,-1,-1,-1,-1,-1,-1,-1],"split_conditions":[-5.176838E-1,6.575452E-2,-4.8291603E-1,4.776709E-1,5.911956E-1,-7.804595E-1,1.559904E-1,-7.5193286E-1,-5.9800667E-1,1.8053137E-1,-8.0025554E-1,4.7190022E-1,-3.15198E-1,-2.8147855E-1,3.03554E-2,-1.3672917E0,-7.7320784E-1,-9.099312E-1,-2.3795463E-1,-4.9048132E-1,-3.4514975E-2,-3.7653303E-1,-7.2944136E-3,-1.3672917E0,-3.9884633E-1,8.983826E-1,-1.3896947E-1,-8.981733E-1,-2.4759689E-1,-3.7653303E-1,1.487316E0,-7.955266E-1,-1.8173037E-1,-3.9561793E-2,-1.1250073E0,-9.1278696E-1,-1.066969E0,-7.548621E-1,-6.547446E-1,-1.2711135E0,-1.7513094E-2,-6.195046E-1,1.0630735E-2,3.719381E-1,-8.199319E-1,2.2724392E-1,-7.0622005E-3,-1.4234307E0,1.0141665E0,3.50808E-2,1.019255E-2,2.6658094E-2,9.049776E-1,-3.7653303E-1,8.4502107E-1,-2.9136175E-1,1.0775713E0,9.712821E-1,-3.9884633E-1,2.1426068E-1,1.0652994E0,5.0402284E-1,-2.932465E-2,-1.0731916E0,-3.8010255E-1,-3.4654886E-1,-6.986413E-1,-7.227547E-1,-6.9949344E-2,-1.5405345E-2,8.6423576E-1,-1.5692813E-2,1.7487874E-2,-1.3459637E-2,-3.8510554E-2,1.0582833E-2,-4.5055157E-1,2.7372895E-2,5.308829E-2,2.0884773E-2,4.37035E-3,-1.990523E-2,-1.5461438E-3,-4.0426623E-2,-6.3595357E-3,-1.3234451E-1,2.1778518E-1,-3.9483752E-2,-7.940009E-1,-1.26537355E-2,-3.7653303E-1,6.000107E-2,6.047637E-1,-2.1850558E-1,6.8542355E-1,4.1535062E-1,-7.234711E-1,-7.330685E-1,-6.7802715E-1,-1.085786E0,-1.5939549E0,7.3733765E-1,-1.557274E0,1.679948E-2,7.2900095E-4,3.6181304E-1,9.419827E-2,-3.5309613E-1,1.087368E0,-1.6928445E-1,1.4820217E-2,8.160692E-3,-5.621692E-3,-2.7751802E-2,-4.2426586E-2,-5.3070277E-2,-2.111747E-2,-1.0749253E-2,-3.225053E-2,-1.6448628E-3,-2.5044441E-2,-5.795899E-2,-3.62464E-2,-5.6637663E-2,-4.0465E-2,7.2494834E-3,-6.797491E-3,1.64417E-2,-1.7636362E-2,-1.4149094E-2,2.1479132E-3,-2.859327E-4,-1.8876247E-2,-1.699374E-2,-4.6396438E-2,3.625456E-3,-4.8320764E-3,-2.8568143E-2,-4.3566604E-3,-0E0,1.50017245E-2,6.0353964E-3,-2.4858799E-2,5.5688817E-2,2.3510158E-2,3.4036957E-2,5.5819093E-3,1.0840213E-2,-1.2527558E-2,5.4616984E-3,2.3830784E-2,3.6930062E-2,4.887088E-2,1.8495185E-2,3.7168097E-2,3.070117E-2,1.292173E-2,2.9825488E-2,4.4264525E-2,2.3097565E-2,-1.6135149E-2,-3.9651133E-2,-1.6513556E-2,2.0475639E-2,-6.729266E-3,2.8281933E-2,1.8934986E-2,-1.0199834E-2,2.4094433E-3],"split_indices":[3,0,0,6,0,0,6,3,3,9,6,6,3,3,3,2,8,0,9,6,0,8,8,2,2,1,6,6,1,8,6,9,6,0,0,2,2,0,7,8,0,8,0,2,3,1,6,0,6,1,0,0,8,8,0,6,0,2,2,3,8,1,0,2,0,7,2,3,0,0,7,0,0,0,0,0,2,0,0,0,0,0,0,0,0,7,1,0,2,0,8,9,6,3,1,2,2,2,6,8,1,2,8,0,0,1,0,1,9,7,0,0,0,0,0,0,0,0,0,0,0,0,0,0,0,0,0,0,0,0,0,0,0,0,0,0,0,0,0,0,0,0,0,0,0,0,0,0,0,0,0,0,0,0,0,0,0,0,0,0,0,0,0,0,0,0,0,0,0],"split_type":[0,0,0,0,0,0,0,0,0,0,0,0,0,0,0,0,0,0,0,0,0,0,0,0,0,0,0,0,0,0,0,0,0,0,0,0,0,0,0,0,0,0,0,0,0,0,0,0,0,0,0,0,0,0,0,0,0,0,0,0,0,0,0,0,0,0,0,0,0,0,0,0,0,0,0,0,0,0,0,0,0,0,0,0,0,0,0,0,0,0,0,0,0,0,0,0,0,0,0,0,0,0,0,0,0,0,0,0,0,0,0,0,0,0,0,0,0,0,0,0,0,0,0,0,0,0,0,0,0,0,0,0,0,0,0,0,0,0,0,0,0,0,0,0,0,0,0,0,0,0,0,0,0,0,0,0,0,0,0,0,0,0,0,0,0,0,0,0,0],"sum_hessian":[1.703E3,6.65E2,1.038E3,5.61E2,1.04E2,1.82E2,8.56E2,2.79E2,2.82E2,6.5E1,3.9E1,1.03E2,7.9E1,6.29E2,2.27E2,2.22E2,5.7E1,2.62E2,2E1,5.6E1,9E0,2.3E1,1.6E1,4.4E1,5.9E1,2.2E1,5.7E1,5.8E1,5.71E2,3.6E1,1.91E2,1.2E1,2.1E2,9E0,4.8E1,1.99E2,6.3E1,7E0,1.3E1,3.9E1,1.7E1,1.8E1,5E0,9E0,7E0,7E0,3.7E1,4E1,1.9E1,1.9E1,3E0,1.1E1,4.6E1,2.9E1,2.9E1,3.32E2,2.39E2,1.2E1,2.4E1,1.76E2,1.5E1,8E0,4E0,1.14E2,9.6E1,1.5E1,3.3E1,8.5E1,1.14E2,3E0,6E1,3E0,4E0,3E0,1E1,5E0,3.4E1,1.2E1,6E0,3E0,6E0,4E0,3E0,3E0,4E0,1.7E1,2E1,6E0,3.4E1,4E0,1.5E1,1.2E1,7E0,3E1,1.6E1,1.4E1,1.5E1,2.2E1,7E0,2.47E2,8.5E1,1.28E2,1.11E2,5E0,7E0,8E0,1.6E1,2.6E1,1.5E2,1.1E1,4E0,3E0,5E0,2.5E1,8.9E1,9.2E1,4E0,6E0,9E0,2.5E1,8E0,7.4E1,1.1E1,3.4E1,2.6E1,6E0,2.8E1,1.4E1,3E0,9E0,1.1E1,1.2E1,2.2E1,3E0,1.2E1,5E0,7E0,3E0,4E0,6E0,2.4E1,1.3E1,3E0,7E0,7E0,4E0,1.1E1,4E0,1.8E1,4E0,3E0,5.7E1,1.9E2,9E0,7.6E1,1.01E2,2.7E1,3.4E1,7.7E1,5E0,3E0,8E0,8E0,1.6E1,1E1,1.03E2,4.7E1,6E0,5E0],"tree_param":{"num_deleted":"0","num_feature":"10","num_nodes":"169","size_leaf_vector":"1"}},{"base_weights":[-1.1001304E-3,-6.799806E-1,5.141513E-1,-9.829026E-1,-2.1342304E-1,2.6457377E-2,7.424941E-1,-7.855397E-1,-1.1701446E0,-6.740698E-1,1.14334576E-1,-3.6188003E-1,4.1025844E-1,9.3220335E-1,5.442768E-1,-8.451195E-1,-4.2289183E-1,-6.3973494E-2,-8.3346415E-1,-8.416377E-1,-2.7272478E-1,-1.3283484E-1,2.749755E-1,-1.8164027E-1,-5.83038E-1,2.8449714E-1,6.666672E-1,7.518055E-1,1.0165601E0,6.5275556E-1,3.9038116E-1,-3.2160285E-1,-8.6323684E-1,-6.665236E-1,1.1587389E-1,-9.031526E-1,-2.725173E-1,-3.3342937E-1,-9.548421E-1,1.8029314E-1,-4.2834815E-1,1.2957326E-1,-2.0648175E-1,1.8806337E-1,5.4905874E-1,-5.3652126E-1,-1.4213789E-1,-7.7867395E-1,-4.054655E-1,3.3625978E-1,-1.4066523E-1,7.7082163E-1,4.5089844E-1,-1.2233511E-1,8.225453E-1,5.4858238E-2,4.637505E-2,6.42716E-2,6.8158746E-1,4.209577E-1,3.1010296E-2,-3.4549173E-2,9.111088E-4,-1.2362608E-2,-8.753322E-1,-2.9582626E-1,-8.3784044E-1,-4.9279253E-3,1.333861E-2,-9.7897905E-1,-4.8436618E-1,-3.9722054E-4,-2.0483607E-2,-1.08724475E-1,-2.8006589E-2,-7.804073E-1,-5.241203E-2,1.7456634E-2,-0E0,-1.3517836E-1,-5.781548E-1,1.1976792E-2,-1.0385389E-2,-2.7983332E-1,1.069996E-2,4.193021E-1,8.564594E-2,-0E0,6.2595373E-1,-8.5388115E-3,-3.509065E-2,-9.860686E-3,-2.1666145E-1,-1.14020975E-2,-4.1297723E-2,-5.2291507E-1,-1.838485E-1,3.9470667E-1,1.675911E-2,2.039398E-3,-1.0839636E-2,1.4352674E-2,4.0375996E-2,8.545716E-3,2.6577089E-2,6.097936E-3,-2.4159605E-2,1.4198325E-2,8.349874E-1,-1.8773273E-2,2.1833694E-2,4.9097705E-1,7.224887E-1,1.7345472E-1,4.6274167E-1,1.8086158E-2,-8.353076E-3,-4.48914E-2,-2.947082E-2,-4.6746284E-3,-2.0949734E-2,-1.822693E-2,-4.5872718E-2,-1.8949324E-2,-5.2355677E-2,-4.2428702E-2,1.2454457E-2,-1.2467581E-2,3.0886491E-3,-1.3457629E-2,-4.2511754E-2,5.701493E-3,-1.2769259E-2,-3.734403E-2,-4.977825E-3,-2.3153485E-3,-1.7145587E-2,-4.661149E-3,1.1820293E-2,2.5006E-2,6.8649338E-3,8.668545E-3,-4.01569E-3,3.3784702E-2,1.1031693E-2,-2.696322E-3,1.00626685E-2,-1.4178974E-2,5.2719744E-4,-3.071635E-2,-1.2540019E-2,-1.3662398E-2,-2.9483982E-3,1.5828406E-2,2.3712886E-2,-7.136679E-3,5.566124E-3,4.2526778E-2,1.7628735E-2,3.0223547E-2,1.2236024E-2,2.7480185E-2,3.8208432E-2,-1.3220558E-2,1.9357046E-2,2.4202531E-2,3.896849E-3],"categories":[],"categories_nodes":[],"categories_segments":[],"categories_sizes":[],"default_left":[0,0,0,0,0,0,0,0,0,0,0,0,0,0,0,0,0,0,0,0,0,0,0,0,0,0,0,0,0,0,0,0,0,0,0,0,0,0,0,0,0,0,0,0,0,0,0,0,0,0,0,0,0,0,0,0,0,0,0,0,0,0,0,0,0,0,0,0,0,0,0,0,0,0,0,0,0,0,0,0,0,0,0,0,0,0,0,0,0,0,0,0,0,0,0,0,0,0,0,0,0,0,0,0,0,0,0,0,0,0,0,0,0,0,0,0,0,0,0,0,0,0,0,0,0,0,0,0,0,0,0,0,0,0,0,0,0,0,0,0,0,0,0,0,0,0,0,0,0,0,0,0,0,0,0,0,0,0,0,0,0,0,0,0,0,0,0],"id":4,"left_children":[1,3,5,7,9,11,13,15,17,19,21,23,25,27,29,31,33,-1,35,37,39,41,43,45,47,49,51,53,55,57,59,61,63,65,67,69,71,73,75,77,79,81,83,85,87,89,91,93,95,97,99,101,103,105,107,-1,-1,109,111,113,115,-1,-1,-1,117,119,121,-1,-1,123,125,-1,-1,127,-1,129,-1,-1,-1,131,133,-1,-1,135,137,139,141,-1,143,-1,-1,145,147,-1,-1,149,151,153,155,-1,-1,-1,-1,-1,-1,-1,-1,-1,157,-1,-1,159,161,163,165,-1,-1,-1,-1,-1,-1,-1,-1,-1,-1,-1,-1,-1,-1,-1,-1,-1,-1,-1,-1,-1,-1,-1,-1,-1,-1,-1,-1,-1,-1,-1,-1,-1,-1,-1,-1,-1,-1,-1,-1,-1,-1,-1,-1,-1,-1,-1,-1,-1,-1,-1,-1],"loss_changes":[5.901191E2,1.02559204E2,1.06699066E2,1.5182251E1,4.361543E1,4.5909904E1,2.3900146E1,4.226013E0,6.967224E0,7.729328E0,6.760974E0,5.9164314E0,4.713398E0,4.111206E0,5.016464E0,1.3680725E0,4.463893E0,0E0,1.9036102E0,4.3854446E0,2.71054E0,1.329257E0,2.27661E0,1.0614774E0,1.9281502E0,2.3996572E0,6.5392876E-1,6.9726677E0,3.807373E-1,3.054451E0,1.4361591E0,1.0840654E0,1.0049438E0,1.099432E0,3.990463E-1,9.989929E-1,2.4528337E-1,7.382138E-1,1.06925964E-1,2.844121E-1,1.0802383E0,6.092606E-1,8.742304E-1,1.8082242E0,9.930072E-1,2.7652526E-1,7.5397503E-1,5.1330566E-1,8.222823E-1,1.7262506E0,1.9220595E-1,2.2685242E-1,2.6790452E-1,8.884491E-1,3.3450317E-1,0E0,0E0,1.8076676E0,9.116516E-1,1.1488228E0,8.65955E-1,0E0,0E0,0E0,4.476776E-1,1.3386846E-1,1.0257435E-1,0E0,0E0,1.1775169E0,2.9426208E0,0E0,0E0,2.7392676E-1,0E0,6.5881157E-1,0E0,0E0,0E0,3.727789E-1,1.2945333E0,0E0,0E0,5.344174E-1,3.64741E-1,4.1457462E-1,8.5308206E-1,0E0,1.8466187E-1,0E0,0E0,2.752072E-1,7.9050064E-1,0E0,0E0,3.564024E-1,1.1812937E-1,2.6806355E-1,2.5406298E-1,0E0,0E0,0E0,0E0,0E0,0E0,0E0,0E0,0E0,3.2237244E-1,0E0,0E0,7.453556E-1,4.8627472E-1,1.9859548E0,7.752514E-1,0E0,0E0,0E0,0E0,0E0,0E0,0E0,0E0,0E0,0E0,0E0,0E0,0E0,0E0,0E0,0E0,0E0,0E0,0E0,0E0,0E0,0E0,0E0,0E0,0E0,0E0,0E0,0E0,0E0,0E0,0E0,0E0,0E0,0E0,0E0,0E0,0E0,0E0,0E0,0E0,0E0,0E0,0E0,0E0,0E0,0E0,0E0,0E0,0E0,0E0,0E0,0E0],"parents":[2147483647,0,0,1,1,2,2,3,3,4,4,5,5,6,6,7,7,8,8,9,9,10,10,11,11,12,12,13,13,14,14,15,15,16,16,18,18,19,19,20,20,21,21,22,22,23,23,24,24,25,25,26,26,27,27,28,28,29,29,30,30,31,31,32,32,33,33,34,34,35,35,36,36,37,37,38,38,39,39,40,40,41,41,42,42,43,43,44,44,45,45,46,46,47,47,48,48,49,49,50,50,51,51,52,52,53,53,54,54,57,57,58,58,59,59,60,60,64,64,65,65,66,66,69,69,70,70,73,73,75,75,79,79,80,80,83,83,84,84,85,85,86,86,88,88,91,91,92,92,95,95,96,96,97,97,98,98,108,108,111,111,112,112,113,113,114,114],"right_children":[2,4,6,8,10,12,14,16,18,20,22,24,26,28,30,32,34,-1,36,38,40,42,44,46,48,50,52,54,56,58,60,62,64,66,68,70,72,74,76,78,80,82,84,86,88,90,92,94,96,98,100,102,104,106,108,-1,-1,110,112,114,116,-1,-1,-1,118,120,122,-1,-1,124,126,-1,-1,128,-1,130,-1,-1,-1,132,134,-1,-1,136,138,140,142,-1,144,-1,-1,146,148,-1,-1,150,152,154,156,-1,-1,-1,-1,-1,-1,-1,-1,-1,158,-1,-1,160,162,164,166,-1,-1,-1,-1,-1,-1,-1,-1,-1,-1,-1,-1,-1,-1,-1,-1,-1,-1,-1,-1,-1,-1,-1,-1,-1,-1,-1,-1,-1,-1,-1,-1,-1,-1,-1,-1,-1,-1,-1,-1,-1,-1,-1,-1,-1,-1,-1,-1,-1,-1,-1,-1],"split_conditions":[-2.6908496E-1,4.5037252E-1,-6.2893695E-1,5.4290646E-1,-1.0725244E0,6.86903E-1,-4.5282826E-1,1.3090862E-1,-9.099312E-1,1.2015728E0,-7.348861E-1,-4.417864E-1,1.2161092E0,-1.5642406E-1,2.814001E-1,-1.5532197E0,-9.003036E-1,-6.3973494E-2,-1.3137059E-1,6.247463E-3,3.3822972E-1,-1.3896947E-1,1.3400348E0,-1.7071798E-1,1.15088195E-1,4.3679637E-1,-7.4725026E-1,9.1051865E-1,-9.7516465E-1,-5.351842E-1,1.487316E0,-1.8912338E0,-1.3848691E0,6.247463E-3,-7.1371096E-1,1.8108709E0,1.1536543E0,5.846172E-1,-1.1406089E0,1.9749448E0,-2.8015298E-1,-8.2797575E-1,1.3275708E0,-1.0788389E-1,-2.2331593E0,9.1186565E-1,-1.3848691E0,-4.9475843E-1,-2.5307328E-2,1.3422139E0,-1.1721792E0,6.0309756E-1,-9.1033256E-1,3.4827098E-1,-1.7152627E0,5.4858238E-2,4.637505E-2,8.338476E-1,7.21782E-3,-2.8165087E-1,5.519063E-2,-3.4549173E-2,9.111088E-4,-1.2362608E-2,1.1014864E0,-7.6759046E-1,-1.0963216E0,-4.9279253E-3,1.333861E-2,-4.6108258E-1,-5.1018846E-1,-3.9722054E-4,-2.0483607E-2,6.1092657E-1,-2.8006589E-2,-3.4654886E-1,-5.241203E-2,1.7456634E-2,-0E0,1.3738115E0,-1.1844821E0,1.1976792E-2,-1.0385389E-2,-9.538608E-1,-8.787441E-1,9.049776E-1,2.5466365E-1,-0E0,1.0930532E0,-8.5388115E-3,-3.509065E-2,5.6505525E-1,-2.3690593E-1,-1.14020975E-2,-4.1297723E-2,5.414501E-1,2.139051E-2,4.6772742E-1,1.2891282E0,2.039398E-3,-1.0839636E-2,1.4352674E-2,4.0375996E-2,8.545716E-3,2.6577089E-2,6.097936E-3,-2.4159605E-2,1.4198325E-2,-5.4973745E-1,-1.8773273E-2,2.1833694E-2,-4.4268277E-1,-9.252791E-1,1.4234408E0,1.8884587E0,1.8086158E-2,-8.353076E-3,-4.48914E-2,-2.947082E-2,-4.6746284E-3,-2.0949734E-2,-1.822693E-2,-4.5872718E-2,-1.8949324E-2,-5.2355677E-2,-4.2428702E-2,1.2454457E-2,-1.2467581E-2,3.0886491E-3,-1.3457629E-2,-4.2511754E-2,5.701493E-3,-1.2769259E-2,-3.734403E-2,-4.977825E-3,-2.3153485E-3,-1.7145587E-2,-4.661149E-3,1.1820293E-2,2.5006E-2,6.8649338E-3,8.668545E-3,-4.01569E-3,3.3784702E-2,1.1031693E-2,-2.696322E-3,1.00626685E-2,-1.4178974E-2,5.2719744E-4,-3.071635E-2,-1.2540019E-2,-1.3662398E-2,-2.9483982E-3,1.5828406E-2,2.3712886E-2,-7.136679E-3,5.566124E-3,4.2526778E-2,1.7628735E-2,3.0223547E-2,1.2236024E-2,2.7480185E-2,3.8208432E-2,-1.3220558E-2,1.9357046E-2,2.4202531E-2,3.896849E-3],"split_indices":[0,5,5,6,0,0,6,5,0,5,0,6,0,5,6,2,0,0,4,6,6,6,8,0,0,8,6,0,6,5,6,5,6,6,0,7,7,8,4,5,7,0,5,6,1,1,6,7,1,2,5,2,1,8,7,0,0,0,0,5,4,0,0,0,8,7,2,0,0,7,8,0,0,5,0,7,0,0,0,5,0,0,0,2,0,8,1,0,6,0,0,0,7,0,0,7,7,1,4,0,0,0,0,0,0,0,0,0,6,0,0,2,8,2,8,0,0,0,0,0,0,0,0,0,0,0,0,0,0,0,0,0,0,0,0,0,0,0,0,0,0,0,0,0,0,0,0,0,0,0,0,0,0,0,0,0,0,0,0,0,0,0,0,0,0,0,0],"split_type":[0,0,0,0,0,0,0,0,0,0,0,0,0,0,0,0,0,0,0,0,0,0,0,0,0,0,0,0,0,0,0,0,0,0,0,0,0,0,0,0,0,0,0,0,0,0,0,0,0,0,0,0,0,0,0,0,0,0,0,0,0,0,0,0,0,0,0,0,0,0,0,0,0,0,0,0,0,0,0,0,0,0,0,0,0,0,0,0,0,0,0,0,0,0,0,0,0,0,0,0,0,0,0,0,0,0,0,0,0,0,0,0,0,0,0,0,0,0,0,0,0,0,0,0,0,0,0,0,0,0,0,0,0,0,0,0,0,0,0,0,0,0,0,0,0,0,0,0,0,0,0,0,0,0,0,0,0,0,0,0,0,0,0,0,0,0,0],"sum_hessian":[1.685E3,7.27E2,9.58E2,4.4E2,2.87E2,3.06E2,6.52E2,2.17E2,2.23E2,1.19E2,1.68E2,1.52E2,1.54E2,3.31E2,3.21E2,1.85E2,3.2E1,1.66E2,5.7E1,8.3E1,3.6E1,6.6E1,1.02E2,8.5E1,6.7E1,1.05E2,4.9E1,1.09E2,2.22E2,1.86E2,1.35E2,7E0,1.78E2,2.2E1,1E1,5E1,7E0,1.6E1,6.7E1,9E0,2.7E1,1.4E1,5.2E1,7.9E1,2.3E1,7E0,7.8E1,3E1,3.7E1,9.4E1,1.1E1,3.1E1,1.8E1,8E0,1.01E2,1.1E2,1.12E2,9E0,1.77E2,1.24E2,1.1E1,3E0,4E0,4E0,1.74E2,8E0,1.4E1,4E0,6E0,4.1E1,9E0,3E0,4E0,9E0,7E0,2.7E1,4E1,4E0,5E0,1E1,1.7E1,1.1E1,3E0,3.9E1,1.3E1,2.3E1,5.6E1,3E0,2E1,3E0,4E0,2.9E1,4.9E1,3E0,2.7E1,2.3E1,1.4E1,7.9E1,1.5E1,3E0,8E0,3E0,2.8E1,5E0,1.3E1,5E0,3E0,3E0,9.8E1,4E0,5E0,3.4E1,1.43E2,1.9E1,1.05E2,4E0,7E0,1.59E2,1.5E1,4E0,4E0,3E0,1.1E1,5E0,3.6E1,6E0,3E0,5E0,4E0,4E0,2.3E1,3E0,7E0,1.2E1,5E0,9E0,3E1,9E0,4E0,1.7E1,6E0,3.7E1,1.9E1,1.7E1,3E0,2.5E1,4E0,3.8E1,1.1E1,1.6E1,7E0,7E0,7E0,4.3E1,3.6E1,5E0,1E1,9.4E1,4E0,2.2E1,1.2E1,3.1E1,1.12E2,6E0,1.3E1,9.9E1,6E0],"tree_param":{"num_deleted":"0","num_feature":"10","num_nodes":"167","size_leaf_vector":"1"}},{"base_weights":[-1.0780654E-2,-7.5810117E-1,4.5372352E-1,-9.085793E-1,-6.602631E-2,-2.2854326E-2,6.032165E-1,-7.2201777E-1,-1.10714E0,-1.8723635E-1,7.720985E-1,-6.580929E-1,8.906158E-2,2.2771676E-1,7.259715E-1,-4.4018635E-1,-8.169777E-1,-1.1394255E0,-4.5591834E-1,3.194015E-2,-3.501648E-1,1.5128925E-2,4.5311745E-2,-1.447838E-1,-7.868159E-1,-1.8568476E-1,2.475718E-1,-3.032329E-1,4.0859404E-1,8.9971685E-1,5.483276E-1,-4.0918168E-2,-2.2408661E-1,-8.42571E-1,-3.605728E-1,-9.0502673E-1,-1.1958653E0,-9.643923E-2,-5.3184647E-2,-5.7775103E-2,1.8086052E-2,-4.127075E-1,1.9494568E-3,6.8378323E-3,-2.7794927E-2,-9.1594285E-1,-3.7263712E-1,-3.3196324E-1,3.6410604E-2,5.470937E-2,3.3715498E-1,-1.3663112E-1,-5.1208836E-1,2.7972084E-1,5.5250907E-1,7.292438E-1,9.531385E-1,6.2239414E-1,3.3104697E-1,-5.321945E-1,-5.0276596E-2,-5.3721745E-2,-7.8122884E-1,-2.9897947E-2,-0E0,-4.9368154E-2,-3.1471975E-2,-6.431862E-2,-9.4192237E-1,1.4949709E-2,-1.6145494E-2,-2.1811572E-3,-1.5935732E-2,-3.2990783E-1,-3.264404E-2,-2.1406638E-2,-5.141749E-2,-5.028318E-3,-2.7509023E-2,-1.6860683E-1,-5.292021E-1,1.29479645E-2,-1.05066575E-1,2.791298E-2,-1.9690905E-2,3.6974767E-1,-2.1430224E-3,3.4908056E-3,-1.953186E-1,-6.096992E-1,-2.0153683E-1,3.382681E-1,-1.7488701E-2,2.4528836E-3,5.731348E-1,4.5270744E-1,4.1839626E-2,4.946801E-2,3.688463E-2,1.8930177E-1,6.392565E-1,3.854221E-1,6.66849E-2,-3.3887442E-2,-1.3657097E-3,-5.8661853E-3,3.964865E-3,-5.7083606E-3,-3.963421E-2,-4.9952574E-2,-7.541064E-3,3.8206235E-3,-4.8887595E-3,-7.221311E-3,-2.194195E-2,-1.5254177E-2,4.8779785E-3,-3.1513095E-2,-1.3684859E-2,-4.8774944E-4,-1.1715729E-2,6.7342455E-3,-5.135602E-3,1.9357963E-2,-2.94899E-3,-1.4223327E-2,-4.51557E-3,-1.1553544E-2,-3.541597E-2,-1.6541092E-2,-0E0,2.854889E-3,1.8147215E-2,-1.2421451E-2,4.486516E-3,3.0132523E-2,1.1199039E-2,1.0277699E-2,2.6825136E-2,-4.3454445E-3,2.0229684E-2,2.3736969E-2,3.3746194E-2,-1.6471901E-3,2.1125084E-2,1.939624E-2,-3.8152297E-3],"categories":[],"categories_nodes":[],"categories_segments":[],"categories_sizes":[],"default_left":[0,0,0,0,0,0,0,0,0,0,0,0,0,0,0,0,0,0,0,0,0,0,0,0,0,0,0,0,0,0,0,0,0,0,0,0,0,0,0,0,0,0,0,0,0,0,0,0,0,0,0,0,0,0,0,0,0,0,0,0,0,0,0,0,0,0,0,0,0,0,0,0,0,0,0,0,0,0,0,0,0,0,0,0,0,0,0,0,0,0,0,0,0,0,0,0,0,0,0,0,0,0,0,0,0,0,0,0,0,0,0,0,0,0,0,0,0,0,0,0,0,0,0,0,0,0,0,0,0,0,0,0,0,0,0,0,0,0,0,0,0,0,0,0,0,0,0],"id":5,"left_children":[1,3,5,7,9,11,13,15,17,19,21,23,25,27,29,31,33,35,37,39,41,-1,-1,43,45,47,49,51,53,55,57,-1,59,61,63,65,67,69,-1,71,-1,73,-1,-1,-1,75,77,79,81,83,85,87,89,91,93,95,97,99,101,103,105,-1,107,-1,-1,-1,-1,-1,109,-1,-1,111,-1,113,-1,-1,-1,-1,-1,115,117,-1,119,-1,121,123,-1,-1,125,127,129,131,133,-1,135,137,-1,-1,-1,139,141,143,145,-1,-1,-1,-1,-1,-1,-1,-1,-1,-1,-1,-1,-1,-1,-1,-1,-1,-1,-1,-1,-1,-1,-1,-1,-1,-1,-1,-1,-1,-1,-1,-1,-1,-1,-1,-1,-1,-1,-1,-1,-1,-1,-1,-1],"loss_changes":[5.92237E2,6.795148E1,7.502161E1,1.8910217E1,1.2073598E1,1.8031027E1,3.666098E1,7.008209E0,4.745453E0,3.7568562E0,5.496073E-1,2.3037605E0,9.415431E0,1.9245747E1,1.7973297E1,5.6782207E0,2.0055084E0,1.9488525E0,2.8401566E0,1.3826799E0,1.5137868E0,0E0,0E0,1.1596459E0,1.1342754E0,2.608176E0,2.309349E0,1.6397414E0,2.5256996E0,1.8961029E0,4.542679E0,0E0,2.4855032E0,1.7627716E0,1.1702737E0,3.9676285E-1,3.0243225E0,9.944803E-1,0E0,4.8945487E-1,0E0,7.20417E-1,0E0,0E0,0E0,6.204109E-1,3.1433475E-1,1.3875628E0,1.0501351E0,1.7507421E0,1.200407E0,3.8966274E-1,4.6288967E-1,1.4474583E0,6.261616E-1,1.7822914E0,8.68927E-1,1.4246826E0,1.0646906E0,1.1602697E0,2.9110786E-1,0E0,1.0337906E0,0E0,0E0,0E0,0E0,0E0,2.2200546E0,0E0,0E0,2.4251308E-1,0E0,7.0668745E-1,0E0,0E0,0E0,0E0,0E0,1.0676305E0,2.7935076E-1,0E0,2.1968393E-1,0E0,5.232947E-1,6.9762707E-1,0E0,0E0,1.6149974E-1,3.3983517E-1,1.5345263E-1,4.0907145E-1,3.8481823E-1,0E0,4.625206E-1,3.1256104E-1,0E0,0E0,0E0,6.6159046E-1,8.2035065E-1,1.0612087E0,7.497714E-1,0E0,0E0,0E0,0E0,0E0,0E0,0E0,0E0,0E0,0E0,0E0,0E0,0E0,0E0,0E0,0E0,0E0,0E0,0E0,0E0,0E0,0E0,0E0,0E0,0E0,0E0,0E0,0E0,0E0,0E0,0E0,0E0,0E0,0E0,0E0,0E0,0E0,0E0,0E0,0E0,0E0,0E0,0E0,0E0],"parents":[2147483647,0,0,1,1,2,2,3,3,4,4,5,5,6,6,7,7,8,8,9,9,10,10,11,11,12,12,13,13,14,14,15,15,16,16,17,17,18,18,19,19,20,20,23,23,24,24,25,25,26,26,27,27,28,28,29,29,30,30,32,32,33,33,34,34,35,35,36,36,37,37,39,39,41,41,45,45,46,46,47,47,48,48,49,49,50,50,51,51,52,52,53,53,54,54,55,55,56,56,57,57,58,58,59,59,60,60,62,62,68,68,71,71,73,73,79,79,80,80,82,82,84,84,85,85,88,88,89,89,90,90,91,91,92,92,94,94,95,95,99,99,100,100,101,101,102,102],"right_children":[2,4,6,8,10,12,14,16,18,20,22,24,26,28,30,32,34,36,38,40,42,-1,-1,44,46,48,50,52,54,56,58,-1,60,62,64,66,68,70,-1,72,-1,74,-1,-1,-1,76,78,80,82,84,86,88,90,92,94,96,98,100,102,104,106,-1,108,-1,-1,-1,-1,-1,110,-1,-1,112,-1,114,-1,-1,-1,-1,-1,116,118,-1,120,-1,122,124,-1,-1,126,128,130,132,134,-1,136,138,-1,-1,-1,140,142,144,146,-1,-1,-1,-1,-1,-1,-1,-1,-1,-1,-1,-1,-1,-1,-1,-1,-1,-1,-1,-1,-1,-1,-1,-1,-1,-1,-1,-1,-1,-1,-1,-1,-1,-1,-1,-1,-1,-1,-1,-1,-1,-1,-1,-1],"split_conditions":[-5.5313796E-1,-1.3815968E-1,-2.412708E-1,5.5846244E-1,-1.9882713E-1,-1.6949245E-1,-6.1829925E-1,-1.0963216E0,-5.9800667E-1,-9.9909955E-1,-1.2234273E0,-5.4693365E-1,-7.804595E-1,6.86903E-1,-4.5282826E-1,-2.2908954E-1,-6.417611E-1,-1.1788343E0,-5.383435E-1,5.6505525E-1,5.911956E-1,1.5128925E-2,4.5311745E-2,-6.261351E-1,-9.162848E-1,1.2015728E0,-8.649785E-2,-3.9057517E-1,1.0775713E0,-2.2908954E-1,6.76925E-1,-4.0918168E-2,-1.3769667E0,-1.2306195E0,-3.8576253E-2,-8.437627E-1,-9.948089E-1,-2.3795463E-1,-5.3184647E-2,-5.2405256E-1,1.8086052E-2,1.8053137E-1,1.9494568E-3,6.8378323E-3,-2.7794927E-2,4.6357876E-1,-5.4158163E-1,8.9574134E-1,3.3822972E-1,-9.7516465E-1,-1.4654139E-2,-1.617827E0,1.8504882E-1,1.1760252E0,-4.35265E-1,1.1754862E0,1.3801452E0,-5.351842E-1,1.487316E0,1.2015728E0,-9.693521E-1,-5.3721745E-2,-1.7029635E0,-2.9897947E-2,-0E0,-4.9368154E-2,-3.1471975E-2,-6.431862E-2,6.4877105E-1,1.4949709E-2,-1.6145494E-2,-2.3820506E-1,-1.5935732E-2,-4.9048132E-1,-3.264404E-2,-2.1406638E-2,-5.141749E-2,-5.028318E-3,-2.7509023E-2,-1.5381777E-1,1.0292786E0,1.29479645E-2,-7.940009E-1,2.791298E-2,-7.9015803E-1,1.4663461E0,-2.1430224E-3,3.4908056E-3,9.51151E-2,-6.28016E-1,3.739883E-1,-1.8758364E-1,1.2891282E0,2.4528836E-3,2.6434019E0,-1.4305682E0,4.1839626E-2,4.946801E-2,3.688463E-2,8.338476E-1,7.21782E-3,3.8020097E-2,4.3120716E-2,-3.3887442E-2,-1.3657097E-3,-5.8661853E-3,3.964865E-3,-5.7083606E-3,-3.963421E-2,-4.9952574E-2,-7.541064E-3,3.8206235E-3,-4.8887595E-3,-7.221311E-3,-2.194195E-2,-1.5254177E-2,4.8779785E-3,-3.1513095E-2,-1.3684859E-2,-4.8774944E-4,-1.1715729E-2,6.7342455E-3,-5.135602E-3,1.9357963E-2,-2.94899E-3,-1.4223327E-2,-4.51557E-3,-1.1553544E-2,-3.541597E-2,-1.6541092E-2,-0E0,2.854889E-3,1.8147215E-2,-1.2421451E-2,4.486516E-3,3.0132523E-2,1.1199039E-2,1.0277699E-2,2.6825136E-2,-4.3454445E-3,2.0229684E-2,2.3736969E-2,3.3746194E-2,-1.6471901E-3,2.1125084E-2,1.939624E-2,-3.8152297E-3],"split_indices":[3,0,0,6,5,5,5,2,3,6,3,9,0,0,6,5,3,4,2,0,0,0,0,0,0,5,3,6,0,5,6,0,0,0,5,3,0,9,0,9,0,9,0,0,0,6,0,6,6,6,2,9,7,2,3,0,2,5,6,5,0,0,6,0,0,0,0,0,5,0,0,2,0,6,0,0,0,0,0,3,5,0,2,0,2,6,0,0,4,7,0,2,4,0,3,7,0,0,0,0,0,3,4,0,0,0,0,0,0,0,0,0,0,0,0,0,0,0,0,0,0,0,0,0,0,0,0,0,0,0,0,0,0,0,0,0,0,0,0,0,0,0,0,0,0,0,0],"split_type":[0,0,0,0,0,0,0,0,0,0,0,0,0,0,0,0,0,0,0,0,0,0,0,0,0,0,0,0,0,0,0,0,0,0,0,0,0,0,0,0,0,0,0,0,0,0,0,0,0,0,0,0,0,0,0,0,0,0,0,0,0,0,0,0,0,0,0,0,0,0,0,0,0,0,0,0,0,0,0,0,0,0,0,0,0,0,0,0,0,0,0,0,0,0,0,0,0,0,0,0,0,0,0,0,0,0,0,0,0,0,0,0,0,0,0,0,0,0,0,0,0,0,0,0,0,0,0,0,0,0,0,0,0,0,0,0,0,0,0,0,0,0,0,0,0,0,0],"sum_hessian":[1.704E3,6.53E2,1.051E3,5.36E2,1.17E2,2.51E2,8E2,2.79E2,2.57E2,1.03E2,1.4E1,3.7E1,2.14E2,1.98E2,6.02E2,7.2E1,2.07E2,2.44E2,1.3E1,4.4E1,5.9E1,4E0,1E1,8E0,2.9E1,7.8E1,1.36E2,5E1,1.48E2,3.02E2,3E2,2.5E1,4.7E1,1.95E2,1.2E1,5.1E1,1.93E2,9E0,4E0,3.5E1,9E0,5.1E1,8E0,5E0,3E0,2.1E1,8E0,4.7E1,3.1E1,4.4E1,9.2E1,2.9E1,2.1E1,8E1,6.8E1,7.6E1,2.26E2,2.22E2,7.8E1,1.6E1,3.1E1,3.7E1,1.58E2,7E0,5E0,3.7E1,1.4E1,1.39E2,5.4E1,3E0,6E0,3E1,5E0,4E1,1.1E1,5E0,1.6E1,4E0,4E0,2.7E1,2E1,1.2E1,1.9E1,5E0,3.9E1,8.5E1,7E0,6E0,2.3E1,1.5E1,6E0,6.7E1,1.3E1,3E0,6.5E1,2.3E1,5.3E1,1.9E2,3.6E1,9E0,2.13E2,6.4E1,1.4E1,1.2E1,4E0,2.1E1,1E1,3E0,1.55E2,5E1,4E0,1.6E1,1.4E1,1.6E1,2.4E1,1.8E1,9E0,1.3E1,7E0,1.2E1,7E0,1.3E1,2.6E1,8.2E1,3E0,1.1E1,1.2E1,4E0,1.1E1,3E0,3E0,6E0,6.1E1,4E0,9E0,5.9E1,6E0,7E0,1.6E1,4E0,5E0,4.1E1,1.72E2,5E0,5.9E1,4E0,1E1],"tree_param":{"num_deleted":"0","num_feature":"10","num_nodes":"147","size_leaf_vector":"1"}},{"base_weights":[-3.353897E-3,-7.3053926E-1,4.414855E-1,-8.635025E-1,-4.3883927E-2,-6.3300334E-2,5.610132E-1,-6.951292E-1,-1.0352545E0,-2.3091713E-1,3.505359E-1,-6.10454E-1,2.0907953E-2,2.0874448E-1,6.6817445E-1,-7.66877E-1,-3.644107E-1,-1.1084698E0,-7.556404E-1,-1.4336875E-1,-3.047657E-2,5.375034E-1,-2.8696463E-2,7.998391E-3,-7.175888E-1,-1.4118414E-1,1.477785E-1,-3.261363E-1,3.863131E-1,8.433799E-1,5.218166E-1,-5.387711E-1,-8.464354E-1,-3.9978486E-2,-1.7544325E-1,-4.2587478E-2,-1.1664928E0,-8.115227E-1,8.832618E-3,-5.8854643E-2,-1.6587153E-2,1.5821202E-2,7.054575E-1,7.4584284E-3,-7.438753E-3,-5.047932E-1,-4.7751162E-2,-4.0979013E-1,-9.932554E-3,3.8743645E-1,7.297444E-2,-6.3178295E-1,-1.7423677E-1,2.8109643E-1,5.71689E-1,7.094935E-1,9.117E-1,5.7011276E-1,3.254068E-1,-5.8989364E-1,-2.0905676E-1,-2.1661483E-3,-8.6051005E-1,-3.9172882E-1,-7.7125296E-2,-1.1829797E0,-2.578803E-2,-8.6009574E-1,-4.061445E-1,9.389238E-3,-9.888048E-2,1.8054852E-2,4.427791E-2,-8.4371315E-3,-7.652446E-1,-2.792563E-2,-1.9379815E-1,2.1775846E-1,-1.2627994E-1,2.721487E-3,2.14833E-2,-8.4424265E-2,1.6165823E-1,-1.0353395E-2,-3.5308678E-2,-0E0,-2.550073E-1,3.246376E-1,-1.7443706E-1,2.3609002E-3,6.0021293E-1,-0E0,3.7622597E-2,9.3468994E-1,3.2516662E-2,4.1863024E-1,6.2296873E-1,-5.828865E-3,3.6109057E-1,-1.25763E-2,-3.3104386E-2,-2.0422488E-2,-2.548347E-3,-4.4906154E-2,-2.2862969E-2,-0E0,-2.6940344E-2,-7.1936673E-3,3.0622818E-3,-4.6913728E-2,-6.191945E-2,-5.0320536E-2,-3.4061473E-2,-1.6520828E-3,-3.0169893E-2,-1.6115049E-3,-1.4947529E-2,-1.3650009E-2,-4.9299564E-2,-0E0,-1.645369E-2,-6.6741887E-3,1.5178624E-2,-1.9898266E-3,-1.43798515E-2,-1.2936535E-2,3.248095E-4,1.0721965E-2,-4.5752134E-3,-3.5742347E-3,5.937652E-3,-1.8933075E-2,-8.163192E-3,1.8294258E-2,-0E0,1.8558623E-3,-1.5153355E-2,3.4037407E-2,2.138607E-2,9.333508E-3,-8.745563E-3,5.068025E-2,4.1937992E-2,3.1250767E-2,1.357346E-2,8.011157E-3,3.2129463E-2,2.0600623E-2,2.5338111E-3],"categories":[],"categories_nodes":[],"categories_segments":[],"categories_sizes":[],"default_left":[0,0,0,0,0,0,0,0,0,0,0,0,0,0,0,0,0,0,0,0,0,0,0,0,0,0,0,0,0,0,0,0,0,0,0,0,0,0,0,0,0,0,0,0,0,0,0,0,0,0,0,0,0,0,0,0,0,0,0,0,0,0,0,0,0,0,0,0,0,0,0,0,0,0,0,0,0,0,0,0,0,0,0,0,0,0,0,0,0,0,0,0,0,0,0,0,0,0,0,0,0,0,0,0,0,0,0,0,0,0,0,0,0,0,0,0,0,0,0,0,0,0,0,0,0,0,0,0,0,0,0,0,0,0,0,0,0,0,0,0,0,0,0,0,0,0,0,0,0],"id":6,"left_children":[1,3,5,7,9,11,13,15,17,19,21,23,25,27,29,31,33,35,37,39,-1,41,43,-1,45,47,49,51,53,55,57,59,61,-1,63,-1,65,67,-1,69,-1,-1,71,-1,-1,73,-1,75,77,79,81,83,85,87,89,91,93,95,97,99,101,-1,103,105,107,109,-1,111,113,-1,115,-1,-1,-1,117,-1,119,121,123,-1,-1,125,127,-1,-1,129,131,133,135,-1,137,139,-1,141,-1,143,145,-1,147,-1,-1,-1,-1,-1,-1,-1,-1,-1,-1,-1,-1,-1,-1,-1,-1,-1,-1,-1,-1,-1,-1,-1,-1,-1,-1,-1,-1,-1,-1,-1,-1,-1,-1,-1,-1,-1,-1,-1,-1,-1,-1,-1,-1,-1,-1,-1,-1,-1,-1],"loss_changes":[5.454164E2,5.8303284E1,6.3196655E1,1.46076355E1,7.814791E0,9.332768E0,3.1708893E1,6.1089783E0,4.3601074E0,2.2239106E0,2.477046E0,2.399104E0,3.620348E0,1.903264E1,1.6039886E1,3.4705353E0,3.9559946E0,1.8731232E0,3.228569E0,8.966327E-1,0E0,5.2860546E-1,2.7844658E-1,0E0,5.845299E-1,2.668589E0,1.7004972E0,2.1306973E0,2.679718E0,1.8711395E0,3.1018753E0,8.249893E-1,1.72612E0,0E0,7.096983E-1,0E0,9.902191E-1,6.0702515E-1,0E0,4.341716E-1,0E0,0E0,2.997961E-1,0E0,0E0,1.0903444E0,0E0,6.196017E-1,1.4223871E0,2.5164652E-1,1.0961921E0,2.6796675E-1,4.981432E-1,2.0154252E0,6.9979477E-1,3.1343918E0,3.7532043E-1,1.9089661E0,1.2178793E0,1.0123692E0,2.4846098E-1,0E0,1.895752E0,6.3453627E-1,2.664461E-1,7.897949E-1,0E0,4.018402E-1,5.051851E-1,0E0,4.6396714E-1,0E0,0E0,0E0,4.742155E-1,0E0,3.073344E-1,6.00078E-1,4.5806032E-1,0E0,0E0,4.706488E-1,7.0002496E-1,0E0,0E0,1.1139192E-1,1.5625286E-1,1.2246943E0,2.827541E-1,0E0,2.925644E-1,2.6175877E-1,0E0,2.6669312E-1,0E0,2.0793095E0,1.7052612E0,0E0,1.0077181E0,0E0,0E0,0E0,0E0,0E0,0E0,0E0,0E0,0E0,0E0,0E0,0E0,0E0,0E0,0E0,0E0,0E0,0E0,0E0,0E0,0E0,0E0,0E0,0E0,0E0,0E0,0E0,0E0,0E0,0E0,0E0,0E0,0E0,0E0,0E0,0E0,0E0,0E0,0E0,0E0,0E0,0E0,0E0,0E0,0E0,0E0,0E0,0E0,0E0,0E0],"parents":[2147483647,0,0,1,1,2,2,3,3,4,4,5,5,6,6,7,7,8,8,9,9,10,10,11,11,12,12,13,13,14,14,15,15,16,16,17,17,18,18,19,19,21,21,22,22,24,24,25,25,26,26,27,27,28,28,29,29,30,30,31,31,32,32,34,34,36,36,37,37,39,39,42,42,45,45,47,47,48,48,49,49,50,50,51,51,52,52,53,53,54,54,55,55,56,56,57,57,58,58,59,59,60,60,62,62,63,63,64,64,65,65,67,67,68,68,70,70,74,74,76,76,77,77,78,78,81,81,82,82,85,85,86,86,87,87,88,88,90,90,91,91,93,93,95,95,96,96,98,98],"right_children":[2,4,6,8,10,12,14,16,18,20,22,24,26,28,30,32,34,36,38,40,-1,42,44,-1,46,48,50,52,54,56,58,60,62,-1,64,-1,66,68,-1,70,-1,-1,72,-1,-1,74,-1,76,78,80,82,84,86,88,90,92,94,96,98,100,102,-1,104,106,108,110,-1,112,114,-1,116,-1,-1,-1,118,-1,120,122,124,-1,-1,126,128,-1,-1,130,132,134,136,-1,138,140,-1,142,-1,144,146,-1,148,-1,-1,-1,-1,-1,-1,-1,-1,-1,-1,-1,-1,-1,-1,-1,-1,-1,-1,-1,-1,-1,-1,-1,-1,-1,-1,-1,-1,-1,-1,-1,-1,-1,-1,-1,-1,-1,-1,-1,-1,-1,-1,-1,-1,-1,-1,-1,-1,-1,-1],"split_conditions":[-5.365195E-1,7.21782E-3,-3.6269698E-1,5.5846244E-1,5.911956E-1,-1.6949245E-1,-6.1829925E-1,7.58619E-1,5.643985E-1,1.8053137E-1,6.436128E-2,-3.7653303E-1,-7.804595E-1,6.86903E-1,-4.9048132E-1,-5.7630736E-1,-5.1897895E-1,-1.2095529E-1,-6.6855556E-1,-3.7676877E-1,-3.047657E-2,-3.3114842E-1,-9.1386867E-1,7.998391E-3,-5.11433E-1,8.508824E-1,-5.0373405E-1,2.7952366E-2,1.2161092E0,-1.3621478E-1,6.76925E-1,-2.6908496E-1,-1.4093665E0,-3.9978486E-2,-1.3479106E0,-4.2587478E-2,-1.1287297E-1,-1.0305536E0,8.832618E-3,-1.2711135E0,-1.6587153E-2,1.5821202E-2,-1.9964772E0,7.4584284E-3,-7.438753E-3,9.049776E-1,-4.7751162E-2,-1.5381777E-1,2.553953E-1,-4.7184592E-1,-2.7277425E-1,-7.387925E-1,-1.2330421E0,4.3679637E-1,-4.35265E-1,9.1051865E-1,1.6383588E0,7.21782E-3,3.8020097E-2,-1.1487821E0,-1.3696396E0,-2.1661483E-3,-6.90668E-1,-1.6289634E0,-6.814759E-1,-1.1788343E0,-2.578803E-2,-9.25245E-1,-8.710775E-1,9.389238E-3,-9.455516E-2,1.8054852E-2,4.427791E-2,-8.4371315E-3,5.1371805E-2,-2.792563E-2,6.2840986E-1,-1.1123792E0,-3.1289363E-1,2.721487E-3,2.14833E-2,7.108779E-1,-2.2178856E-1,-1.0353395E-2,-3.5308678E-2,5.395233E-1,1.7176864E-1,1.3422139E0,-1.1721792E0,2.3609002E-3,-7.039075E-1,5.234464E-1,3.7622597E-2,-9.390436E-1,3.2516662E-2,-3.707911E-1,-5.351842E-1,-5.828865E-3,1.487316E0,-1.25763E-2,-3.3104386E-2,-2.0422488E-2,-2.548347E-3,-4.4906154E-2,-2.2862969E-2,-0E0,-2.6940344E-2,-7.1936673E-3,3.0622818E-3,-4.6913728E-2,-6.191945E-2,-5.0320536E-2,-3.4061473E-2,-1.6520828E-3,-3.0169893E-2,-1.6115049E-3,-1.4947529E-2,-1.3650009E-2,-4.9299564E-2,-0E0,-1.645369E-2,-6.6741887E-3,1.5178624E-2,-1.9898266E-3,-1.43798515E-2,-1.2936535E-2,3.248095E-4,1.0721965E-2,-4.5752134E-3,-3.5742347E-3,5.937652E-3,-1.8933075E-2,-8.163192E-3,1.8294258E-2,-0E0,1.8558623E-3,-1.5153355E-2,3.4037407E-2,2.138607E-2,9.333508E-3,-8.745563E-3,5.068025E-2,4.1937992E-2,3.1250767E-2,1.357346E-2,8.011157E-3,3.2129463E-2,2.0600623E-2,2.5338111E-3],"split_indices":[3,0,0,6,0,5,5,8,5,9,8,8,0,0,6,6,5,8,0,6,0,5,6,0,2,5,9,0,0,5,6,0,2,0,0,0,4,0,0,8,0,0,8,0,0,8,0,3,6,3,3,6,6,8,3,0,3,0,3,2,5,0,3,0,3,4,0,3,2,0,2,0,0,0,9,0,6,2,4,0,0,5,2,0,0,0,0,2,5,0,6,2,0,6,0,4,5,0,6,0,0,0,0,0,0,0,0,0,0,0,0,0,0,0,0,0,0,0,0,0,0,0,0,0,0,0,0,0,0,0,0,0,0,0,0,0,0,0,0,0,0,0,0,0,0,0,0,0,0],"split_type":[0,0,0,0,0,0,0,0,0,0,0,0,0,0,0,0,0,0,0,0,0,0,0,0,0,0,0,0,0,0,0,0,0,0,0,0,0,0,0,0,0,0,0,0,0,0,0,0,0,0,0,0,0,0,0,0,0,0,0,0,0,0,0,0,0,0,0,0,0,0,0,0,0,0,0,0,0,0,0,0,0,0,0,0,0,0,0,0,0,0,0,0,0,0,0,0,0,0,0,0,0,0,0,0,0,0,0,0,0,0,0,0,0,0,0,0,0,0,0,0,0,0,0,0,0,0,0,0,0,0,0,0,0,0,0,0,0,0,0,0,0,0,0,0,0,0,0,0,0],"sum_hessian":[1.684E3,6.39E2,1.045E3,5.35E2,1.04E2,2E2,8.45E2,2.73E2,2.62E2,7.1E1,3.3E1,2.6E1,1.74E2,1.98E2,6.47E2,2.23E2,5E1,2.05E2,5.7E1,5.9E1,1.2E1,2.2E1,1.1E1,3E0,2.3E1,7.6E1,9.8E1,4.9E1,1.49E2,2.92E2,3.55E2,6E1,1.63E2,1.4E1,3.6E1,4.1E1,1.64E2,5.4E1,3E0,4.2E1,1.7E1,1.1E1,1.1E1,4E0,7E0,1.4E1,9E0,2.4E1,5.2E1,2.2E1,7.6E1,1.5E1,3.4E1,9.7E1,5.2E1,1.03E2,1.89E2,2.83E2,7.2E1,5.1E1,9E0,3E0,1.6E2,1E1,2.6E1,1.59E2,5E0,4.7E1,7E0,5E0,3.7E1,5E0,6E0,7E0,7E0,1.3E1,1.1E1,1.7E1,3.5E1,3E0,1.9E1,2.7E1,4.9E1,3E0,1.2E1,1.1E1,2.3E1,8.9E1,8E0,3E0,4.9E1,6E0,9.7E1,1.71E2,1.8E1,7.6E1,2.07E2,5E0,6.7E1,1E1,4.1E1,3E0,6E0,1.45E2,1.5E1,3E0,7E0,1.8E1,8E0,3.3E1,1.26E2,2.3E1,2.4E1,3E0,4E0,2.9E1,8E0,3E0,4E0,5E0,6E0,3E0,1.4E1,2.4E1,1.1E1,9E0,1.8E1,4.1E1,8E0,7E0,4E0,8E0,1.5E1,7.9E1,1E1,3E0,5E0,3.1E1,1.8E1,3E0,3E0,8.8E1,8.3E1,3E1,4.6E1,9E0,1.98E2,5.7E1,1E1],"tree_param":{"num_deleted":"0","num_feature":"10","num_nodes":"149","size_leaf_vector":"1"}},{"base_weights":[-2.7640827E-3,-6.8672323E-1,4.210421E-1,-8.1949776E-1,-4.5263093E-2,-1.2694092E-1,5.2396774E-1,-6.313839E-1,-9.8034626E-1,-1.4472835E-1,7.9563016E-1,-6.765927E-1,-1.06326975E-2,1.5933904E-1,6.258155E-1,-6.9108945E-1,-2.630654E-1,-7.68736E-1,-1.0465546E0,5.5469744E-2,-2.660252E-1,1.6496211E-2,4.873713E-2,-7.394545E-1,-3.6921331E-3,2.809969E-1,-1.2817821E-1,-3.2805562E-1,3.637561E-1,7.880966E-1,4.398301E-1,-2.114368E-1,-7.1777767E-1,-3.30374E-2,3.3826404E-3,-4.669253E-2,-6.1465025E-1,-1.1298527E0,-8.080936E-1,-1.5341123E-2,1.5216082E-2,1.4497543E-3,-3.0451882E-1,-8.5894936E-1,-4.0719217E-1,-7.809369E-2,3.7633497E-1,-2.5060785E-1,2.480487E-2,-1.532036E-1,-5.335195E-1,2.2368608E-1,5.3023404E-1,6.281683E-1,8.4108204E-1,4.6331212E-1,-3.6373723E-2,-3.9849797E-1,2.8275468E-3,-5.319135E-1,-7.821442E-1,-7.2736174E-2,1.2392099E-2,-3.6779735E-2,-2.0883861E-1,-2.1385673E-2,-1.1400379E0,-8.683679E-1,-2.1339285E-1,1.0714903E-2,-5.1170252E-2,-2.4540187E-1,-4.780375E-1,-5.072389E-2,-5.252289E-1,-3.364813E-2,-7.2739953E-3,5.8905547E-3,-1.0617397E-2,4.2990083E-1,-0E0,-1.8644035E-1,-5.538781E-1,-6.1994135E-2,1.4140333E-1,-1.5167853E-2,-2.4885269E-1,-3.2744136E-2,-1.6609201E-1,2.6276714E-1,-1.337339E-1,2.8695292E-3,5.601303E-1,-1.0065452E-1,6.87746E-1,9.275393E-1,7.450921E-1,3.6217612E-1,5.1897806E-1,-1.8774666E-1,1.7078386E-1,-2.7550006E-2,-8.839834E-3,-2.9986544E-2,-7.49904E-3,-4.1002877E-2,-2.731716E-2,-1.0428127E-2,3.757635E-3,-2.266167E-2,-0E0,-5.7667088E-2,-3.0038288E-2,-3.0485407E-2,-4.6653602E-2,-2.046468E-2,5.428034E-4,3.983296E-3,-6.130069E-3,-1.44778965E-2,1.0691038E-3,-2.917858E-2,-3.4846426E-3,-8.59071E-3,-3.4145746E-2,2.3571271E-2,1.8948469E-3,-7.4573713E-3,-2.6718786E-2,-3.698678E-2,-5.5811224E-3,-1.1747455E-2,4.4143494E-4,1.0294809E-2,-1.3364676E-3,-4.0093763E-3,7.934156E-3,-6.4383373E-3,-1.784315E-2,-0E0,-1.6059656E-2,1.5674544E-2,-3.1462281E-3,9.219544E-4,-1.2436276E-2,3.0029789E-2,1.30987195E-2,-1.9042036E-2,6.181267E-3,2.9154507E-2,4.1847568E-2,4.780196E-2,3.4597937E-2,2.7161235E-2,4.046567E-2,2.2154016E-2,4.068539E-3,3.0751377E-2,2.0523889E-2,-1.7209267E-2,-4.7116703E-4,-0E0,1.5967343E-2],"categories":[],"categories_nodes":[],"categories_segments":[],"categories_sizes":[],"default_left":[0,0,0,0,0,0,0,0,0,0,0,0,0,0,0,0,0,0,0,0,0,0,0,0,0,0,0,0,0,0,0,0,0,0,0,0,0,0,0,0,0,0,0,0,0,0,0,0,0,0,0,0,0,0,0,0,0,0,0,0,0,0,0,0,0,0,0,0,0,0,0,0,0,0,0,0,0,0,0,0,0,0,0,0,0,0,0,0,0,0,0,0,0,0,0,0,0,0,0,0,0,0,0,0,0,0,0,0,0,0,0,0,0,0,0,0,0,0,0,0,0,0,0,0,0,0,0,0,0,0,0,0,0,0,0,0,0,0,0,0,0,0,0,0,0,0,0,0,0,0,0,0,0,0,0,0,0,0,0,0,0,0,0],"id":7,"left_children":[1,3,5,7,9,11,13,15,17,19,21,23,25,27,29,31,33,35,37,39,41,-1,-1,43,-1,45,47,49,51,53,55,57,59,-1,61,-1,63,65,67,69,-1,-1,71,73,75,77,79,81,83,85,87,89,91,93,95,97,99,101,-1,103,105,107,-1,-1,109,-1,111,113,115,-1,117,119,121,-1,123,-1,-1,-1,-1,125,-1,127,129,131,133,135,137,-1,139,141,143,-1,145,147,149,151,153,155,157,159,161,-1,-1,-1,-1,-1,-1,-1,-1,-1,-1,-1,-1,-1,-1,-1,-1,-1,-1,-1,-1,-1,-1,-1,-1,-1,-1,-1,-1,-1,-1,-1,-1,-1,-1,-1,-1,-1,-1,-1,-1,-1,-1,-1,-1,-1,-1,-1,-1,-1,-1,-1,-1,-1,-1,-1,-1,-1,-1,-1,-1,-1,-1],"loss_changes":[4.939577E2,5.5407013E1,5.9440628E1,1.55590515E1,9.501342E0,1.060023E1,3.2724792E1,5.264435E0,3.0629272E0,2.512718E0,5.489068E-1,9.628763E-1,4.7856207E0,1.9551098E1,2.0416443E1,2.5203476E0,3.9885566E0,1.1284103E0,3.2035217E0,7.20802E-1,7.631917E-1,0E0,0E0,5.5592346E-1,0E0,1.4286137E0,1.9017631E0,1.9332852E0,3.0239677E0,2.4431152E0,3.6937752E0,7.084215E-1,1.8930969E0,0E0,4.6352065E-1,0E0,1.764245E0,4.8553467E-1,1.8572311E0,2.4971384E-1,0E0,0E0,3.950448E-1,2.4745083E-1,4.462515E-1,2.7118006E-1,6.4271593E-1,9.124682E-1,4.7213548E-1,4.0552217E-1,9.6852875E-1,1.1236064E0,7.825489E-1,4.296406E0,1.4072723E0,1.4691696E0,5.3548926E-1,1.00284696E-1,0E0,1.285574E0,7.473831E-1,3.9058477E-1,0E0,0E0,5.4735315E-1,0E0,2.437439E-1,1.8058395E-1,3.518007E-1,0E0,2.7574238E-1,5.631144E-1,4.5422888E-1,0E0,2.4302101E-1,0E0,0E0,0E0,0E0,3.86981E-1,0E0,4.7477233E-1,5.7206154E-1,3.431645E-1,2.402873E-1,1.7443085E-1,1.5192485E-1,0E0,1.9196758E-1,1.2012053E0,1.6760385E-1,0E0,4.5617294E-1,5.755241E-1,7.597313E-1,1.06910706E-1,1.1752701E0,2.5013914E0,1.6980133E0,2.403624E-1,2.0375976E-1,0E0,0E0,0E0,0E0,0E0,0E0,0E0,0E0,0E0,0E0,0E0,0E0,0E0,0E0,0E0,0E0,0E0,0E0,0E0,0E0,0E0,0E0,0E0,0E0,0E0,0E0,0E0,0E0,0E0,0E0,0E0,0E0,0E0,0E0,0E0,0E0,0E0,0E0,0E0,0E0,0E0,0E0,0E0,0E0,0E0,0E0,0E0,0E0,0E0,0E0,0E0,0E0,0E0,0E0,0E0,0E0,0E0,0E0,0E0,0E0,0E0,0E0],"parents":[2147483647,0,0,1,1,2,2,3,3,4,4,5,5,6,6,7,7,8,8,9,9,10,10,11,11,12,12,13,13,14,14,15,15,16,16,17,17,18,18,19,19,20,20,23,23,25,25,26,26,27,27,28,28,29,29,30,30,31,31,32,32,34,34,36,36,37,37,38,38,39,39,42,42,43,43,44,44,45,45,46,46,47,47,48,48,49,49,50,50,51,51,52,52,53,53,54,54,55,55,56,56,57,57,59,59,60,60,61,61,64,64,66,66,67,67,68,68,70,70,71,71,72,72,74,74,79,79,81,81,82,82,83,83,84,84,85,85,86,86,88,88,89,89,90,90,92,92,93,93,94,94,95,95,96,96,97,97,98,98,99,99,100,100],"right_children":[2,4,6,8,10,12,14,16,18,20,22,24,26,28,30,32,34,36,38,40,42,-1,-1,44,-1,46,48,50,52,54,56,58,60,-1,62,-1,64,66,68,70,-1,-1,72,74,76,78,80,82,84,86,88,90,92,94,96,98,100,102,-1,104,106,108,-1,-1,110,-1,112,114,116,-1,118,120,122,-1,124,-1,-1,-1,-1,126,-1,128,130,132,134,136,138,-1,140,142,144,-1,146,148,150,152,154,156,158,160,162,-1,-1,-1,-1,-1,-1,-1,-1,-1,-1,-1,-1,-1,-1,-1,-1,-1,-1,-1,-1,-1,-1,-1,-1,-1,-1,-1,-1,-1,-1,-1,-1,-1,-1,-1,-1,-1,-1,-1,-1,-1,-1,-1,-1,-1,-1,-1,-1,-1,-1,-1,-1,-1,-1,-1,-1,-1,-1,-1,-1,-1,-1],"split_conditions":[-5.450755E-1,-1.3815968E-1,-4.6332914E-1,4.223083E-1,-2.5137347E-1,-1.93495E-1,-6.2893695E-1,-7.019792E-1,-8.729048E-3,-9.9909955E-1,-1.9964772E0,2.6055378E-1,-7.0622005E-3,6.86903E-1,-2.734321E-1,-1.3672917E0,-3.8576253E-2,-1.1649073E0,3.873101E-1,5.6505525E-1,-1.2458777E0,1.6496211E-2,4.873713E-2,-9.162848E-1,-3.6921331E-3,-3.998511E-1,-7.804595E-1,-3.9057517E-1,1.0775713E0,-2.2908954E-1,1.487316E0,-1.1146333E0,-6.110312E-1,-3.30374E-2,-6.110499E-1,-4.669253E-2,-6.731684E-1,-1.6335396E0,-5.9800667E-1,-1.2711135E0,1.5216082E-2,1.4497543E-3,9.2967495E-2,-3.15198E-1,6.047637E-1,7.733557E-1,-4.8853981E-1,-2.0419797E-1,-8.649785E-2,-1.4022673E0,1.8504882E-1,4.3679637E-1,-1.2806607E0,8.181933E-1,-8.597261E-1,2.7952366E-2,7.212976E-1,-7.4725026E-1,2.8275468E-3,1.0746794E-1,7.58619E-1,9.1287094E-1,1.2392099E-2,-3.6779735E-2,-8.666544E-1,-2.1385673E-2,1.1014864E0,-9.524281E-1,-1.1011387E0,1.0714903E-2,-3.603299E-1,5.0801164E-1,8.4219885E-1,-5.072389E-2,-5.11433E-1,-3.364813E-2,-7.2739953E-3,5.8905547E-3,-1.0617397E-2,-1.9495308E-1,-0E0,1.3281991E0,1.3275708E0,6.1092657E-1,-1.1856317E-1,5.395233E-1,2.1778518E-1,-3.2744136E-2,-1.0672225E0,1.3576111E0,-2.88149E-1,2.8695292E-3,2.6434019E0,-1.2446709E-1,1.3488361E0,1.2922906E0,3.236672E-1,-2.496868E-1,2.4959064E-1,2.4903552E-1,-2.159728E-1,-2.7550006E-2,-8.839834E-3,-2.9986544E-2,-7.49904E-3,-4.1002877E-2,-2.731716E-2,-1.0428127E-2,3.757635E-3,-2.266167E-2,-0E0,-5.7667088E-2,-3.0038288E-2,-3.0485407E-2,-4.6653602E-2,-2.046468E-2,5.428034E-4,3.983296E-3,-6.130069E-3,-1.44778965E-2,1.0691038E-3,-2.917858E-2,-3.4846426E-3,-8.59071E-3,-3.4145746E-2,2.3571271E-2,1.8948469E-3,-7.4573713E-3,-2.6718786E-2,-3.698678E-2,-5.5811224E-3,-1.1747455E-2,4.4143494E-4,1.0294809E-2,-1.3364676E-3,-4.0093763E-3,7.934156E-3,-6.4383373E-3,-1.784315E-2,-0E0,-1.6059656E-2,1.5674544E-2,-3.1462281E-3,9.219544E-4,-1.2436276E-2,3.0029789E-2,1.30987195E-2,-1.9042036E-2,6.181267E-3,2.9154507E-2,4.1847568E-2,4.780196E-2,3.4597937E-2,2.7161235E-2,4.046567E-2,2.2154016E-2,4.068539E-3,3.0751377E-2,2.0523889E-2,-1.7209267E-2,-4.7116703E-4,-0E0,1.5967343E-2],"split_indices":[3,0,0,6,5,5,5,3,8,6,8,3,6,0,6,2,5,0,5,0,8,0,0,0,0,3,0,6,0,5,6,0,6,0,0,0,5,1,3,8,0,0,6,3,6,1,2,2,3,6,7,8,1,0,6,0,8,6,0,5,8,8,0,0,0,0,8,1,0,0,2,0,7,0,2,0,0,0,0,7,0,8,5,5,2,0,1,0,5,2,3,0,3,3,0,2,0,2,6,0,0,0,0,0,0,0,0,0,0,0,0,0,0,0,0,0,0,0,0,0,0,0,0,0,0,0,0,0,0,0,0,0,0,0,0,0,0,0,0,0,0,0,0,0,0,0,0,0,0,0,0,0,0,0,0,0,0,0,0,0,0,0,0],"split_type":[0,0,0,0,0,0,0,0,0,0,0,0,0,0,0,0,0,0,0,0,0,0,0,0,0,0,0,0,0,0,0,0,0,0,0,0,0,0,0,0,0,0,0,0,0,0,0,0,0,0,0,0,0,0,0,0,0,0,0,0,0,0,0,0,0,0,0,0,0,0,0,0,0,0,0,0,0,0,0,0,0,0,0,0,0,0,0,0,0,0,0,0,0,0,0,0,0,0,0,0,0,0,0,0,0,0,0,0,0,0,0,0,0,0,0,0,0,0,0,0,0,0,0,0,0,0,0,0,0,0,0,0,0,0,0,0,0,0,0,0,0,0,0,0,0,0,0,0,0,0,0,0,0,0,0,0,0,0,0,0,0,0,0],"sum_hessian":[1.702E3,6.51E2,1.051E3,5.39E2,1.12E2,1.66E2,8.85E2,2.51E2,2.88E2,1.01E2,1.1E1,2.8E1,1.38E2,1.94E2,6.91E2,2.15E2,3.6E1,7.2E1,2.16E2,3.8E1,6.3E1,4E0,7E0,2.5E1,3E0,3.9E1,9.9E1,5.7E1,1.37E2,3.67E2,3.24E2,1.2E1,2.03E2,1.4E1,2.2E1,3.2E1,4E1,1.57E2,5.9E1,3E1,8E0,7E0,5.6E1,1.7E1,8E0,8E0,3.1E1,5.5E1,4.4E1,3.2E1,2.5E1,7.6E1,6.1E1,9.5E1,2.72E2,3.09E2,1.5E1,7E0,5E0,5.5E1,1.48E2,1.7E1,5E0,3E1,1E1,3E0,1.54E2,5.3E1,6E0,3E0,2.7E1,4.4E1,1.2E1,1E1,7E0,3E0,5E0,3E0,5E0,2.7E1,4E0,4.7E1,8E0,2.5E1,1.9E1,1.4E1,1.8E1,1.8E1,7E0,6.9E1,7E0,4E0,5.7E1,7E0,8.8E1,1.38E2,1.34E2,1.13E2,1.96E2,9E0,6E0,3E0,4E0,4.6E1,9E0,1.25E2,2.3E1,9E0,8E0,4E0,6E0,1.49E2,5E0,1.3E1,4E1,3E0,3E0,9E0,1.8E1,3.8E1,6E0,9E0,3E0,3E0,4E0,2.4E1,3E0,4.4E1,3E0,5E0,3E0,7E0,1.8E1,1.4E1,5E0,1.1E1,3E0,1E1,8E0,4E0,3E0,6E1,9E0,3E0,4E0,4.9E1,8E0,3E0,4E0,5.5E1,3.3E1,1.2E2,1.8E1,3.5E1,9.9E1,8.7E1,2.6E1,1.01E2,9.5E1,4E0,5E0,3E0,3E0],"tree_param":{"num_deleted":"0","num_feature":"10","num_nodes":"163","size_leaf_vector":"1"}},{"base_weights":[-1.346274E-2,-6.475432E-1,3.9034984E-1,-7.860052E-1,-5.0052986E-2,7.7150196E-2,5.590549E-1,-6.159321E-1,-9.6789736E-1,-1.6419666E-1,4.5894054E-1,-2.6105928E-1,2.053464E-1,6.5121967E-1,4.2606223E-1,-6.735773E-1,-2.413574E-1,-9.990818E-1,-4.9450907E-1,-1.997158E-2,-3.626509E-1,6.1809266E-1,-3.916962E-3,-3.002972E-3,-4.2435753E-1,-1.1412312E-1,3.0654392E-1,4.748185E-1,6.7460763E-1,2.2662242E-1,4.866113E-1,-4.996654E-1,-7.3307276E-1,-2.9920647E-2,-1.414261E-1,-7.5853145E-1,-1.0489571E0,-3.3797972E-2,-2.7175286E-1,-1.4934097E-1,1.2448226E-1,-4.1692075E-1,-3.0302634E-3,1.7545931E-2,3.570516E-2,-1.3206723E-1,8.4376E-2,-7.1879834E-1,-2.8206143E-1,1.0643998E-1,-3.4113747E-1,3.7867096E-1,3.830266E-2,6.2936205E-1,1.8428105E-1,7.069831E-1,4.810109E-1,2.925456E-1,-2.1960974E-1,5.171127E-1,1.6294241E-1,-3.4341046E-1,-6.7834705E-1,-4.7282708E-1,-7.682209E-1,-3.5875103E-1,-2.1789722E-2,-8.7011164E-1,-2.210837E-2,-5.9525456E-2,-9.392643E-1,-0E0,-1.944985E-2,-6.382777E-2,-2.534229E-2,2.0413062E-2,7.219003E-2,-2.4432172E-1,-2.6889196E-2,-1.6489228E-2,-1.2376567E-2,2.3460259E-1,-1.4733452E-2,-4.1420627E-2,-1.6328273E-2,-1.4538206E-1,-7.085652E-1,2.697411E-1,-5.7239946E-2,-1.2101554E-1,-4.6215984E-1,4.386291E-1,6.781374E-2,1.1179469E-1,-2.938858E-1,4.9628157E-2,4.1460866E-1,-0E0,2.8580362E-1,7.60961E-1,6.326804E-1,1.8692581E-1,2.5976274E-2,1.098935E-1,4.2067525E-1,3.529351E-3,-3.1250123E-2,3.798378E-1,5.683466E-1,1.587411E-2,-0E0,-2.6291002E-2,-9.529698E-3,-1.5152129E-2,-4.0106386E-2,-4.0508113E-3,-2.6009012E-2,-3.876787E-2,-1.4088157E-2,-4.0896735E-3,-2.1994298E-2,4.809114E-3,-2.310655E-2,-2.158341E-2,-4.6580672E-2,-3.4498174E-2,-4.998686E-2,-1.0619361E-3,-1.4452617E-2,1.1813257E-2,-0E0,-1.5968358E-2,2.720888E-3,-8.303055E-3,4.7117765E-3,-0E0,1.6348002E-2,5.1394682E-3,-5.7807076E-3,1.4242529E-2,-9.971601E-3,-4.3343995E-2,-1.7843725E-2,2.7204527E-2,8.247272E-3,7.2274874E-3,-9.476942E-3,-2.2084275E-2,4.6770004E-4,-8.667584E-3,-2.701029E-2,-1.4028224E-2,2.3203854E-2,-4.6899635E-3,1.4298997E-2,-1.7111319E-3,1.4573762E-2,-3.4565018E-3,-1.9745663E-2,1.0263128E-2,2.818126E-2,1.9430062E-2,2.2083332E-3,1.44639015E-2,3.8667273E-2,1.07068345E-2,3.3436477E-2,1.6218035E-2,-3.2996022E-4,1.1281173E-2,-4.391838E-3,2.6934544E-2,1.2399474E-2,1.9675322E-2,3.9384374E-3,2.9867742E-2,1.7498028E-2,-6.0494277E-3,4.921207E-3],"categories":[],"categories_nodes":[],"categories_segments":[],"categories_sizes":[],"default_left":[0,0,0,0,0,0,0,0,0,0,0,0,0,0,0,0,0,0,0,0,0,0,0,0,0,0,0,0,0,0,0,0,0,0,0,0,0,0,0,0,0,0,0,0,0,0,0,0,0,0,0,0,0,0,0,0,0,0,0,0,0,0,0,0,0,0,0,0,0,0,0,0,0,0,0,0,0,0,0,0,0,0,0,0,0,0,0,0,0,0,0,0,0,0,0,0,0,0,0,0,0,0,0,0,0,0,0,0,0,0,0,0,0,0,0,0,0,0,0,0,0,0,0,0,0,0,0,0,0,0,0,0,0,0,0,0,0,0,0,0,0,0,0,0,0,0,0,0,0,0,0,0,0,0,0,0,0,0,0,0,0,0,0,0,0,0,0,0,0,0,0,0,0,0,0,0,0,0,0],"id":8,"left_children":[1,3,5,7,9,11,13,15,17,19,21,23,25,27,29,31,33,35,37,39,41,43,-1,45,47,49,51,53,55,57,59,61,63,-1,65,67,69,-1,71,73,75,77,-1,-1,-1,79,81,83,85,87,89,91,93,95,97,99,101,103,105,107,109,111,113,115,117,119,121,123,-1,-1,125,-1,-1,127,-1,-1,129,131,-1,133,-1,135,137,-1,-1,139,141,143,145,147,149,151,153,155,157,-1,159,-1,161,163,165,167,-1,169,171,-1,-1,173,175,-1,177,-1,-1,-1,-1,-1,-1,-1,-1,-1,-1,-1,-1,-1,-1,-1,-1,-1,-1,-1,-1,-1,-1,-1,-1,-1,-1,-1,-1,-1,-1,-1,-1,-1,-1,-1,-1,-1,-1,-1,-1,-1,-1,-1,-1,-1,-1,-1,-1,-1,-1,-1,-1,-1,-1,-1,-1,-1,-1,-1,-1,-1,-1,-1,-1,-1,-1,-1,-1],"loss_changes":[4.3300238E2,5.4313232E1,5.447528E1,1.576474E1,7.308181E0,1.578669E1,7.839432E0,5.770218E0,3.1357422E0,2.902569E0,2.0691085E0,4.170005E0,8.58922E0,1.1902466E0,3.175499E0,2.0040588E0,1.2329447E0,1.8909912E0,4.4908047E-1,1.1610384E0,6.318345E-1,1.04632854E-1,0E0,4.6701252E-1,2.2529325E0,3.2643237E0,3.8326359E0,2.0476894E0,1.7035217E0,2.042481E0,1.9406776E0,1.4796658E0,1.1316986E0,0E0,7.8612787E-1,1.0725327E0,1.69664E0,0E0,3.2073432E-1,9.194373E-1,3.5282603E-1,5.413885E-1,0E0,0E0,0E0,1.9638321E-1,3.8277638E-1,4.3086338E-1,2.3182464E0,9.187507E-1,7.382238E-1,2.8644829E0,1.0888269E0,1.9437151E0,3.3497375E-1,5.543213E-1,4.3255043E-1,1.2814994E0,1.1583515E0,1.0466957E0,4.7694486E-1,8.5952234E-1,9.9361134E-1,3.430214E-1,2.1044159E-1,1.5903246E-1,1.2238983E0,3.2440758E-1,0E0,0E0,8.7498474E-1,0E0,0E0,2.3141056E-1,0E0,0E0,3.110733E-1,4.249977E-1,0E0,1.884445E-1,0E0,1.9793648E-1,1.9100314E-1,0E0,0E0,8.3890426E-1,1.2503481E-1,3.2811177E-1,4.8573816E-1,5.908374E-1,2.8580523E-1,2.564417E0,9.9802214E-1,1.0064498E0,1.0794735E-1,0E0,4.937327E-1,0E0,2.376365E-1,6.280441E-1,1.729969E0,2.4669334E-1,0E0,6.285628E-1,4.8064947E-1,0E0,0E0,1.5222836E-1,5.70446E-1,0E0,1.4100233E-1,0E0,0E0,0E0,0E0,0E0,0E0,0E0,0E0,0E0,0E0,0E0,0E0,0E0,0E0,0E0,0E0,0E0,0E0,0E0,0E0,0E0,0E0,0E0,0E0,0E0,0E0,0E0,0E0,0E0,0E0,0E0,0E0,0E0,0E0,0E0,0E0,0E0,0E0,0E0,0E0,0E0,0E0,0E0,0E0,0E0,0E0,0E0,0E0,0E0,0E0,0E0,0E0,0E0,0E0,0E0,0E0,0E0,0E0,0E0,0E0,0E0,0E0,0E0,0E0,0E0,0E0,0E0,0E0],"parents":[2147483647,0,0,1,1,2,2,3,3,4,4,5,5,6,6,7,7,8,8,9,9,10,10,11,11,12,12,13,13,14,14,15,15,16,16,17,17,18,18,19,19,20,20,21,21,23,23,24,24,25,25,26,26,27,27,28,28,29,29,30,30,31,31,32,32,34,34,35,35,36,36,38,38,39,39,40,40,41,41,45,45,46,46,47,47,48,48,49,49,50,50,51,51,52,52,53,53,54,54,55,55,56,56,57,57,58,58,59,59,60,60,61,61,62,62,63,63,64,64,65,65,66,66,67,67,70,70,73,73,76,76,77,77,79,79,81,81,82,82,85,85,86,86,87,87,88,88,89,89,90,90,91,91,92,92,93,93,94,94,96,96,98,98,99,99,100,100,101,101,103,103,104,104,107,107,108,108,110,110],"right_children":[2,4,6,8,10,12,14,16,18,20,22,24,26,28,30,32,34,36,38,40,42,44,-1,46,48,50,52,54,56,58,60,62,64,-1,66,68,70,-1,72,74,76,78,-1,-1,-1,80,82,84,86,88,90,92,94,96,98,100,102,104,106,108,110,112,114,116,118,120,122,124,-1,-1,126,-1,-1,128,-1,-1,130,132,-1,134,-1,136,138,-1,-1,140,142,144,146,148,150,152,154,156,158,-1,160,-1,162,164,166,168,-1,170,172,-1,-1,174,176,-1,178,-1,-1,-1,-1,-1,-1,-1,-1,-1,-1,-1,-1,-1,-1,-1,-1,-1,-1,-1,-1,-1,-1,-1,-1,-1,-1,-1,-1,-1,-1,-1,-1,-1,-1,-1,-1,-1,-1,-1,-1,-1,-1,-1,-1,-1,-1,-1,-1,-1,-1,-1,-1,-1,-1,-1,-1,-1,-1,-1,-1,-1,-1,-1,-1,-1,-1,-1,-1],"split_conditions":[-5.176838E-1,-1.3815968E-1,1.7176864E-1,5.5846244E-1,1.0990343E0,-7.804595E-1,-4.684014E-1,-7.019792E-1,-5.9800667E-1,-4.9048132E-1,-3.7653303E-1,4.7190022E-1,-1.8308032E-1,-2.0356408E-1,1.7170513E-1,-1.0731916E0,-7.7320784E-1,-1.1908956E0,-1.014982E0,3.236672E-1,-6.707386E-1,-1.1678518E0,-3.916962E-3,-1.1424375E-1,-1.2594981E0,-6.880626E-1,7.6857376E-1,-2.6229006E-1,1.6383588E0,4.2965642E-1,1.2570922E0,-2.3690593E-1,-9.9909955E-1,-2.9920647E-2,-1.1331366E0,-8.437627E-1,-1.3035365E0,-3.3797972E-2,-8.498259E-1,-3.0269405E-1,3.3208686E-1,-5.2405256E-1,-3.0302634E-3,1.7545931E-2,3.570516E-2,-1.012587E0,-1.3896947E-1,1.4245075E-1,-3.7238201E-1,8.041987E-2,-9.1411635E-2,8.082129E-1,-4.773055E-2,5.001059E-1,-2.8883945E-3,3.015634E-1,1.438295E-1,9.6279347E-1,9.29052E-1,-9.252791E-1,9.3229055E-1,-1.09656E0,-3.0606046E-1,-1.7029635E0,-4.3556753E-1,-7.2944136E-3,-7.180468E-1,-1.3284248E0,-2.210837E-2,-5.9525456E-2,-2.2789375E-1,-0E0,-1.944985E-2,-9.455516E-2,-2.534229E-2,2.0413062E-2,-9.252791E-1,3.5249385E-1,-2.6889196E-2,-1.1844821E0,-1.2376567E-2,-1.4123391E0,-7.9015803E-1,-4.1420627E-2,-1.6328273E-2,-7.2944136E-3,1.2453857E-1,-1.2459403E0,-4.517534E-1,-9.252791E-1,-6.4188576E-1,-7.7415776E-1,-1.4461593E-1,-1.4136457E-1,1.0930532E0,4.9628157E-2,1.1675816E0,-0E0,6.8659154E-3,-2.217062E0,6.0999596E-1,9.9448043E-1,2.5976274E-2,1.0965894E0,1.4915712E0,3.529351E-3,-3.1250123E-2,2.0098221E0,1.3958662E0,1.587411E-2,-1.6928445E-1,-2.6291002E-2,-9.529698E-3,-1.5152129E-2,-4.0106386E-2,-4.0508113E-3,-2.6009012E-2,-3.876787E-2,-1.4088157E-2,-4.0896735E-3,-2.1994298E-2,4.809114E-3,-2.310655E-2,-2.158341E-2,-4.6580672E-2,-3.4498174E-2,-4.998686E-2,-1.0619361E-3,-1.4452617E-2,1.1813257E-2,-0E0,-1.5968358E-2,2.720888E-3,-8.303055E-3,4.7117765E-3,-0E0,1.6348002E-2,5.1394682E-3,-5.7807076E-3,1.4242529E-2,-9.971601E-3,-4.3343995E-2,-1.7843725E-2,2.7204527E-2,8.247272E-3,7.2274874E-3,-9.476942E-3,-2.2084275E-2,4.6770004E-4,-8.667584E-3,-2.701029E-2,-1.4028224E-2,2.3203854E-2,-4.6899635E-3,1.4298997E-2,-1.7111319E-3,1.4573762E-2,-3.4565018E-3,-1.9745663E-2,1.0263128E-2,2.818126E-2,1.9430062E-2,2.2083332E-3,1.44639015E-2,3.8667273E-2,1.07068345E-2,3.3436477E-2,1.6218035E-2,-3.2996022E-4,1.1281173E-2,-4.391838E-3,2.6934544E-2,1.2399474E-2,1.9675322E-2,3.9384374E-3,2.9867742E-2,1.7498028E-2,-6.0494277E-3,4.921207E-3],"split_indices":[3,0,0,6,0,0,6,3,3,6,8,6,3,3,3,2,8,4,0,0,3,3,0,3,0,2,6,8,3,8,6,7,6,0,0,3,0,0,2,9,0,9,0,0,0,2,6,3,2,6,9,9,2,2,2,9,2,0,2,8,4,3,6,6,2,8,2,2,0,0,8,0,0,2,0,0,8,0,0,0,0,0,2,0,0,8,3,7,3,8,2,8,7,4,6,0,0,0,9,9,0,0,0,9,4,0,0,9,3,0,7,0,0,0,0,0,0,0,0,0,0,0,0,0,0,0,0,0,0,0,0,0,0,0,0,0,0,0,0,0,0,0,0,0,0,0,0,0,0,0,0,0,0,0,0,0,0,0,0,0,0,0,0,0,0,0,0,0,0,0,0,0,0,0,0,0,0,0,0],"split_type":[0,0,0,0,0,0,0,0,0,0,0,0,0,0,0,0,0,0,0,0,0,0,0,0,0,0,0,0,0,0,0,0,0,0,0,0,0,0,0,0,0,0,0,0,0,0,0,0,0,0,0,0,0,0,0,0,0,0,0,0,0,0,0,0,0,0,0,0,0,0,0,0,0,0,0,0,0,0,0,0,0,0,0,0,0,0,0,0,0,0,0,0,0,0,0,0,0,0,0,0,0,0,0,0,0,0,0,0,0,0,0,0,0,0,0,0,0,0,0,0,0,0,0,0,0,0,0,0,0,0,0,0,0,0,0,0,0,0,0,0,0,0,0,0,0,0,0,0,0,0,0,0,0,0,0,0,0,0,0,0,0,0,0,0,0,0,0,0,0,0,0,0,0,0,0,0,0,0,0],"sum_hessian":[1.689E3,6.57E2,1.032E3,5.33E2,1.24E2,3.62E2,6.7E2,2.78E2,2.55E2,1.02E2,2.2E1,9.9E1,2.63E2,3.93E2,2.77E2,2.4E2,3.8E1,2.38E2,1.7E1,6E1,4.2E1,1.7E1,5E0,3.9E1,6E1,6.3E1,2E2,4.9E1,3.44E2,6.6E1,2.11E2,6.4E1,1.76E2,7E0,3.1E1,4.4E1,1.94E2,8E0,9E0,3.2E1,2.8E1,3.5E1,7E0,6E0,1.1E1,1.6E1,2.3E1,1.8E1,4.2E1,3.2E1,3.1E1,1.57E2,4.3E1,3.1E1,1.8E1,2.92E2,5.2E1,5.8E1,8E0,1.92E2,1.9E1,3.6E1,2.8E1,2.3E1,1.53E2,1E1,2.1E1,3.1E1,1.3E1,8E1,1.14E2,3E0,6E0,2.7E1,5E0,3E0,2.5E1,1.6E1,1.9E1,9E0,7E0,9E0,1.4E1,1.3E1,5E0,3.3E1,9E0,1.6E1,1.6E1,1.2E1,1.9E1,1.31E2,2.6E1,3.6E1,7E0,1E1,2.1E1,7E0,1.1E1,1.63E2,1.29E2,7E0,4.5E1,2.5E1,3.3E1,5E0,3E0,5.5E1,1.37E2,9E0,1E1,1.5E1,2.1E1,8E0,2E1,3E0,2E1,1.5E2,3E0,3E0,7E0,1.7E1,4E0,5E0,2.6E1,2.5E1,8.9E1,2.4E1,3E0,7E0,1.8E1,1.3E1,3E0,4E0,5E0,3E0,6E0,6E0,8E0,3E0,3E1,5E0,4E0,3E0,1.3E1,6E0,1E1,3E0,9E0,5E0,1.4E1,4E0,1.27E2,1.5E1,1.1E1,2E1,1.6E1,3E0,4E0,1E1,1.1E1,7E0,4E0,5E0,1.58E2,1.1E1,1.18E2,4E0,3E0,1.6E1,9E0,1.8E1,1.5E1,5.2E1,3E0,1.19E2,1.8E1,4E0,6E0],"tree_param":{"num_deleted":"0","num_feature":"10","num_nodes":"179","size_leaf_vector":"1"}},{"base_weights":[-3.259221E-3,-6.00718E-1,3.9514878E-1,-7.4452174E-1,-1.1021332E-1,1.3073234E-1,5.44116E-1,-5.433351E-1,-8.54691E-1,-2.5093922E-1,3.1963983E-1,-1.716194E-1,2.4672776E-1,6.3901305E-1,4.579307E-1,-6.1198217E-1,-2.0348704E-1,-8.8504684E-1,-4.040387E-1,-5.5508167E-2,-3.597581E-1,5.46881E-1,-2.0746863E-2,4.2419112E-1,-2.4285343E-1,3.2717738E-1,-6.884909E-2,6.5793294E-1,3.4975427E-1,1.9824275E-1,5.1591665E-1,-6.592758E-1,-3.6140516E-1,-2.7425205E-2,-1.0279792E-1,-7.813459E-1,-9.9118453E-1,-2.4665022E-1,-4.5065362E-2,7.1969934E-2,-1.1040194E-1,-3.028695E-1,-3.4177914E-2,3.2146603E-2,7.545717E-3,-1.5582315E-2,1.3072072E-1,2.8566614E-2,-0E0,-5.921202E-1,-1.8103924E-1,4.2002398E-1,1.3808301E-1,5.6012208E-3,-2.0349529E-2,5.1690245E-1,6.9650656E-1,2.6657442E-2,1.1709327E-2,3.3280328E-1,-1.585676E-1,5.674652E-1,3.4766492E-1,-4.997856E-1,-7.2754383E-1,-0E0,-4.3996218E-1,-3.2243552E-3,-1.6319104E-2,-1.3938072E-4,-7.953892E-1,-5.218305E-2,-6.3626736E-1,-3.4757912E-1,4.2733257E-3,9.807229E-3,-0E0,-1.689863E-1,7.2598653E-3,-3.7005424E-1,-6.773774E-2,1.0355729E-2,-1.4873595E-3,-1.5599425E-2,-3.8668875E-2,-1.0618847E-1,-4.6287736E-1,1.4464575E-1,4.665643E-1,-2.5483835E-1,2.0084319E-1,1.6123152E-1,-1.7517777E-1,2.9817367E-1,6.1955035E-1,7.453976E-1,5.536702E-1,4.76953E-1,1.9418415E-1,-1.8565728E-3,-1.3238347E-2,3.7023205E-2,5.2684206E-1,3.7781385E-1,1.6679471E-2,-5.8866716E-3,-2.9163813E-2,-3.3286136E-2,-4.4268798E-2,-3.5543535E-2,-1.6735597E-2,-1.5388119E-2,3.1369484E-3,-4.1012254E-2,-1.8865338E-2,-1.1972355E-2,-3.405288E-2,-6.098801E-3,-2.0471849E-2,-1.8107764E-2,-4.396393E-3,-2.814704E-2,-1.2529968E-2,7.201824E-3,-9.309194E-3,-2.8191144E-2,-3.6399756E-3,-3.9689187E-3,-3.10444E-2,2.5876794E-2,1.3736868E-3,1.4325102E-2,2.7000347E-2,-0E0,-2.5576252E-2,1.5561369E-2,2.1260954E-3,-8.2401367E-4,1.2585619E-2,9.816326E-4,-1.4056409E-2,3.2468736E-2,7.9492945E-3,3.536471E-2,2.0097114E-2,6.416461E-3,3.8197484E-2,2.8645072E-2,5.810382E-3,2.9488686E-2,9.664751E-3,-2.9033457E-3,1.4771903E-2,1.98003E-2,3.0935034E-2,4.6766616E-4,1.9734783E-2,1.1135327E-2,-8.425872E-3],"categories":[],"categories_nodes":[],"categories_segments":[],"categories_sizes":[],"default_left":[0,0,0,0,0,0,0,0,0,0,0,0,0,0,0,0,0,0,0,0,0,0,0,0,0,0,0,0,0,0,0,0,0,0,0,0,0,0,0,0,0,0,0,0,0,0,0,0,0,0,0,0,0,0,0,0,0,0,0,0,0,0,0,0,0,0,0,0,0,0,0,0,0,0,0,0,0,0,0,0,0,0,0,0,0,0,0,0,0,0,0,0,0,0,0,0,0,0,0,0,0,0,0,0,0,0,0,0,0,0,0,0,0,0,0,0,0,0,0,0,0,0,0,0,0,0,0,0,0,0,0,0,0,0,0,0,0,0,0,0,0,0,0,0,0,0,0,0,0,0,0,0,0,0,0,0,0,0,0],"id":9,"left_children":[1,3,5,7,9,11,13,15,17,19,21,23,25,27,29,31,33,35,37,39,41,43,45,47,49,51,53,55,57,59,61,63,65,-1,67,69,71,73,-1,75,77,79,-1,-1,-1,-1,81,-1,-1,83,85,87,89,91,-1,93,95,-1,-1,97,99,101,103,105,107,-1,109,111,-1,-1,113,-1,115,117,-1,-1,-1,119,-1,121,123,-1,-1,-1,-1,125,127,129,131,133,135,137,139,141,143,145,147,149,151,-1,-1,-1,153,155,157,-1,-1,-1,-1,-1,-1,-1,-1,-1,-1,-1,-1,-1,-1,-1,-1,-1,-1,-1,-1,-1,-1,-1,-1,-1,-1,-1,-1,-1,-1,-1,-1,-1,-1,-1,-1,-1,-1,-1,-1,-1,-1,-1,-1,-1,-1,-1,-1,-1,-1,-1,-1,-1,-1],"loss_changes":[3.9801E2,4.702133E1,3.9368942E1,1.0854889E1,9.328536E0,1.2780777E1,4.8402405E0,4.1332245E0,4.0552216E0,2.4054294E0,3.0032547E0,4.371523E0,6.7254143E0,1.3218765E0,4.946106E0,1.4846764E0,1.0248871E0,2.4603424E0,1.4629762E0,3.1269228E-1,1.0574474E0,6.9834805E-1,7.6382047E-1,6.3204575E-1,1.7801437E0,3.5731125E0,1.4018543E0,1.052742E0,2.4349475E-1,3.1430008E0,2.1136627E0,9.0732193E-1,7.318983E-1,0E0,5.670899E-1,1.6892014E0,1.9430695E0,6.928009E-1,0E0,1.2502775E-1,4.9111292E-1,9.5797634E-1,0E0,0E0,0E0,0E0,1.5874423E-1,0E0,0E0,3.1026554E-1,1.5605094E0,1.665657E0,1.7966295E0,1.2929106E0,0E0,1.1828785E0,9.797745E-1,0E0,0E0,7.7941847E-1,1.921148E-1,9.58992E-1,6.3281155E-1,1.2009354E0,1.0437012E-1,0E0,2.847948E-1,4.455779E-1,0E0,0E0,1.223053E0,0E0,1.3589191E-1,1.0624719E-1,0E0,0E0,0E0,3.3025557E-1,0E0,9.29636E-1,4.3237343E-1,0E0,0E0,0E0,0E0,8.732075E-1,8.5023904E-1,8.925108E-1,1.3363209E0,6.588634E-1,1.0349135E0,4.2965943E-1,4.6511406E-1,9.402292E-1,4.2581558E-1,1.6329498E0,3.692913E-1,5.1174784E-1,7.049688E-1,0E0,0E0,0E0,1.7447243E0,3.4156132E-1,3.1003788E-1,0E0,0E0,0E0,0E0,0E0,0E0,0E0,0E0,0E0,0E0,0E0,0E0,0E0,0E0,0E0,0E0,0E0,0E0,0E0,0E0,0E0,0E0,0E0,0E0,0E0,0E0,0E0,0E0,0E0,0E0,0E0,0E0,0E0,0E0,0E0,0E0,0E0,0E0,0E0,0E0,0E0,0E0,0E0,0E0,0E0,0E0,0E0,0E0,0E0,0E0,0E0,0E0,0E0,0E0],"parents":[2147483647,0,0,1,1,2,2,3,3,4,4,5,5,6,6,7,7,8,8,9,9,10,10,11,11,12,12,13,13,14,14,15,15,16,16,17,17,18,18,19,19,20,20,21,21,22,22,23,23,24,24,25,25,26,26,27,27,28,28,29,29,30,30,31,31,32,32,34,34,35,35,36,36,37,37,39,39,40,40,41,41,46,46,49,49,50,50,51,51,52,52,53,53,55,55,56,56,59,59,60,60,61,61,62,62,63,63,64,64,66,66,67,67,70,70,72,72,73,73,77,77,79,79,80,80,85,85,86,86,87,87,88,88,89,89,90,90,91,91,92,92,93,93,94,94,95,95,96,96,97,97,98,98,102,102,103,103,104,104],"right_children":[2,4,6,8,10,12,14,16,18,20,22,24,26,28,30,32,34,36,38,40,42,44,46,48,50,52,54,56,58,60,62,64,66,-1,68,70,72,74,-1,76,78,80,-1,-1,-1,-1,82,-1,-1,84,86,88,90,92,-1,94,96,-1,-1,98,100,102,104,106,108,-1,110,112,-1,-1,114,-1,116,118,-1,-1,-1,120,-1,122,124,-1,-1,-1,-1,126,128,130,132,134,136,138,140,142,144,146,148,150,152,-1,-1,-1,154,156,158,-1,-1,-1,-1,-1,-1,-1,-1,-1,-1,-1,-1,-1,-1,-1,-1,-1,-1,-1,-1,-1,-1,-1,-1,-1,-1,-1,-1,-1,-1,-1,-1,-1,-1,-1,-1,-1,-1,-1,-1,-1,-1,-1,-1,-1,-1,-1,-1,-1,-1,-1,-1,-1,-1],"split_conditions":[-5.0498426E-1,-2.412708E-1,1.7176864E-1,1.353755E-1,5.911956E-1,-1.8308032E-1,-7.039075E-1,-7.08014E-1,-5.9800667E-1,-9.9909955E-1,-8.0025554E-1,-1.0361406E0,9.646517E-1,2.6434019E0,-1.1435893E-3,7.58619E-1,-7.7320784E-1,-8.5762566E-1,-5.383435E-1,-1.3369341E0,3.4174013E-1,-3.7653303E-1,-1.613192E0,5.5099046E-1,-1.2844577E0,3.5717547E-1,-4.773055E-2,-4.9962204E-2,-9.6626776E-1,6.436128E-2,1.3693655E0,-5.7630736E-1,-1.8047826E0,-2.7425205E-2,1.3281991E0,-1.7756922E0,-6.3978976E-1,-7.548621E-1,-4.5065362E-2,-9.992212E-1,-4.5363724E-1,6.436128E-2,-3.4177914E-2,3.2146603E-2,7.545717E-3,-1.5582315E-2,-7.2944136E-3,2.8566614E-2,-0E0,-3.793292E-1,-3.0759197E-1,-6.866394E-1,2.0365026E-2,-1.3564701E-1,-2.0349529E-2,8.605774E-1,1.0801735E0,2.6657442E-2,1.1709327E-2,1.0965894E0,-2.88149E-1,1.2871549E-1,2.0615003E0,-1.1487821E0,4.3679637E-1,-0E0,-1.1260127E0,-1.2327337E0,-1.6319104E-2,-1.3938072E-4,-7.890612E-1,-5.218305E-2,-7.689659E-1,-6.547446E-1,4.2733257E-3,9.807229E-3,-0E0,-1.0819063E0,7.2598653E-3,1.15088195E-1,-3.0759197E-1,1.0355729E-2,-1.4873595E-3,-1.5599425E-2,-3.8668875E-2,-1.3284248E0,-7.4725026E-1,-8.758564E-1,7.212976E-1,-5.5771166E-1,5.23153E-1,1.106331E-1,-6.915867E-3,-7.986501E-1,4.8337576E-1,-1.5009761E0,9.784647E-1,7.1543056E-1,9.798825E-1,-1.8565728E-3,-1.3238347E-2,3.7023205E-2,8.4502107E-1,6.3443106E-1,3.0759773E-1,-5.8866716E-3,-2.9163813E-2,-3.3286136E-2,-4.4268798E-2,-3.5543535E-2,-1.6735597E-2,-1.5388119E-2,3.1369484E-3,-4.1012254E-2,-1.8865338E-2,-1.1972355E-2,-3.405288E-2,-6.098801E-3,-2.0471849E-2,-1.8107764E-2,-4.396393E-3,-2.814704E-2,-1.2529968E-2,7.201824E-3,-9.309194E-3,-2.8191144E-2,-3.6399756E-3,-3.9689187E-3,-3.10444E-2,2.5876794E-2,1.3736868E-3,1.4325102E-2,2.7000347E-2,-0E0,-2.5576252E-2,1.5561369E-2,2.1260954E-3,-8.2401367E-4,1.2585619E-2,9.816326E-4,-1.4056409E-2,3.2468736E-2,7.9492945E-3,3.536471E-2,2.0097114E-2,6.416461E-3,3.8197484E-2,2.8645072E-2,5.810382E-3,2.9488686E-2,9.664751E-3,-2.9033457E-3,1.4771903E-2,1.98003E-2,3.0935034E-2,4.6766616E-4,1.9734783E-2,1.1135327E-2,-8.425872E-3],"split_indices":[3,0,0,6,0,3,6,3,3,6,6,7,6,3,3,8,8,2,2,7,9,8,1,1,0,9,2,3,1,8,9,6,9,0,8,0,0,0,0,3,7,8,0,0,0,0,8,0,0,3,2,0,3,1,0,0,3,0,0,9,3,2,9,2,8,0,3,2,0,0,0,0,2,7,0,0,0,3,0,0,2,0,0,0,0,2,6,6,8,0,3,7,3,2,1,9,1,1,0,0,0,0,0,0,3,0,0,0,0,0,0,0,0,0,0,0,0,0,0,0,0,0,0,0,0,0,0,0,0,0,0,0,0,0,0,0,0,0,0,0,0,0,0,0,0,0,0,0,0,0,0,0,0,0,0,0,0,0,0],"split_type":[0,0,0,0,0,0,0,0,0,0,0,0,0,0,0,0,0,0,0,0,0,0,0,0,0,0,0,0,0,0,0,0,0,0,0,0,0,0,0,0,0,0,0,0,0,0,0,0,0,0,0,0,0,0,0,0,0,0,0,0,0,0,0,0,0,0,0,0,0,0,0,0,0,0,0,0,0,0,0,0,0,0,0,0,0,0,0,0,0,0,0,0,0,0,0,0,0,0,0,0,0,0,0,0,0,0,0,0,0,0,0,0,0,0,0,0,0,0,0,0,0,0,0,0,0,0,0,0,0,0,0,0,0,0,0,0,0,0,0,0,0,0,0,0,0,0,0,0,0,0,0,0,0,0,0,0,0,0,0],"sum_hessian":[1.67E3,6.68E2,1.002E3,5.16E2,1.52E2,3.62E2,6.4E2,1.85E2,3.31E2,1.15E2,3.7E1,1E2,2.62E2,3.01E2,3.39E2,1.53E2,3.2E1,3.09E2,2.2E1,4.2E1,7.3E1,2.2E1,1.5E1,1E1,9E1,2.09E2,5.3E1,2.81E2,2E1,6.3E1,2.76E2,1.27E2,2.6E1,6E0,2.6E1,1.61E2,1.48E2,1.8E1,4E0,1.2E1,3E1,6.4E1,9E0,1.7E1,5E0,5E0,1E1,7E0,3E0,1.2E1,7.8E1,1.39E2,7E1,4.4E1,9E0,6.4E1,2.17E2,6E0,1.4E1,4.6E1,1.7E1,2.09E2,6.7E1,4.1E1,8.6E1,5E0,2.1E1,1.9E1,7E0,3E0,1.58E2,1.27E2,2.1E1,1.4E1,4E0,4E0,8E0,2.5E1,5E0,4.9E1,1.5E1,7E0,3E0,6E0,6E0,6.3E1,1.5E1,2.1E1,1.18E2,9E0,6.1E1,2.4E1,2E1,2.2E1,4.2E1,1.58E2,5.9E1,2.1E1,2.5E1,9E0,8E0,3.6E1,1.73E2,6.1E1,6E0,8E0,3.3E1,6.6E1,2E1,4E0,1.7E1,3E0,1.6E1,1.48E2,1E1,3E0,1.8E1,4E0,1E1,6E0,1.9E1,1.7E1,3.2E1,5E0,1E1,3E0,6E1,5E0,1E1,4E0,1.7E1,3.6E1,8.2E1,5E0,4E0,3.5E1,2.6E1,8E0,1.6E1,7E0,1.3E1,5E0,1.7E1,2.8E1,1.4E1,5E0,1.53E2,5.6E1,3E0,1.4E1,7E0,7E0,1.8E1,7.4E1,9.9E1,3E0,5.8E1,3E0,3E0],"tree_param":{"num_deleted":"0","num_feature":"10","num_nodes":"159","size_leaf_vector":"1"}},{"base_weights":[4.8290114E-3,-6.0218257E-1,3.4887207E-1,-7.0382446E-1,-3.784485E-2,8.693571E-2,5.112118E-1,-5.5595917E-1,-8.7721306E-1,-1.3905714E-1,5.9578997E-1,-4.3367264E-1,2.1011272E-1,2.4840547E-1,6.194085E-1,-5.8097494E-1,-1.5261833E-1,-9.241285E-1,-6.372415E-1,-6.827638E-2,-3.6489457E-1,1.4830372E-2,3.6660153E-2,-2.3236524E-1,-5.708635E-1,-3.4628566E-2,3.5713324E-1,-1.9983429E-1,3.2851866E-1,7.0902956E-1,3.969734E-1,-6.5931484E-2,-5.964219E-1,-3.783587E-1,2.7904909E-3,-4.9218763E-2,-7.2893023E-1,-7.50147E-1,-1.2879388E-1,-1.1527056E-1,1.8701924E-1,5.297202E-3,-2.5209058E-2,-2.7790192E-1,7.6817735E-3,-1.2933232E-2,-6.371101E-1,1.4946859E-1,-1.5902759E-1,5.114798E-1,2.7329206E-1,-1.2219323E-1,-2.7180046E-2,2.1368441E-1,5.426107E-1,5.40471E-1,7.5489336E-1,1.3339499E-1,4.4003472E-1,-1.5697148E-2,4.6865703E-3,-6.203287E-1,-3.3530906E-1,-6.1050374E-3,-2.6947245E-2,-1.3194996E-2,-3.7543524E-2,-8.566612E-1,-4.751492E-1,-0E0,-1.571859E-2,-6.765899E-3,-1.8992186E-1,1.4507082E-2,2.9342578E-4,-3.6666578E-1,-4.5359423E-4,-3.3855688E-2,-1.1283237E-2,-5.435806E-2,2.6532426E-1,-2.0355593E-2,-1.1813401E-1,5.1178057E-3,5.3899115E-1,1.31920865E-2,3.2432777E-1,2.4505116E-3,-1.7005168E-1,2.4420822E-1,-1.4488366E-1,6.529679E-1,3.7123483E-1,6.513326E-1,4.404965E-1,8.260743E-1,6.7768383E-1,9.950586E-3,-8.511451E-3,4.7510883E-1,1.6318995E-1,-4.0630303E-2,-2.908656E-2,-2.7714059E-2,8.3400024E-4,-1.5208028E-2,-4.5966413E-2,-1.4307848E-2,-3.3125352E-2,2.6436348E-3,-3.9571943E-3,-1.4034211E-2,-5.821511E-3,-2.1818526E-2,2.4262224E-3,-1.554441E-2,4.013132E-3,1.7398043E-2,-0E0,-1.9919846E-2,-3.8565025E-3,3.1219525E-2,1.8327232E-2,-7.2246953E-3,8.2712965E-3,2.1516567E-2,9.0452535E-3,-0E0,-9.930462E-3,-4.61469E-3,1.3176805E-2,-0E0,-1.1097851E-2,3.713463E-2,1.6003475E-2,6.877397E-3,2.3361586E-2,3.545154E-2,1.2842627E-2,2.3096155E-2,8.263491E-3,5.1424693E-2,3.807145E-2,1.4468004E-2,3.4505095E-2,1.8446454E-3,2.434432E-2,1.1262096E-3,1.5322368E-2],"categories":[],"categories_nodes":[],"categories_segments":[],"categories_sizes":[],"default_left":[0,0,0,0,0,0,0,0,0,0,0,0,0,0,0,0,0,0,0,0,0,0,0,0,0,0,0,0,0,0,0,0,0,0,0,0,0,0,0,0,0,0,0,0,0,0,0,0,0,0,0,0,0,0,0,0,0,0,0,0,0,0,0,0,0,0,0,0,0,0,0,0,0,0,0,0,0,0,0,0,0,0,0,0,0,0,0,0,0,0,0,0,0,0,0,0,0,0,0,0,0,0,0,0,0,0,0,0,0,0,0,0,0,0,0,0,0,0,0,0,0,0,0,0,0,0,0,0,0,0,0,0,0,0,0,0,0,0,0,0,0,0,0,0,0,0,0,0,0],"id":10,"left_children":[1,3,5,7,9,11,13,15,17,19,21,23,25,27,29,31,33,35,37,39,41,-1,-1,43,45,47,49,51,53,55,57,59,61,63,-1,-1,65,67,69,71,73,-1,-1,75,-1,-1,77,79,81,83,85,87,-1,89,91,93,95,97,99,-1,-1,101,103,-1,-1,-1,-1,105,107,-1,-1,109,111,-1,-1,113,-1,-1,-1,115,117,-1,119,-1,121,123,125,-1,127,129,131,133,135,137,139,141,143,-1,-1,145,147,-1,-1,-1,-1,-1,-1,-1,-1,-1,-1,-1,-1,-1,-1,-1,-1,-1,-1,-1,-1,-1,-1,-1,-1,-1,-1,-1,-1,-1,-1,-1,-1,-1,-1,-1,-1,-1,-1,-1,-1,-1,-1,-1,-1,-1,-1,-1,-1],"loss_changes":[3.5103278E2,3.4774292E1,4.5522583E1,1.2572632E1,6.0655484E0,2.648908E1,1.8583176E1,2.6732407E0,1.9006805E0,1.2425349E0,2.1399641E-1,1.9688139E0,1.2062603E1,7.08095E0,8.937454E0,1.9947891E0,9.002826E-1,1.3925781E0,2.2265663E0,7.82217E-1,1.339287E0,0E0,0E0,6.527468E-1,6.970024E-1,2.9103153E0,2.4863224E0,6.677083E-1,3.8895493E0,2.029068E0,1.4389114E0,4.078315E-1,1.2944794E0,2.3845327E-1,0E0,0E0,2.1051025E-1,4.5567703E-1,2.4602772E-1,4.2454696E-1,1.5550324E-1,0E0,0E0,6.988342E-1,0E0,0E0,3.6591434E-1,1.2398576E0,6.7040586E-1,6.9109535E-1,1.7938356E0,2.3347023E-1,0E0,1.249249E0,7.3319054E-1,4.3515968E-1,7.0773315E-1,4.551349E-1,9.9471855E-1,0E0,0E0,1.1170425E0,1.9128246E0,0E0,0E0,0E0,0E0,3.9437103E-1,1.4046311E-1,0E0,0E0,1.1040818E-1,1.4105725E-1,0E0,0E0,7.2559595E-1,0E0,0E0,0E0,7.0416635E-1,7.038193E-1,0E0,6.916753E-1,0E0,6.587372E-1,6.021197E-1,1.6094084E0,0E0,1.0275227E-1,7.048416E-1,1.06668025E-1,6.4169407E-1,4.3608594E-1,4.7240067E-1,1.1451626E-1,7.259064E-1,3.2925797E-1,0E0,0E0,4.612522E-1,2.624716E-1,0E0,0E0,0E0,0E0,0E0,0E0,0E0,0E0,0E0,0E0,0E0,0E0,0E0,0E0,0E0,0E0,0E0,0E0,0E0,0E0,0E0,0E0,0E0,0E0,0E0,0E0,0E0,0E0,0E0,0E0,0E0,0E0,0E0,0E0,0E0,0E0,0E0,0E0,0E0,0E0,0E0,0E0,0E0,0E0,0E0,0E0,0E0,0E0],"parents":[2147483647,0,0,1,1,2,2,3,3,4,4,5,5,6,6,7,7,8,8,9,9,10,10,11,11,12,12,13,13,14,14,15,15,16,16,17,17,18,18,19,19,20,20,23,23,24,24,25,25,26,26,27,27,28,28,29,29,30,30,31,31,32,32,33,33,36,36,37,37,38,38,39,39,40,40,43,43,46,46,47,47,48,48,49,49,50,50,51,51,53,53,54,54,55,55,56,56,57,57,58,58,61,61,62,62,67,67,68,68,71,71,72,72,75,75,79,79,80,80,82,82,84,84,85,85,86,86,88,88,89,89,90,90,91,91,92,92,93,93,94,94,95,95,96,96,99,99,100,100],"right_children":[2,4,6,8,10,12,14,16,18,20,22,24,26,28,30,32,34,36,38,40,42,-1,-1,44,46,48,50,52,54,56,58,60,62,64,-1,-1,66,68,70,72,74,-1,-1,76,-1,-1,78,80,82,84,86,88,-1,90,92,94,96,98,100,-1,-1,102,104,-1,-1,-1,-1,106,108,-1,-1,110,112,-1,-1,114,-1,-1,-1,116,118,-1,120,-1,122,124,126,-1,128,130,132,134,136,138,140,142,144,-1,-1,146,148,-1,-1,-1,-1,-1,-1,-1,-1,-1,-1,-1,-1,-1,-1,-1,-1,-1,-1,-1,-1,-1,-1,-1,-1,-1,-1,-1,-1,-1,-1,-1,-1,-1,-1,-1,-1,-1,-1,-1,-1,-1,-1,-1,-1,-1,-1,-1,-1],"split_conditions":[-5.755853E-1,6.575452E-2,2.167165E-1,5.5846244E-1,-1.9882713E-1,6.757091E-2,-5.351842E-1,1.007025E0,6.4877105E-1,6.662434E-2,-1.1678518E0,-9.1411635E-2,-6.110499E-1,6.86903E-1,-8.9947164E-2,-1.6070004E0,7.58619E-1,-9.4722843E-1,-1.1649073E0,5.6505525E-1,-9.252791E-1,1.4830372E-2,3.6660153E-2,1.2657939E0,4.777744E-2,3.985433E-1,-3.490785E-2,1.0008931E0,1.2161092E0,-1.0625592E0,-1.557274E0,-1.2095529E-1,-6.90668E-1,-7.2944136E-3,2.7904909E-3,-4.9218763E-2,-9.4312525E-1,-8.6940503E-1,9.857577E-2,-9.9909955E-1,6.436128E-2,5.297202E-3,-2.5209058E-2,9.049776E-1,7.6817735E-3,-1.2933232E-2,9.419827E-2,-2.88149E-1,-1.4123391E0,-4.3959966E-1,-8.649785E-2,-1.617827E0,-2.7180046E-2,4.3679637E-1,-8.82629E-1,2.1749763E-1,1.8053137E-1,-1.0552176E-1,1.2570922E0,-1.5697148E-2,4.6865703E-3,-1.3641009E0,-3.8576253E-2,-6.1050374E-3,-2.6947245E-2,-1.3194996E-2,-3.7543524E-2,-1.6752303E0,5.007277E-1,-0E0,-1.571859E-2,-9.882549E-1,8.368291E-3,1.4507082E-2,2.9342578E-4,2.1426068E-1,-4.5359423E-4,-3.3855688E-2,-1.1283237E-2,7.108779E-1,7.376539E-1,-2.0355593E-2,4.9924794E-1,5.1178057E-3,4.805621E-1,8.451696E-1,6.7921144E-1,2.4505116E-3,-3.9991555E-1,-1.4911677E0,-1.030096E0,1.6684636E0,-9.868237E-1,-1.4450728E0,4.8337576E-1,2.0365026E-2,2.8043404E-1,9.950586E-3,-8.511451E-3,-2.0932284E-1,-1.9200888E-1,-4.0630303E-2,-2.908656E-2,-2.7714059E-2,8.3400024E-4,-1.5208028E-2,-4.5966413E-2,-1.4307848E-2,-3.3125352E-2,