{"learner":{"attributes":{},"feature_names":[],"feature_types":[],"gradient_booster":{"model":{"cats":{"enc":[],"feature_segments":[],"sorted_idx":[]},"gbtree_model_param":{"num_parallel_tree":"1","num_trees":"200"},"iteration_indptr":[0,1,2,3,4,5,6,7,8,9,10,11,12,13,14,15,16,17,18,19,20,21,22,23,24,25,26,27,28,29,30,31,32,33,34,35,36,37,38,39,40,41,42,43,44,45,46,47,48,49,50,51,52,53,54,55,56,57,58,59,60,61,62,63,64,65,66,67,68,69,70,71,72,73,74,75,76,77,78,79,80,81,82,83,84,85,86,87,88,89,90,91,92,93,94,95,96,97,98,99,100,101,102,103,104,105,106,107,108,109,110,111,112,113,114,115,116,117,118,119,120,121,122,123,124,125,126,127,128,129,130,131,132,133,134,135,136,137,138,139,140,141,142,143,144,145,146,147,148,149,150,151,152,153,154,155,156,157,158,159,160,161,162,163,164,165,166,167,168,169,170,171,172,173,174,175,176,177,178,179,180,181,182,183,184,185,186,187,188,189,190,191,192,193,194,195,196,197,198,199,200],"tree_info":[0,0,0,0,0,0,0,0,0,0,0,0,0,0,0,0,0,0,0,0,0,0,0,0,0,0,0,0,0,0,0,0,0,0,0,0,0,0,0,0,0,0,0,0,0,0,0,0,0,0,0,0,0,0,0,0,0,0,0,0,0,0,0,0,0,0,0,0,0,0,0,0,0,0,0,0,0,0,0,0,0,0,0,0,0,0,0,0,0,0,0,0,0,0,0,0,0,0,0,0,0,0,0,0,0,0,0,0,0,0,0,0,0,0,0,0,0,0,0,0,0,0,0,0,0,0,0,0,0,0,0,0,0,0,0,0,0,0,0,0,0,0,0,0,0,0,0,0,0,0,0,0,0,0,0,0,0,0,0,0,0,0,0,0,0,0,0,0,0,0,0,0,0,0,0,0,0,0,0,0,0,0,0,0,0,0,0,0,0,0,0,0,0,0,0,0,0,0,0,0],"trees":[{"base_weights":[-2.2708716E-4,-6.806301E-2,4.588953E-1,-7.064386E-1,6.6058177E-1,-4.621711E-2,-1.4183327E-2,8.399637E-1,2.6178735E-1,5.4880035E-1,1.0447721E0,-1.474642E-2,3.908546E-1,8.352379E-3,3.0367387E-2,6.531378E-2,3.3959925E-2,2.6598653E-2,-3.000316E-4],"categories":[],"categories_nodes":[],"categories_segments":[],"categories_sizes":[],"default_left":[0,0,0,0,0,0,0,0,0,0,0,0,0,0,0,0,0,0,0],"id":0,"left_children":[1,-1,3,5,7,-1,-1,9,11,13,15,-1,17,-1,-1,-1,-1,-1,-1],"loss_changes":[5.445466E1,0E0,1.5739161E1,5.3822947E-1,3.6759777E0,0E0,0E0,1.5333138E0,1.4900881E0,2.2341537E-1,9.2180634E-1,0E0,9.518471E-1,0E0,0E0,0E0,0E0,0E0,0E0],"parents":[2147483647,0,0,2,2,3,3,4,4,7,7,8,8,9,9,10,10,12,12],"right_children":[2,-1,4,6,8,-1,-1,10,12,14,16,-1,18,-1,-1,-1,-1,-1,-1],"split_conditions":[-9.003036E-1,-6.806301E-2,-1.198039E0,1.1403254E-1,-4.495385E-1,-4.621711E-2,-1.4183327E-2,-1.8473592E-1,-5.045221E-1,1.042436E0,8.733804E-1,-1.474642E-2,1.4048963E0,8.352379E-3,3.0367387E-2,6.531378E-2,3.3959925E-2,2.6598653E-2,-3.000316E-4],"split_indices":[0,0,5,0,7,0,0,5,4,0,5,0,5,0,0,0,0,0,0],"split_type":[0,0,0,0,0,0,0,0,0,0,0,0,0,0,0,0,0,0,0],"sum_hessian":[8.5E1,2.1E1,6.4E1,9E0,5.5E1,5E0,4E0,3.7E1,1.8E1,1.7E1,2E1,3E0,1.5E1,3E0,1.4E1,1E1,1E1,1.1E1,4E0],"tree_param":{"num_deleted":"0","num_feature":"10","num_nodes":"19","size_leaf_vector":"1"}},{"base_weights":[-0E0,-9.835989E-1,6.7014587E-1,-1.0851058E0,-4.2277133E-1,1.5793873E-2,7.5940424E-1,-6.0818143E-2,-2.9620899E-2,-6.733884E-3,-2.900861E-2,4.679114E-2,2.794317E-2],"categories":[],"categories_nodes":[],"categories_segments":[],"categories_sizes":[],"default_left":[0,0,0,0,0,0,0,0,0,0,0,0,0],"id":1,"left_children":[1,3,5,7,9,-1,11,-1,-1,-1,-1,-1,-1],"loss_changes":[5.534864E1,1.3260078E0,1.2336636E0,9.0925217E-1,1.678021E-1,0E0,7.0731926E-1,0E0,0E0,0E0,0E0,0E0,0E0],"parents":[2147483647,0,0,1,1,2,2,3,3,4,4,6,6],"right_children":[2,4,6,8,10,-1,12,-1,-1,-1,-1,-1,-1],"split_conditions":[-4.5615238E-1,-2.3818004E-1,-5.8701053E-2,6.398151E-1,-1.689226E-1,1.5793873E-2,3.4662253E-1,-6.0818143E-2,-2.9620899E-2,-6.733884E-3,-2.900861E-2,4.679114E-2,2.794317E-2],"split_indices":[3,0,3,5,2,0,9,0,0,0,0,0,0],"split_type":[0,0,0,0,0,0,0,0,0,0,0,0,0],"sum_hessian":[8.2E1,3.3E1,4.9E1,2.7E1,6E0,1.1E1,3.8E1,2E1,7E0,3E0,3E0,1.8E1,2E1],"tree_param":{"num_deleted":"0","num_feature":"10","num_nodes":"13","size_leaf_vector":"1"}},{"base_weights":[6.6354446E-2,-8.632467E-1,5.9561086E-1,-5.1685512E-2,-3.5847092E-1,6.87577E-1,3.223871E-1,-2.3140451E-2,-4.3673026E-3,1.670288E-2,7.8570616E-1,4.097813E-1,-0E0,4.1225884E-2,1.6085384E-2,5.6642103E-3,2.4245773E-2],"categories":[],"categories_nodes":[],"categories_segments":[],"categories_sizes":[],"default_left":[0,0,0,0,0,0,0,0,0,0,0,0,0,0,0,0,0],"id":2,"left_children":[1,3,5,-1,7,9,11,-1,-1,-1,13,15,-1,-1,-1,-1,-1],"loss_changes":[3.9355186E1,1.9855576E0,9.588299E-1,0E0,1.5915775E-1,9.091034E-1,4.5604706E-1,0E0,0E0,0E0,1.2436104E-1,1.525712E-1,0E0,0E0,0E0,0E0,0E0],"parents":[2147483647,0,0,1,1,2,2,4,4,5,5,6,6,10,10,11,11],"right_children":[2,4,6,-1,8,10,12,-1,-1,-1,14,16,-1,-1,-1,-1,-1],"split_conditions":[-4.5615238E-1,-7.085036E-1,-4.495385E-1,-5.1685512E-2,-1.1487685E0,-5.8701053E-2,1.4024643E0,-2.3140451E-2,-4.3673026E-3,1.670288E-2,2.4066122E0,-2.8303469E-2,-0E0,4.1225884E-2,1.6085384E-2,5.6642103E-3,2.4245773E-2],"split_indices":[3,3,7,0,0,3,5,0,0,0,2,3,0,0,0,0,0],"split_type":[0,0,0,0,0,0,0,0,0,0,0,0,0,0,0,0,0],"sum_hessian":[7.8E1,2.8E1,5E1,2E1,8E0,3.6E1,1.4E1,5E0,3E0,9E0,2.7E1,1.1E1,3E0,2.4E1,3E0,3E0,8E0],"tree_param":{"num_deleted":"0","num_feature":"10","num_nodes":"17","size_leaf_vector":"1"}},{"base_weights":[-7.293083E-4,-9.333267E-1,6.136784E-1,-1.0447967E0,-8.329955E-3,7.081776E-1,2.3893662E-1,-5.8299568E-2,-6.515693E-1,1.5420637E-2,8.137434E-1,4.1646805E-2,1.9390346E-2,-9.20647E-3,-4.0565543E-2,9.6881306E-1,2.9790116E-2,9.028054E-3,-4.1339584E-3,1.058152E0,1.8329456E-2,2.3560379E-2,5.7864368E-2],"categories":[],"categories_nodes":[],"categories_segments":[],"categories_sizes":[],"default_left":[0,0,0,0,0,0,0,0,0,0,0,0,0,0,0,0,0,0,0,0,0,0,0],"id":3,"left_children":[1,3,5,7,-1,9,11,-1,13,-1,15,17,-1,-1,-1,19,-1,-1,-1,21,-1,-1,-1],"loss_changes":[5.332027E1,2.8670807E0,1.7191963E0,5.835457E-1,0E0,1.493681E0,3.2272142E-1,0E0,4.9776554E-1,0E0,4.153862E-1,1.4561139E-1,0E0,0E0,0E0,4.3805313E-1,0E0,0E0,0E0,1.646328E-1,0E0,0E0,0E0],"parents":[2147483647,0,0,1,1,2,2,3,3,5,5,6,6,8,8,10,10,11,11,15,15,19,19],"right_children":[2,4,6,8,-1,10,12,-1,14,-1,16,18,-1,-1,-1,20,-1,-1,-1,22,-1,-1,-1],"split_conditions":[-4.5615238E-1,1.9217163E-2,7.3506415E-1,-7.3341084E-1,-8.329955E-3,-5.8701053E-2,9.518837E-2,-5.8299568E-2,-1.3113719E0,1.5420637E-2,3.4662253E-1,-5.8305913E-1,1.9390346E-2,-9.20647E-3,-4.0565543E-2,1.263717E0,2.9790116E-2,9.028054E-3,-4.1339584E-3,-2.4100572E-1,1.8329456E-2,2.3560379E-2,5.7864368E-2],"split_indices":[3,0,6,3,0,3,0,0,0,0,9,2,0,0,0,1,0,0,0,0,0,0,0],"split_type":[0,0,0,0,0,0,0,0,0,0,0,0,0,0,0,0,0,0,0,0,0,0,0],"sum_hessian":[9.1E1,3.6E1,5.5E1,3.1E1,5E0,4.3E1,1.2E1,2.2E1,9E0,1E1,3.3E1,6E0,6E0,3E0,6E0,1.7E1,1.6E1,3E0,3E0,1.4E1,3E0,3E0,1.1E1],"tree_param":{"num_deleted":"0","num_feature":"10","num_nodes":"23","size_leaf_vector":"1"}},{"base_weights":[-1.2890206E-2,-8.737718E-1,4.9285945E-1,-1.0559336E0,-3.3920616E-1,-1.9921465E-2,6.097827E-1,-1.8907258E-2,-5.649959E-2,-0E0,-2.4593016E-2,6.640487E-1,-7.76441E-3,8.7617034E-1,4.9872592E-1,2.541149E-2,5.4423492E-2,7.843389E-3,5.431485E-1,1.4949538E-2,6.345762E-1,1.4808691E-2,3.5411257E-2],"categories":[],"categories_nodes":[],"categories_segments":[],"categories_sizes":[],"default_left":[0,0,0,0,0,0,0,0,0,0,0,0,0,0,0,0,0,0,0,0,0,0,0],"id":4,"left_children":[1,3,5,7,9,-1,11,-1,-1,-1,-1,13,-1,15,17,-1,-1,-1,19,-1,21,-1,-1],"loss_changes":[3.8783108E1,2.715765E0,6.0999823E0,6.265831E-1,5.428779E-1,0E0,2.2298622E0,0E0,0E0,0E0,0E0,1.073761E0,0E0,7.7129745E-1,2.851963E-1,0E0,0E0,0E0,2.7498007E-1,0E0,1.13492966E-1,0E0,0E0],"parents":[2147483647,0,0,1,1,2,2,3,3,4,4,6,6,11,11,13,13,14,14,18,18,20,20],"right_children":[2,4,6,8,10,-1,12,-1,-1,-1,-1,14,-1,16,18,-1,-1,-1,20,-1,22,-1,-1],"split_conditions":[-5.673442E-1,6.398151E-1,-1.198039E0,-9.7603464E-1,2.9038575E-1,-1.9921465E-2,8.6423576E-1,-1.8907258E-2,-5.649959E-2,-0E0,-2.4593016E-2,-6.151942E-1,-7.76441E-3,-3.7164292E-1,-9.252791E-1,2.541149E-2,5.4423492E-2,7.843389E-3,9.518837E-2,1.4949538E-2,-8.25887E-1,1.4808691E-2,3.5411257E-2],"split_indices":[4,5,5,6,6,0,7,0,0,0,0,6,0,5,8,0,0,0,0,0,5,0,0],"split_type":[0,0,0,0,0,0,0,0,0,0,0,0,0,0,0,0,0,0,0,0,0,0,0],"sum_hessian":[8.7E1,3.2E1,5.5E1,2.3E1,9E0,6E0,4.9E1,3E0,2E1,3E0,6E0,4.6E1,3E0,1.8E1,2.8E1,8E0,1E1,4E0,2.4E1,8E0,1.6E1,4E0,1.2E1],"tree_param":{"num_deleted":"0","num_feature":"10","num_nodes":"23","size_leaf_vector":"1"}},{"base_weights":[-1.8141296E-2,-7.9966533E-1,5.592495E-1,-9.193764E-1,-2.7406323E-1,7.305732E-1,3.4280196E-1,-5.307431E-2,-5.424861E-1,-2.4289405E-2,4.351993E-3,1.5671022E-2,8.976209E-1,4.0409195E-1,-0E0,-6.706214E-3,-3.3317816E-2,1.822598E-2,4.821865E-2,5.8155945E-3,2.2801287E-2],"categories":[],"categories_nodes":[],"categories_segments":[],"categories_sizes":[],"default_left":[0,0,0,0,0,0,0,0,0,0,0,0,0,0,0,0,0,0,0,0,0],"id":5,"left_children":[1,3,5,7,9,11,13,-1,15,-1,-1,-1,17,19,-1,-1,-1,-1,-1,-1,-1],"loss_changes":[4.2437023E1,2.145504E0,1.64468E0,9.776745E-1,7.702482E-1,1.618413E0,5.370443E-1,0E0,3.8699985E-1,0E0,0E0,0E0,2.272911E-1,2.1852636E-1,0E0,0E0,0E0,0E0,0E0,0E0,0E0],"parents":[2147483647,0,0,1,1,2,2,3,3,4,4,5,5,6,6,8,8,12,12,13,13],"right_children":[2,4,6,8,10,12,14,-1,16,-1,-1,-1,18,20,-1,-1,-1,-1,-1,-1,-1],"split_conditions":[-4.5615238E-1,-2.7946696E-1,-9.77342E-2,6.398151E-1,-1.198039E0,-6.4396733E-1,1.5394593E0,-5.307431E-2,-1.1792327E0,-2.4289405E-2,4.351993E-3,1.5671022E-2,-2.4100572E-1,-2.8303469E-2,-0E0,-6.706214E-3,-3.3317816E-2,1.822598E-2,4.821865E-2,5.8155945E-3,2.2801287E-2],"split_indices":[3,0,6,5,5,5,5,0,4,0,0,0,0,3,0,0,0,0,0,0,0],"split_type":[0,0,0,0,0,0,0,0,0,0,0,0,0,0,0,0,0,0,0,0,0],"sum_hessian":[9.2E1,3.9E1,5.3E1,3.1E1,8E0,2.8E1,2.5E1,2.1E1,1E1,5E0,3E0,9E0,1.9E1,2.1E1,4E0,3E0,7E0,3E0,1.6E1,4E0,1.7E1],"tree_param":{"num_deleted":"0","num_feature":"10","num_nodes":"21","size_leaf_vector":"1"}},{"base_weights":[-2.3352673E-2,-7.535226E-1,5.1153445E-1,-8.462738E-1,-6.6027106E-3,1.2923449E-2,5.7535684E-1,-4.919311E-2,-4.4895205E-1,6.214563E-1,6.340454E-3,-6.7635463E-3,-3.094305E-2,2.1036854E-2,3.6045704E-2],"categories":[],"categories_nodes":[],"categories_segments":[],"categories_sizes":[],"default_left":[0,0,0,0,0,0,0,0,0,0,0,0,0,0,0],"id":6,"left_children":[1,3,5,7,-1,-1,9,-1,11,13,-1,-1,-1,-1,-1],"loss_changes":[3.3216564E1,1.8655224E0,5.593157E-1,1.109684E0,0E0,0E0,6.3212395E-1,0E0,3.738451E-1,2.612648E-1,0E0,0E0,0E0,0E0,0E0],"parents":[2147483647,0,0,1,1,2,2,3,3,6,6,8,8,9,9],"right_children":[2,4,6,8,-1,-1,10,-1,12,14,-1,-1,-1,-1,-1],"split_conditions":[-4.5615238E-1,1.9217163E-2,-1.6305938E-2,6.398151E-1,-6.6027106E-3,1.2923449E-2,1.4024643E0,-4.919311E-2,-9.1050714E-1,-4.1003507E-1,6.340454E-3,-6.7635463E-3,-3.094305E-2,2.1036854E-2,3.6045704E-2],"split_indices":[3,0,3,5,0,0,5,0,2,5,0,0,0,0,0],"split_type":[0,0,0,0,0,0,0,0,0,0,0,0,0,0,0],"sum_hessian":[8.3E1,3.5E1,4.8E1,3E1,5E0,1.1E1,3.7E1,2.1E1,9E0,3.3E1,4E0,4E0,5E0,1.3E1,2E1],"tree_param":{"num_deleted":"0","num_feature":"10","num_nodes":"15","size_leaf_vector":"1"}},{"base_weights":[-6.313546E-2,-7.57675E-1,4.9167693E-1,-8.912901E-1,-2.466862E-1,6.456912E-1,2.4167365E-1,-5.0620623E-2,-5.620286E-1,-2.2647316E-2,4.9687745E-3,1.6312426E-2,4.1933376E-2,3.17124E-1,-4.77731E-3,-6.9852383E-3,-3.5439048E-2,5.134366E-3,1.8585615E-2],"categories":[],"categories_nodes":[],"categories_segments":[],"categories_sizes":[],"default_left":[0,0,0,0,0,0,0,0,0,0,0,0,0,0,0,0,0,0,0],"id":7,"left_children":[1,3,5,7,9,11,13,-1,15,-1,-1,-1,-1,17,-1,-1,-1,-1,-1],"loss_changes":[3.122626E1,2.1242638E0,1.4879007E0,3.9021873E-1,7.227772E-1,1.2743063E0,5.358815E-1,0E0,4.3590164E-1,0E0,0E0,0E0,0E0,1.0168171E-1,0E0,0E0,0E0,0E0,0E0],"parents":[2147483647,0,0,1,1,2,2,3,3,4,4,5,5,6,6,8,8,13,13],"right_children":[2,4,6,8,10,12,14,-1,16,-1,-1,-1,-1,18,-1,-1,-1,-1,-1],"split_conditions":[-5.411502E-1,-2.3818004E-1,-5.7243776E-1,-7.701749E-1,-1.198039E0,-4.1003507E-1,1.4048963E0,-5.0620623E-2,-1.3119606E0,-2.2647316E-2,4.9687745E-3,1.6312426E-2,4.1933376E-2,2.1976061E-1,-4.77731E-3,-6.9852383E-3,-3.5439048E-2,5.134366E-3,1.8585615E-2],"split_indices":[3,0,7,3,5,5,5,0,0,0,0,0,0,3,0,0,0,0,0],"split_type":[0,0,0,0,0,0,0,0,0,0,0,0,0,0,0,0,0,0,0],"sum_hessian":[7.9E1,3.5E1,4.4E1,2.7E1,8E0,2.6E1,1.8E1,1.8E1,9E0,5E0,3E0,1.1E1,1.5E1,1.5E1,3E0,3E0,6E0,4E0,1.1E1],"tree_param":{"num_deleted":"0","num_feature":"10","num_nodes":"19","size_leaf_vector":"1"}},{"base_weights":[-3.161408E-2,-6.783159E-1,4.326435E-1,-8.2959485E-1,-2.9829165E-1,5.1326436E-1,1.1149759E-2,-4.5430865E-2,-8.128631E-3,-7.6188234E-4,-2.1270698E-2,1.02740275E-2,2.8965015E-2],"categories":[],"categories_nodes":[],"categories_segments":[],"categories_sizes":[],"default_left":[0,0,0,0,0,0,0,0,0,0,0,0,0],"id":8,"left_children":[1,3,5,7,9,11,-1,-1,-1,-1,-1,-1,-1],"loss_changes":[2.5838116E1,1.7093773E0,6.5701866E-1,1.0629082E0,3.812424E-1,5.13855E-1,0E0,0E0,0E0,0E0,0E0,0E0,0E0],"parents":[2147483647,0,0,1,1,2,2,3,3,4,4,5,5],"right_children":[2,4,6,8,10,12,-1,-1,-1,-1,-1,-1,-1],"split_conditions":[-4.5615238E-1,-7.3341084E-1,-4.495385E-1,-2.3818004E-1,-5.269257E-1,-5.8701053E-2,1.1149759E-2,-4.5430865E-2,-8.128631E-3,-7.6188234E-4,-2.1270698E-2,1.02740275E-2,2.8965015E-2],"split_indices":[3,3,7,0,9,3,0,0,0,0,0,0,0],"split_type":[0,0,0,0,0,0,0,0,0,0,0,0,0],"sum_hessian":[8.4E1,3.5E1,4.9E1,2.4E1,1.1E1,3.4E1,1.5E1,2.1E1,3E0,4E0,7E0,7E0,2.7E1],"tree_param":{"num_deleted":"0","num_feature":"10","num_nodes":"13","size_leaf_vector":"1"}},{"base_weights":[-3.4507245E-3,-6.810477E-1,4.7158882E-1,-7.460496E-1,-4.141263E-3,5.5744326E-1,2.2659433E-1,-4.3478105E-2,-4.7194773E-1,1.1238035E-2,6.3282067E-1,2.979618E-1,-0E0,-7.4636894E-3,-2.9383063E-2,7.2288185E-1,1.9713283E-2,4.183294E-3,2.1239618E-2,2.049793E-2,4.2145897E-2],"categories":[],"categories_nodes":[],"categories_segments":[],"categories_sizes":[],"default_left":[0,0,0,0,0,0,0,0,0,0,0,0,0,0,0,0,0,0,0,0,0],"id":9,"left_children":[1,3,5,7,-1,9,11,-1,13,-1,15,17,-1,-1,-1,19,-1,-1,-1,-1,-1],"loss_changes":[2.963369E1,1.3329716E0,9.3111134E-1,6.0653496E-1,0E0,7.500019E-1,2.43855E-1,0E0,3.239746E-1,0E0,2.692995E-1,2.3976481E-1,0E0,0E0,0E0,3.1795406E-1,0E0,0E0,0E0,0E0,0E0],"parents":[2147483647,0,0,1,1,2,2,3,3,5,5,6,6,8,8,10,10,11,11,15,15],"right_children":[2,4,6,8,-1,10,12,-1,14,-1,16,18,-1,-1,-1,20,-1,-1,-1,-1,-1],"split_conditions":[-4.5615238E-1,1.1403254E-1,-4.495385E-1,-7.3341084E-1,-4.141263E-3,-1.6305938E-2,6.436427E-1,-4.3478105E-2,-1.3113719E0,1.1238035E-2,1.263717E0,-3.6063987E-1,-0E0,-7.4636894E-3,-2.9383063E-2,6.510526E-1,1.9713283E-2,4.183294E-3,2.1239618E-2,2.049793E-2,4.2145897E-2],"split_indices":[3,0,7,3,0,3,3,0,0,0,1,0,0,0,0,0,0,0,0,0,0],"split_type":[0,0,0,0,0,0,0,0,0,0,0,0,0,0,0,0,0,0,0,0,0],"sum_hessian":[9E1,3.7E1,5.3E1,3.3E1,4E0,3.8E1,1.5E1,2.1E1,1.2E1,8E0,3E1,1.1E1,4E0,4E0,8E0,2E1,1E1,5E0,6E0,7E0,1.3E1],"tree_param":{"num_deleted":"0","num_feature":"10","num_nodes":"21","size_leaf_vector":"1"}},{"base_weights":[5.9892256E-3,-6.237717E-1,4.385276E-1,-7.196618E-1,-2.130647E-1,5.9007925E-1,2.6840606E-1,-4.0274825E-2,-2.0461649E-2,-2.0723607E-2,5.8656307E-3,1.1780227E-2,7.3281264E-1,1.3732979E-1,2.1715997E-2,4.711024E-2,2.6994674E-2,9.513546E-3,-9.185653E-4],"categories":[],"categories_nodes":[],"categories_segments":[],"categories_sizes":[],"default_left":[0,0,0,0,0,0,0,0,0,0,0,0,0,0,0,0,0,0,0],"id":10,"left_children":[1,3,5,7,9,11,13,-1,-1,-1,-1,-1,15,17,-1,-1,-1,-1,-1],"loss_changes":[2.6132616E1,1.289319E0,1.225357E0,3.7490273E-1,6.772027E-1,1.1977701E0,5.1386404E-1,0E0,0E0,0E0,0E0,0E0,1.5101528E-1,1.6905928E-1,0E0,0E0,0E0,0E0,0E0],"parents":[2147483647,0,0,1,1,2,2,3,3,4,4,5,5,6,6,12,12,13,13],"right_children":[2,4,6,8,10,12,14,-1,-1,-1,-1,-1,16,18,-1,-1,-1,-1,-1],"split_conditions":[-4.5615238E-1,-2.3818004E-1,3.4662253E-1,4.5764944E-1,-1.198039E0,-5.8701053E-2,1.1464013E0,-4.0274825E-2,-2.0461649E-2,-2.0723607E-2,5.8656307E-3,1.1780227E-2,-8.729048E-3,9.219139E-1,2.1715997E-2,4.711024E-2,2.6994674E-2,9.513546E-3,-9.185653E-4],"split_indices":[3,0,9,5,5,3,0,0,0,0,0,0,8,6,0,0,0,0,0],"split_type":[0,0,0,0,0,0,0,0,0,0,0,0,0,0,0,0,0,0,0],"sum_hessian":[9.4E1,3.8E1,5.6E1,3E1,8E0,2.8E1,2.8E1,2.2E1,8E0,5E0,3E0,9E0,1.9E1,1.7E1,1.1E1,7E0,1.2E1,1.3E1,4E0],"tree_param":{"num_deleted":"0","num_feature":"10","num_nodes":"19","size_leaf_vector":"1"}},{"base_weights":[1.1059233E-2,-5.748461E-1,4.1125366E-1,-6.603572E-1,-2.4534045E-3,4.8735666E-1,1.7360616E-1,-3.9463233E-2,-2.7508906E-1,2.3533702E-1,5.9491265E-1,2.3322233E-3,1.4463504E-2,-6.757416E-4,-1.9347852E-2,3.540193E-3,1.5840989E-2,3.6933456E-2,2.110281E-2,6.618593E-3,-5.164523E-3],"categories":[],"categories_nodes":[],"categories_segments":[],"categories_sizes":[],"default_left":[0,0,0,0,0,0,0,0,0,0,0,0,0,0,0,0,0,0,0,0,0],"id":11,"left_children":[1,3,5,7,-1,9,11,-1,13,15,17,19,-1,-1,-1,-1,-1,-1,-1,-1,-1],"loss_changes":[1.968156E1,1.4252901E0,7.535801E-1,1.1167002E0,0E0,7.7990055E-1,2.4750814E-1,0E0,2.1807921E-1,1.1309159E-1,1.9339752E-1,1.1272684E-1,0E0,0E0,0E0,0E0,0E0,0E0,0E0,0E0,0E0],"parents":[2147483647,0,0,1,1,2,2,3,3,5,5,6,6,8,8,9,9,10,10,11,11],"right_children":[2,4,6,8,-1,10,12,-1,14,16,18,20,-1,-1,-1,-1,-1,-1,-1,-1,-1],"split_conditions":[-4.5615238E-1,1.9217163E-2,6.2392557E-1,-7.085036E-1,-2.4534045E-3,-6.4396733E-1,9.518837E-2,-3.9463233E-2,-1.229954E0,1.0033464E0,-2.8080583E-1,-4.9970883E-1,1.4463504E-2,-6.757416E-4,-1.9347852E-2,3.540193E-3,1.5840989E-2,3.6933456E-2,2.110281E-2,6.618593E-3,-5.164523E-3],"split_indices":[3,0,6,3,0,5,0,0,4,0,6,0,0,0,0,0,0,0,0,0,0],"split_type":[0,0,0,0,0,0,0,0,0,0,0,0,0,0,0,0,0,0,0,0,0],"sum_hessian":[8.2E1,3.3E1,4.9E1,2.8E1,5E0,3.6E1,1.3E1,2E1,8E0,1.2E1,2.4E1,6E0,7E0,3E0,5E0,5E0,7E0,1.1E1,1.3E1,3E0,3E0],"tree_param":{"num_deleted":"0","num_feature":"10","num_nodes":"21","size_leaf_vector":"1"}},{"base_weights":[-1.6408695E-2,-5.8457613E-1,4.4118217E-1,-6.7723584E-1,-1.9964635E-1,6.433681E-1,3.2317725E-1,-8.420974E-1,-4.7410086E-1,-1.961711E-2,5.7154517E-3,9.940132E-3,4.0913977E-2,6.389536E-3,3.7881482E-1,-4.9892154E-2,-2.127526E-2,-3.368831E-2,-1.5650077E-2,3.835005E-3,2.067799E-2],"categories":[],"categories_nodes":[],"categories_segments":[],"categories_sizes":[],"default_left":[0,0,0,0,0,0,0,0,0,0,0,0,0,0,0,0,0,0,0,0,0],"id":12,"left_children":[1,3,5,7,9,11,13,15,17,-1,-1,-1,-1,-1,19,-1,-1,-1,-1,-1,-1],"loss_changes":[2.2111254E1,1.1324682E0,8.167944E-1,4.7381592E-1,6.1713266E-1,9.797683E-1,2.4879694E-1,4.0631485E-1,2.0508885E-1,0E0,0E0,0E0,0E0,0E0,1.7118096E-1,0E0,0E0,0E0,0E0,0E0,0E0],"parents":[2147483647,0,0,1,1,2,2,3,3,4,4,5,5,6,6,7,7,8,8,14,14],"right_children":[2,4,6,8,10,12,14,16,18,-1,-1,-1,-1,-1,20,-1,-1,-1,-1,-1,-1],"split_conditions":[-5.411502E-1,-2.3818004E-1,-6.151942E-1,9.1140725E-2,-1.198039E0,-4.0505734E-1,-1.6305938E-2,-9.454978E-1,-1.2851862E0,-1.961711E-2,5.7154517E-3,9.940132E-3,4.0913977E-2,6.389536E-3,-9.252791E-1,-4.9892154E-2,-2.127526E-2,-3.368831E-2,-1.5650077E-2,3.835005E-3,2.067799E-2],"split_indices":[3,0,6,5,5,5,3,0,1,0,0,0,0,0,8,0,0,0,0,0,0],"split_type":[0,0,0,0,0,0,0,0,0,0,0,0,0,0,0,0,0,0,0,0,0],"sum_hessian":[8.3E1,3.7E1,4.6E1,2.9E1,8E0,1.5E1,3.1E1,1.4E1,1.5E1,5E0,3E0,5E0,1E1,8E0,2.3E1,9E0,5E0,5E0,1E1,3E0,2E1],"tree_param":{"num_deleted":"0","num_feature":"10","num_nodes":"21","size_leaf_vector":"1"}},{"base_weights":[-5.1925365E-2,-5.614486E-1,3.9152944E-1,-6.2890786E-1,-1.2965918E-1,4.9196145E-1,1.1251384E-1,-2.3445484E-1,-6.9898593E-1,-1.5184368E-2,2.5891908E-3,9.853858E-3,5.4454106E-1,1.05487155E-2,-0E0,-1.8671496E-2,-5.9330364E-4,-4.007296E-2,-4.78694E-1,4.008075E-2,2.0795787E-2,5.5807587E-3,-5.7462784E-3,-8.27057E-3,-3.0107943E-2],"categories":[],"categories_nodes":[],"categories_segments":[],"categories_sizes":[],"default_left":[0,0,0,0,0,0,0,0,0,0,0,0,0,0,0,0,0,0,0,0,0,0,0,0,0],"id":13,"left_children":[1,3,5,7,9,11,13,15,17,-1,-1,-1,19,-1,21,-1,-1,-1,23,-1,-1,-1,-1,-1,-1],"loss_changes":[1.9894508E1,1.0368567E0,1.2012386E0,7.102642E-1,2.619498E-1,3.4568787E-1,1.3434E-1,1.7357925E-1,1.4297676E-1,0E0,0E0,0E0,4.7069645E-1,0E0,1.15121275E-1,0E0,0E0,0E0,2.8779173E-1,0E0,0E0,0E0,0E0,0E0,0E0],"parents":[2147483647,0,0,1,1,2,2,3,3,4,4,5,5,6,6,7,7,8,8,12,12,14,14,18,18],"right_children":[2,4,6,8,10,12,14,16,18,-1,-1,-1,20,-1,22,-1,-1,-1,24,-1,-1,-1,-1,-1,-1],"split_conditions":[-4.5615238E-1,1.9217163E-2,-4.495385E-1,-6.9082415E-1,-3.5207713E-1,-2.1205963E-1,6.9320273E-1,-7.648723E-1,-7.701749E-1,-1.5184368E-2,2.5891908E-3,9.853858E-3,1.1819877E-1,1.05487155E-2,4.3076545E-1,-1.8671496E-2,-5.9330364E-4,-4.007296E-2,-9.1050714E-1,4.008075E-2,2.0795787E-2,5.5807587E-3,-5.7462784E-3,-8.27057E-3,-3.0107943E-2],"split_indices":[3,0,7,6,7,3,6,3,3,0,0,0,3,0,3,0,0,0,2,0,0,0,0,0,0],"split_type":[0,0,0,0,0,0,0,0,0,0,0,0,0,0,0,0,0,0,0,0,0,0,0,0,0],"sum_hessian":[8.6E1,4E1,4.6E1,3.4E1,6E0,3.3E1,1.3E1,6E0,2.8E1,3E0,3E0,6E0,2.7E1,6E0,7E0,3E0,3E0,1.7E1,1.1E1,7E0,2E1,4E0,3E0,4E0,7E0],"tree_param":{"num_deleted":"0","num_feature":"10","num_nodes":"25","size_leaf_vector":"1"}},{"base_weights":[1.3790046E-2,-5.3820515E-1,3.6393106E-1,-5.9836215E-1,-1.8921745E-1,5.0369865E-1,2.1801692E-1,-1.3360808E-2,-6.4990264E-1,-4.767447E-4,-1.4829782E-2,1.0581145E-2,5.8621806E-1,3.0208364E-1,1.8128867E-3,-3.6043536E-2,-1.7507315E-2,1.068361E-2,3.154414E-2,2.0428752E-3,1.6994832E-2],"categories":[],"categories_nodes":[],"categories_segments":[],"categories_sizes":[],"default_left":[0,0,0,0,0,0,0,0,0,0,0,0,0,0,0,0,0,0,0,0,0],"id":14,"left_children":[1,3,5,7,9,11,13,-1,15,-1,-1,-1,17,19,-1,-1,-1,-1,-1,-1,-1],"loss_changes":[1.7959848E1,5.6380653E-1,9.8047495E-1,2.4664783E-1,1.0161683E-1,4.7101212E-1,4.1360986E-1,0E0,1.723156E-1,0E0,0E0,0E0,1.3017607E-1,1.4559221E-1,0E0,0E0,0E0,0E0,0E0,0E0,0E0],"parents":[2147483647,0,0,1,1,2,2,3,3,4,4,5,5,6,6,8,8,12,12,13,13],"right_children":[2,4,6,8,10,12,14,-1,16,-1,-1,-1,18,20,-1,-1,-1,-1,-1,-1,-1],"split_conditions":[-4.5615238E-1,-2.3818004E-1,3.4662253E-1,-6.9082415E-1,-1.2940669E0,-5.8701053E-2,7.10862E-1,-1.3360808E-2,-7.680513E-1,-4.767447E-4,-1.4829782E-2,1.0581145E-2,-6.347207E-1,-1.6305938E-2,1.8128867E-3,-3.6043536E-2,-1.7507315E-2,1.068361E-2,3.154414E-2,2.0428752E-3,1.6994832E-2],"split_indices":[3,0,9,6,9,3,6,0,4,0,0,0,2,3,0,0,0,0,0,0,0],"split_type":[0,0,0,0,0,0,0,0,0,0,0,0,0,0,0,0,0,0,0,0,0],"sum_hessian":[9.1E1,3.5E1,5.6E1,2.9E1,6E0,2.7E1,2.9E1,5E0,2.4E1,3E0,3E0,7E0,2E1,1.9E1,1E1,1.8E1,6E0,3E0,1.7E1,3E0,1.6E1],"tree_param":{"num_deleted":"0","num_feature":"10","num_nodes":"21","size_leaf_vector":"1"}},{"base_weights":[5.476412E-3,-5.312468E-1,3.7887177E-1,-4.3186035E-2,-4.177627E-1,4.533963E-1,1.5815149E-1,-4.6780294E-1,-0E0,2.548151E-1,5.9725654E-1,1.0688693E-2,-1.1626756E-3,-1.2813056E-2,-6.519401E-1,1.159308E-3,1.5609789E-2,3.780203E-2,1.8754277E-2,-1.3291328E-2,-3.6559578E-2],"categories":[],"categories_nodes":[],"categories_segments":[],"categories_sizes":[],"default_left":[0,0,0,0,0,0,0,0,0,0,0,0,0,0,0,0,0,0,0,0,0],"id":15,"left_children":[1,3,5,-1,7,9,11,13,-1,15,17,-1,-1,-1,19,-1,-1,-1,-1,-1,-1],"loss_changes":[1.76217E1,8.6931896E-1,7.224922E-1,0E0,6.2858534E-1,8.481841E-1,1.7537564E-1,7.548833E-1,0E0,1.9846165E-1,3.4412956E-1,0E0,0E0,0E0,1.0372877E-1,0E0,0E0,0E0,0E0,0E0,0E0],"parents":[2147483647,0,0,1,1,2,2,4,4,5,5,6,6,7,7,9,9,10,10,14,14],"right_children":[2,4,6,-1,8,10,12,14,-1,16,18,-1,-1,-1,20,-1,-1,-1,-1,-1,-1],"split_conditions":[-4.5615238E-1,-1.3390424E0,-4.6726057E-1,-4.3186035E-2,-6.8680876E-1,-3.7164292E-1,1.4048963E0,3.4287897E-1,-0E0,1.0033464E0,5.817187E-1,1.0688693E-2,-1.1626756E-3,-1.2813056E-2,-4.807302E-1,1.159308E-3,1.5609789E-2,3.780203E-2,1.8754277E-2,-1.3291328E-2,-3.6559578E-2],"split_indices":[3,1,7,0,3,5,5,1,0,0,5,0,0,0,6,0,0,0,0,0,0],"split_type":[0,0,0,0,0,0,0,0,0,0,0,0,0,0,0,0,0,0,0,0,0],"sum_hessian":[8.6E1,3.5E1,5.1E1,7E0,2.8E1,3.7E1,1.4E1,2.5E1,3E0,1.7E1,2E1,1.1E1,3E0,1.3E1,1.2E1,4E0,1.3E1,1E1,1E1,3E0,9E0],"tree_param":{"num_deleted":"0","num_feature":"10","num_nodes":"21","size_leaf_vector":"1"}},{"base_weights":[-9.432341E-3,-4.4961736E-1,3.5048497E-1,-3.4986485E-2,-3.2736355E-1,4.6608692E-1,1.7767814E-1,-2.1660514E-1,-2.1971392E-2,8.15457E-3,2.9306773E-2,1.1298958E-2,-0E0,-1.9279053E-2,-6.66615E-2,-1.8692088E-1,6.7728893E-3,-1.5533834E-2,-0E0],"categories":[],"categories_nodes":[],"categories_segments":[],"categories_sizes":[],"default_left":[0,0,0,0,0,0,0,0,0,0,0,0,0,0,0,0,0,0,0],"id":16,"left_children":[1,3,5,-1,7,9,11,13,-1,-1,-1,-1,-1,-1,15,17,-1,-1,-1],"loss_changes":[1.3000343E1,7.9958105E-1,7.517662E-1,0E0,1.7434001E-1,7.752118E-1,1.8567485E-1,3.3446205E-1,0E0,0E0,0E0,0E0,0E0,0E0,2.7353358E-1,1.4150408E-1,0E0,0E0,0E0],"parents":[2147483647,0,0,1,1,2,2,4,4,5,5,6,6,7,7,14,14,15,15],"right_children":[2,4,6,-1,8,10,12,14,-1,-1,-1,-1,-1,-1,16,18,-1,-1,-1],"split_conditions":[-4.5615238E-1,-9.0311897E-1,-9.77342E-2,-3.4986485E-2,-2.758339E-1,-8.25887E-1,1.4048963E0,-1.1842601E0,-2.1971392E-2,8.15457E-3,2.9306773E-2,1.1298958E-2,-0E0,-1.9279053E-2,-8.75915E-1,-7.582713E-1,6.7728893E-3,-1.5533834E-2,-0E0],"split_indices":[3,3,6,0,9,5,5,5,0,0,0,0,0,0,4,3,0,0,0],"split_type":[0,0,0,0,0,0,0,0,0,0,0,0,0,0,0,0,0,0,0],"sum_hessian":[8E1,3.6E1,4.4E1,1E1,2.6E1,2.5E1,1.9E1,1.5E1,1.1E1,8E0,1.7E1,1.5E1,4E0,6E0,9E0,6E0,3E0,3E0,3E0],"tree_param":{"num_deleted":"0","num_feature":"10","num_nodes":"19","size_leaf_vector":"1"}},{"base_weights":[1.3779734E-2,-5.076426E-1,3.2436743E-1,-5.957868E-1,-2.0507562E-1,4.4924623E-1,1.8879263E-1,-1.2136874E-2,-6.944289E-1,-0E0,-1.4792052E-2,1.0179883E-2,5.200433E-1,2.5035152E-1,-8.681411E-4,-3.844381E-2,-1.0832222E-2,8.806604E-3,2.8224526E-2,8.552549E-4,2.8101647E-1,1.7186789E-2,5.505341E-3],"categories":[],"categories_nodes":[],"categories_segments":[],"categories_sizes":[],"default_left":[0,0,0,0,0,0,0,0,0,0,0,0,0,0,0,0,0,0,0,0,0,0,0],"id":17,"left_children":[1,3,5,7,9,11,13,-1,15,-1,-1,-1,17,19,-1,-1,-1,-1,-1,-1,21,-1,-1],"loss_changes":[1.3911861E1,6.511564E-1,7.656245E-1,5.7353306E-1,1.466274E-1,2.913189E-1,3.8298523E-1,0E0,3.7513065E-1,0E0,0E0,0E0,1.3223076E-1,1.2273586E-1,0E0,0E0,0E0,0E0,0E0,0E0,1.2043548E-1,0E0,0E0],"parents":[2147483647,0,0,1,1,2,2,3,3,4,4,5,5,6,6,8,8,12,12,13,13,20,20],"right_children":[2,4,6,8,10,12,14,-1,16,-1,-1,-1,18,20,-1,-1,-1,-1,-1,-1,22,-1,-1],"split_conditions":[-4.5615238E-1,-7.680513E-1,3.4662253E-1,-4.807302E-1,-5.8616483E-1,-5.8701053E-2,8.940556E-1,-1.2136874E-2,-6.089544E-1,-0E0,-1.4792052E-2,1.0179883E-2,-6.347207E-1,-1.6305938E-2,-8.681411E-4,-3.844381E-2,-1.0832222E-2,8.806604E-3,2.8224526E-2,8.552549E-4,-4.6726057E-1,1.7186789E-2,5.505341E-3],"split_indices":[3,4,9,6,4,3,6,0,3,0,0,0,2,3,0,0,0,0,0,0,7,0,0],"split_type":[0,0,0,0,0,0,0,0,0,0,0,0,0,0,0,0,0,0,0,0,0,0,0],"sum_hessian":[8.4E1,3.1E1,5.3E1,2.3E1,8E0,2.6E1,2.7E1,6E0,1.7E1,3E0,5E0,7E0,1.9E1,2.1E1,6E0,1.4E1,3E0,3E0,1.6E1,3E0,1.8E1,1.2E1,6E0],"tree_param":{"num_deleted":"0","num_feature":"10","num_nodes":"23","size_leaf_vector":"1"}},{"base_weights":[-1.3094149E-3,-4.5156848E-1,3.2494843E-1,-5.032048E-1,-1.0554738E-3,4.3136048E-1,2.0579495E-1,-2.6240972E-1,-3.0030578E-2,7.2960514E-3,5.344284E-1,9.978501E-4,1.1774021E-2,-1.8010067E-2,-0E0,8.863612E-3,3.11497E-2],"categories":[],"categories_nodes":[],"categories_segments":[],"categories_sizes":[],"default_left":[0,0,0,0,0,0,0,0,0,0,0,0,0,0,0,0,0],"id":18,"left_children":[1,3,5,7,-1,9,11,13,-1,-1,15,-1,-1,-1,-1,-1,-1],"loss_changes":[1.2205245E1,7.149029E-1,4.5612192E-1,4.8319864E-1,0E0,5.600524E-1,1.07674E-1,2.8051263E-1,0E0,0E0,3.4727383E-1,0E0,0E0,0E0,0E0,0E0,0E0],"parents":[2147483647,0,0,1,1,2,2,3,3,5,5,6,6,7,7,10,10],"right_children":[2,4,6,8,-1,10,12,14,-1,-1,16,-1,-1,-1,-1,-1,-1],"split_conditions":[-4.5615238E-1,1.9217163E-2,3.4662253E-1,-1.8984844E-1,-1.0554738E-3,-8.25887E-1,-1.6305938E-2,-7.554533E-1,-3.0030578E-2,7.2960514E-3,-2.4100572E-1,9.978501E-4,1.1774021E-2,-1.8010067E-2,-0E0,8.863612E-3,3.11497E-2],"split_indices":[3,0,9,7,0,5,3,3,0,0,0,0,0,0,0,0,0],"split_type":[0,0,0,0,0,0,0,0,0,0,0,0,0,0,0,0,0],"sum_hessian":[8.1E1,3.4E1,4.7E1,3E1,4E0,2.3E1,2.4E1,1E1,2E1,7E0,1.6E1,4E0,2E1,7E0,3E0,4E0,1.2E1],"tree_param":{"num_deleted":"0","num_feature":"10","num_nodes":"17","size_leaf_vector":"1"}},{"base_weights":[-5.4396363E-3,-2.6363278E-2,1.8976423E-1,-3.120596E-1,2.624462E-1,-2.1288104E-2,-3.3458308E-3,-9.63286E-3,3.0470762E-1,4.1408756E-1,1.8396892E-1,3.2031316E-2,1.5178434E-2,1.134811E-2,-0E0],"categories":[],"categories_nodes":[],"categories_segments":[],"categories_sizes":[],"default_left":[0,0,0,0,0,0,0,0,0,0,0,0,0,0,0],"id":19,"left_children":[1,-1,3,5,7,-1,-1,-1,9,11,13,-1,-1,-1,-1],"loss_changes":[8.588388E0,0E0,2.3018234E0,1.4522845E-1,1.1085081E0,0E0,0E0,0E0,5.243349E-1,3.370266E-1,2.0179003E-1,0E0,0E0,0E0,0E0],"parents":[2147483647,0,0,2,2,3,3,4,4,8,8,9,9,10,10],"right_children":[2,-1,4,6,8,-1,-1,-1,10,12,14,-1,-1,-1,-1],"split_conditions":[-7.680513E-1,-2.6363278E-2,-1.198039E0,1.1403254E-1,-1.0438992E0,-2.1288104E-2,-3.3458308E-3,-9.63286E-3,3.4662253E-1,-8.729048E-3,8.940556E-1,3.2031316E-2,1.5178434E-2,1.134811E-2,-0E0],"split_indices":[4,0,5,0,0,0,0,0,9,8,6,0,0,0,0],"split_type":[0,0,0,0,0,0,0,0,0,0,0,0,0,0,0],"sum_hessian":[8.2E1,2.2E1,6E1,7E0,5.3E1,4E0,3E0,4E0,4.9E1,2.4E1,2.5E1,6E0,1.8E1,2E1,5E0],"tree_param":{"num_deleted":"0","num_feature":"10","num_nodes":"15","size_leaf_vector":"1"}},{"base_weights":[-1.0143913E-2,-4.026607E-1,1.5042086E-1,-5.457571E-3,-2.4012795E-2,8.048157E-4,2.9221123E-1,-1.5463045E-1,1.9394015E-1,5.3742505E-3,3.5547432E-1,3.4850948E-2,-1.4373436E-2,1.5648149E-2,-1.004396E-3,2.6609695E-2,1.3563185E-2,-4.729751E-3,7.571877E-3],"categories":[],"categories_nodes":[],"categories_segments":[],"categories_sizes":[],"default_left":[0,0,0,0,0,0,0,0,0,0,0,0,0,0,0,0,0,0,0],"id":20,"left_children":[1,3,5,-1,-1,7,9,11,13,-1,15,17,-1,-1,-1,-1,-1,-1,-1],"loss_changes":[5.631937E0,4.8078632E-1,1.3069525E0,0E0,0E0,9.9456143E-1,2.8945923E-1,4.883471E-1,4.176877E-1,0E0,1.1756778E-1,1.4074281E-1,0E0,0E0,0E0,0E0,0E0,0E0,0E0],"parents":[2147483647,0,0,1,1,2,2,5,5,6,6,7,7,8,8,10,10,11,11],"right_children":[2,4,6,-1,-1,8,10,12,14,-1,16,18,-1,-1,-1,-1,-1,-1,-1],"split_conditions":[-7.664348E-1,-6.9082415E-1,3.9299425E-1,-5.457571E-3,-2.4012795E-2,1.8243711E0,-9.252791E-1,-7.089665E-1,6.5351903E-1,5.3742505E-3,-8.729048E-3,-1.0438992E0,-1.4373436E-2,1.5648149E-2,-1.004396E-3,2.6609695E-2,1.3563185E-2,-4.729751E-3,7.571877E-3],"split_indices":[4,6,0,0,0,8,8,2,9,0,8,0,0,0,0,0,0,0,0],"split_type":[0,0,0,0,0,0,0,0,0,0,0,0,0,0,0,0,0,0,0],"sum_hessian":[8.7E1,2.5E1,6.2E1,6E0,1.9E1,3.1E1,3.1E1,1.7E1,1.4E1,9E0,2.2E1,7E0,1E1,9E0,5E0,5E0,1.7E1,3E0,4E0],"tree_param":{"num_deleted":"0","num_feature":"10","num_nodes":"19","size_leaf_vector":"1"}},{"base_weights":[-1.8750547E-2,-5.4055715E-1,1.6509616E-1,-2.9719723E-2,-6.234529E-3,1.9179361E-2,3.2702976E-1,-1.20790504E-1,2.3490706E-1,3.1413827E-2,2.3392518E-1,2.8794333E-3,-1.3355769E-2,1.5703533E-2,3.0171913E-3,7.6043553E-4,1.3595402E-2,-8.961919E-3,6.4421566E-3],"categories":[],"categories_nodes":[],"categories_segments":[],"categories_sizes":[],"default_left":[0,0,0,0,0,0,0,0,0,0,0,0,0,0,0,0,0,0,0],"id":21,"left_children":[1,3,5,-1,-1,7,9,11,13,-1,15,17,-1,-1,-1,-1,-1,-1,-1],"loss_changes":[8.089181E0,3.465371E-1,1.4240946E0,0E0,0E0,1.066429E0,5.8018637E-1,4.072085E-1,1.3707304E-1,0E0,1.665324E-1,2.9333687E-1,0E0,0E0,0E0,0E0,0E0,0E0,0E0],"parents":[2147483647,0,0,1,1,2,2,5,5,6,6,7,7,8,8,10,10,11,11],"right_children":[2,4,6,-1,-1,8,10,12,14,-1,16,18,-1,-1,-1,-1,-1,-1,-1],"split_conditions":[-7.680513E-1,-9.454978E-1,6.510526E-1,-2.9719723E-2,-6.234529E-3,1.8243711E0,4.9845788E-1,-4.484871E-1,3.4662253E-1,3.1413827E-2,1.0048923E0,-1.0438992E0,-1.3355769E-2,1.5703533E-2,3.0171913E-3,7.6043553E-4,1.3595402E-2,-8.961919E-3,6.4421566E-3],"split_indices":[4,0,0,0,0,8,2,0,9,0,0,0,0,0,0,0,0,0,0],"split_type":[0,0,0,0,0,0,0,0,0,0,0,0,0,0,0,0,0,0,0],"sum_hessian":[8.2E1,2.1E1,6.1E1,1.8E1,3E0,3.3E1,2.8E1,2E1,1.3E1,5E0,2.3E1,1.1E1,9E0,8E0,5E0,4E0,1.9E1,4E0,7E0],"tree_param":{"num_deleted":"0","num_feature":"10","num_nodes":"19","size_leaf_vector":"1"}},{"base_weights":[-5.686138E-3,-3.723008E-1,2.3926E-1,-2.22688E-1,-4.6837598E-1,3.1936914E-1,6.464443E-2,1.759194E-5,-1.4093906E-2,-2.9879889E-2,-2.693944E-1,1.6582176E-1,4.6631214E-1,5.8816387E-3,-6.261146E-3,-2.9132233E-3,-1.9188514E-2,-0E0,1.0225174E-2,6.6076177E-3,2.6066775E-2],"categories":[],"categories_nodes":[],"categories_segments":[],"categories_sizes":[],"default_left":[0,0,0,0,0,0,0,0,0,0,0,0,0,0,0,0,0,0,0,0,0],"id":22,"left_children":[1,3,5,7,9,11,13,-1,-1,-1,15,17,19,-1,-1,-1,-1,-1,-1,-1,-1],"loss_changes":[7.825253E0,3.2968473E-1,6.68345E-1,2.3947984E-1,2.6656675E-1,6.491568E-1,1.9506487E-1,0E0,0E0,0E0,1.74918E-1,1.0488474E-1,1.7832732E-1,0E0,0E0,0E0,0E0,0E0,0E0,0E0,0E0],"parents":[2147483647,0,0,1,1,2,2,3,3,4,4,5,5,6,6,10,10,11,11,12,12],"right_children":[2,4,6,8,10,12,14,-1,-1,-1,16,18,20,-1,-1,-1,-1,-1,-1,-1,-1],"split_conditions":[-5.411502E-1,-8.515091E-2,-4.495385E-1,-1.2254033E0,9.1140725E-2,-1.8473592E-1,1.411448E0,1.759194E-5,-1.4093906E-2,-2.9879889E-2,-1.1792327E0,1.0033464E0,-4.9970883E-1,5.8816387E-3,-6.261146E-3,-2.9132233E-3,-1.9188514E-2,-0E0,1.0225174E-2,6.6076177E-3,2.6066775E-2],"split_indices":[3,6,7,4,5,5,5,0,0,0,4,0,0,0,0,0,0,0,0,0,0],"split_type":[0,0,0,0,0,0,0,0,0,0,0,0,0,0,0,0,0,0,0,0,0],"sum_hessian":[8.5E1,3.4E1,5.1E1,1.5E1,1.9E1,3.4E1,1.7E1,3E0,1.2E1,1E1,9E0,1.8E1,1.6E1,1.4E1,3E0,4E0,5E0,4E0,1.4E1,3E0,1.3E1],"tree_param":{"num_deleted":"0","num_feature":"10","num_nodes":"21","size_leaf_vector":"1"}},{"base_weights":[-6.2516923E-3,-3.833154E-1,2.3640537E-1,-4.3749002E-1,4.6151527E-4,2.7504826E-1,1.51894E-3,-9.083281E-3,-4.7585374E-1,1.6284782E-1,3.8550112E-1,4.9648224E-3,-6.026353E-3,-2.813827E-2,-1.1902328E-2,4.396507E-4,1.02885375E-2,3.600549E-3,2.1297319E-2],"categories":[],"categories_nodes":[],"categories_segments":[],"categories_sizes":[],"default_left":[0,0,0,0,0,0,0,0,0,0,0,0,0,0,0,0,0,0,0],"id":23,"left_children":[1,3,5,7,-1,9,11,-1,13,15,17,-1,-1,-1,-1,-1,-1,-1,-1],"loss_changes":[8.157061E0,7.9117393E-1,4.6206665E-1,1.5204763E-1,0E0,4.5245838E-1,1.17245026E-1,0E0,3.233285E-1,1.4204639E-1,1.9847345E-1,0E0,0E0,0E0,0E0,0E0,0E0,0E0,0E0],"parents":[2147483647,0,0,1,1,2,2,3,3,5,5,6,6,8,8,9,9,10,10],"right_children":[2,4,6,8,-1,10,12,-1,14,16,18,-1,-1,-1,-1,-1,-1,-1,-1],"split_conditions":[-5.411502E-1,1.9217163E-2,1.4048963E0,-1.356698E0,4.6151527E-4,-7.879439E-2,-4.8589653E-1,-9.083281E-3,4.5764944E-1,1.0048923E0,-5.564118E-1,4.9648224E-3,-6.026353E-3,-2.813827E-2,-1.1902328E-2,4.396507E-4,1.02885375E-2,3.600549E-3,2.1297319E-2],"split_indices":[3,0,5,9,0,5,2,0,5,0,0,0,0,0,0,0,0,0,0],"split_type":[0,0,0,0,0,0,0,0,0,0,0,0,0,0,0,0,0,0,0],"sum_hessian":[8.7E1,3.4E1,5.3E1,3E1,4E0,4.5E1,8E0,5E0,2.5E1,2.4E1,2.1E1,5E0,3E0,1.7E1,8E0,6E0,1.8E1,3E0,1.8E1],"tree_param":{"num_deleted":"0","num_feature":"10","num_nodes":"19","size_leaf_vector":"1"}},{"base_weights":[1.70112E-2,-3.2333422E-1,2.4114068E-1,-3.6523324E-1,-0E0,3.4656253E-1,1.3483042E-1,-4.8458102E-1,-2.069134E-1,2.527821E-3,3.8008356E-1,8.934815E-3,-1.9563609E-3,-3.3399526E-2,-1.2829848E-2,-1.7443312E-2,-9.105034E-2,5.8915447E-3,4.444031E-1,2.477339E-3,-8.633504E-3,3.155505E-2,1.5284362E-2],"categories":[],"categories_nodes":[],"categories_segments":[],"categories_sizes":[],"default_left":[0,0,0,0,0,0,0,0,0,0,0,0,0,0,0,0,0,0,0,0,0,0,0],"id":24,"left_children":[1,3,5,7,-1,9,11,13,15,-1,17,-1,-1,-1,-1,-1,19,-1,21,-1,-1,-1,-1],"loss_changes":[6.553672E0,4.4732928E-1,4.879198E-1,3.9743805E-1,0E0,1.8578076E-1,2.3461133E-1,4.0516806E-1,1.7095035E-1,0E0,2.6250768E-1,0E0,0E0,0E0,0E0,0E0,1.3562258E-1,0E0,1.5366697E-1,0E0,0E0,0E0,0E0],"parents":[2147483647,0,0,1,1,2,2,3,3,5,5,6,6,7,7,8,8,10,10,16,16,18,18],"right_children":[2,4,6,8,-1,10,12,14,16,-1,18,-1,-1,-1,-1,-1,20,-1,22,-1,-1,-1,-1],"split_conditions":[-5.411502E-1,1.1403254E-1,3.4662253E-1,9.1140725E-2,-0E0,-5.564118E-1,8.940556E-1,-9.454978E-1,-7.701749E-1,2.527821E-3,-8.25887E-1,8.934815E-3,-1.9563609E-3,-3.3399526E-2,-1.2829848E-2,-1.7443312E-2,-2.758339E-1,5.8915447E-3,1.1819877E-1,2.477339E-3,-8.633504E-3,3.155505E-2,1.5284362E-2],"split_indices":[3,0,9,5,0,0,6,0,3,0,5,0,0,0,0,0,9,0,3,0,0,0,0],"split_type":[0,0,0,0,0,0,0,0,0,0,0,0,0,0,0,0,0,0,0,0,0,0,0],"sum_hessian":[8.4E1,3.3E1,5.1E1,2.9E1,4E0,2.4E1,2.7E1,1.5E1,1.4E1,3E0,2.1E1,2.2E1,5E0,7E0,8E0,5E0,9E0,5E0,1.6E1,3E0,6E0,5E0,1.1E1],"tree_param":{"num_deleted":"0","num_feature":"10","num_nodes":"23","size_leaf_vector":"1"}},{"base_weights":[-1.0166118E-3,-3.2371184E-1,2.080729E-1,-3.6566123E-1,-0E0,2.4270822E-1,-1.2994838E-5,-2.862223E-2,-2.9740676E-1,5.993496E-3,3.164571E-1,-1.4902566E-1,-3.9620435E-1,6.6439807E-3,1.7890915E-2,-1.3916582E-2,5.001121E-4,-2.2831352E-2,-5.2995477E-3],"categories":[],"categories_nodes":[],"categories_segments":[],"categories_sizes":[],"default_left":[0,0,0,0,0,0,0,0,0,0,0,0,0,0,0,0,0,0,0],"id":25,"left_children":[1,3,5,7,-1,9,-1,-1,11,-1,13,15,17,-1,-1,-1,-1,-1,-1],"loss_changes":[5.8140554E0,4.484055E-1,3.9952302E-1,1.6618252E-1,0E0,3.26097E-1,0E0,0E0,2.5292468E-1,0E0,1.08394146E-1,2.76376E-1,1.4083672E-1,0E0,0E0,0E0,0E0,0E0,0E0],"parents":[2147483647,0,0,1,1,2,2,3,3,5,5,8,8,10,10,11,11,12,12],"right_children":[2,4,6,8,-1,10,-1,-1,12,-1,14,16,18,-1,-1,-1,-1,-1,-1],"split_conditions":[-5.411502E-1,1.1403254E-1,1.4048963E0,-1.3390424E0,-0E0,-4.8652673E-1,-1.2994838E-5,-2.862223E-2,3.4287897E-1,5.993496E-3,-2.6059198E-1,-8.635908E-1,-6.8680876E-1,6.6439807E-3,1.7890915E-2,-1.3916582E-2,5.001121E-4,-2.2831352E-2,-5.2995477E-3],"split_indices":[3,0,5,1,0,5,0,0,1,0,0,3,3,0,0,0,0,0,0],"split_type":[0,0,0,0,0,0,0,0,0,0,0,0,0,0,0,0,0,0,0],"sum_hessian":[8.4E1,3.3E1,5.1E1,2.9E1,4E0,4.4E1,7E0,5E0,2.4E1,1.8E1,2.6E1,1.1E1,1.3E1,6E0,2E1,6E0,5E0,1E1,3E0],"tree_param":{"num_deleted":"0","num_feature":"10","num_nodes":"19","size_leaf_vector":"1"}},{"base_weights":[-3.0420713E-2,-3.364165E-1,2.0400149E-1,-3.0110726E-2,-2.5098982E-1,-0E0,2.3419096E-1,-1.5581675E-2,-3.2765552E-2,7.08733E-4,2.5434595E-1,2.8293428E-3,-8.063233E-3,3.5717714E-1,7.938944E-3,2.2357255E-2,5.0522527E-3],"categories":[],"categories_nodes":[],"categories_segments":[],"categories_sizes":[],"default_left":[0,0,0,0,0,0,0,0,0,0,0,0,0,0,0,0,0],"id":26,"left_children":[1,3,5,-1,7,-1,9,-1,11,-1,13,-1,-1,15,-1,-1,-1],"loss_changes":[6.1073766E0,6.036606E-1,3.0590975E-1,0E0,3.523668E-1,0E0,1.557889E-1,0E0,1.1144689E-1,0E0,2.651286E-1,0E0,0E0,2.9174185E-1,0E0,0E0,0E0],"parents":[2147483647,0,0,1,1,2,2,4,4,6,6,8,8,10,10,13,13],"right_children":[2,4,6,-1,8,-1,10,-1,12,-1,14,-1,-1,16,-1,-1,-1],"split_conditions":[-5.411502E-1,-1.3390424E0,-1.1188767E0,-3.0110726E-2,-7.3341084E-1,-0E0,-2.6072568E-1,-1.5581675E-2,-1.1866541E0,7.08733E-4,3.4662253E-1,2.8293428E-3,-8.063233E-3,1.1173592E0,7.938944E-3,2.2357255E-2,5.0522527E-3],"split_indices":[3,1,1,0,3,0,3,0,4,0,9,0,0,1,0,0,0],"split_type":[0,0,0,0,0,0,0,0,0,0,0,0,0,0,0,0,0],"sum_hessian":[8.3E1,3.6E1,4.7E1,7E0,2.9E1,6E0,4.1E1,2.2E1,7E0,4E0,3.7E1,4E0,3E0,1.6E1,2.1E1,1.1E1,5E0],"tree_param":{"num_deleted":"0","num_feature":"10","num_nodes":"17","size_leaf_vector":"1"}},{"base_weights":[1.2776796E-2,-2.6022157E-1,2.2200003E-1,-1.1392562E-1,-3.4633088E-1,3.469002E-1,9.905172E-2,-1.6243373E-1,2.3603556E-3,-2.1811638E-2,-8.79176E-3,8.734996E-3,4.5027897E-1,6.8287537E-3,-1.9187927E-3,1.2821592E-3,-1.1571056E-2,2.7325455E-2,1.0711033E-2],"categories":[],"categories_nodes":[],"categories_segments":[],"categories_sizes":[],"default_left":[0,0,0,0,0,0,0,0,0,0,0,0,0,0,0,0,0,0,0],"id":27,"left_children":[1,3,5,7,9,11,13,15,-1,-1,-1,-1,17,-1,-1,-1,-1,-1,-1],"loss_changes":[5.0231786E0,3.9322114E-1,6.888571E-1,1.4425059E-1,2.1462917E-1,2.8608298E-1,1.5429318E-1,1.9518632E-1,0E0,0E0,0E0,0E0,1.2487626E-1,0E0,0E0,0E0,0E0,0E0,0E0],"parents":[2147483647,0,0,1,1,2,2,3,3,4,4,5,5,6,6,7,7,12,12],"right_children":[2,4,6,8,10,12,14,16,-1,-1,-1,-1,18,-1,-1,-1,-1,-1,-1],"split_conditions":[-2.757902E-1,-3.953291E-1,-9.77342E-2,-4.212322E-1,6.398151E-1,-3.7164292E-1,1.4048963E0,-1.2254033E0,2.3603556E-3,-2.1811638E-2,-8.79176E-3,8.734996E-3,5.817187E-1,6.8287537E-3,-1.9187927E-3,1.2821592E-3,-1.1571056E-2,2.7325455E-2,1.0711033E-2],"split_indices":[3,6,6,6,5,5,5,4,0,0,0,0,5,0,0,0,0,0,0],"split_type":[0,0,0,0,0,0,0,0,0,0,0,0,0,0,0,0,0,0,0],"sum_hessian":[8.6E1,3.7E1,4.9E1,1.5E1,2.2E1,2.3E1,2.6E1,1.2E1,3E0,1.3E1,9E0,1E1,1.3E1,2.1E1,5E0,3E0,9E0,8E0,5E0],"tree_param":{"num_deleted":"0","num_feature":"10","num_nodes":"19","size_leaf_vector":"1"}},{"base_weights":[2.4806635E-2,-3.4149384E-1,1.821674E-1,-2.281804E-2,-8.055952E-3,2.3679014E-1,-1.0979709E-2,1.4237115E-2,7.809259E-2,-7.049794E-3,3.2903296E-3,-4.104376E-3,8.475785E-3],"categories":[],"categories_nodes":[],"categories_segments":[],"categories_sizes":[],"default_left":[0,0,0,0,0,0,0,0,0,0,0,0,0],"id":28,"left_children":[1,3,5,-1,-1,7,9,-1,11,-1,-1,-1,-1],"loss_changes":[5.00343E0,4.0342045E-1,6.687448E-1,0E0,0E0,3.0675507E-1,1.5656585E-1,0E0,2.1303205E-1,0E0,0E0,0E0,0E0],"parents":[2147483647,0,0,1,1,2,2,5,5,6,6,8,8],"right_children":[2,4,6,-1,-1,8,10,-1,12,-1,-1,-1,-1],"split_conditions":[-7.085036E-1,-9.7999907E-1,1.6293676E-1,-2.281804E-2,-8.055952E-3,9.61711E-1,-5.411502E-1,1.4237115E-2,1.0852926E0,-7.049794E-3,3.2903296E-3,-4.104376E-3,8.475785E-3],"split_indices":[3,0,7,0,0,9,3,0,0,0,0,0,0],"split_type":[0,0,0,0,0,0,0,0,0,0,0,0,0],"sum_hessian":[8.5E1,2.5E1,6E1,1.4E1,1.1E1,4.7E1,1.3E1,3.5E1,1.2E1,5E0,8E0,4E0,8E0],"tree_param":{"num_deleted":"0","num_feature":"10","num_nodes":"13","size_leaf_vector":"1"}},{"base_weights":[-9.052686E-3,-3.03571E-1,1.7865646E-1,-9.489849E-2,-3.5623106E-1,2.802936E-1,8.4423475E-2,-9.0568755E-3,1.6592315E-3,-2.6578102E-2,-2.5452057E-1,3.9519793E-3,3.763081E-1,7.6916157E-3,-1.8519325E-4,-1.732317E-2,-6.0798425E-2,2.9910488E-2,2.5432226E-1,1.2514454E-3,-8.894149E-3,1.5376143E-2,1.6370055E-3],"categories":[],"categories_nodes":[],"categories_segments":[],"categories_sizes":[],"default_left":[0,0,0,0,0,0,0,0,0,0,0,0,0,0,0,0,0,0,0,0,0,0,0],"id":29,"left_children":[1,3,5,7,9,11,13,-1,-1,-1,15,-1,17,-1,-1,-1,19,-1,21,-1,-1,-1,-1],"loss_changes":[5.0975504E0,3.166747E-1,4.7620893E-1,1.2021812E-1,2.8542233E-1,4.2712784E-1,2.0520394E-1,0E0,0E0,0E0,2.9443645E-1,0E0,2.2277951E-1,0E0,0E0,0E0,1.0013006E-1,0E0,1.0915339E-1,0E0,0E0,0E0,0E0],"parents":[2147483647,0,0,1,1,2,2,3,3,4,4,5,5,6,6,10,10,12,12,16,16,18,18],"right_children":[2,4,6,8,10,12,14,-1,-1,-1,16,-1,18,-1,-1,-1,20,-1,22,-1,-1,-1,-1],"split_conditions":[-5.411502E-1,-4.807302E-1,3.4662253E-1,-7.648723E-1,-9.03612E-1,-5.8701053E-2,-4.711988E-1,-9.0568755E-3,1.6592315E-3,-2.6578102E-2,4.469892E-1,3.9519793E-3,1.1819877E-1,7.6916157E-3,-1.8519325E-4,-1.732317E-2,-9.1050714E-1,2.9910488E-2,3.5189342E-1,1.2514454E-3,-8.894149E-3,1.5376143E-2,1.6370055E-3],"split_indices":[3,6,9,3,3,3,7,0,0,0,6,0,3,0,0,0,2,0,2,0,0,0,0],"split_type":[0,0,0,0,0,0,0,0,0,0,0,0,0,0,0,0,0,0,0,0,0,0,0],"sum_hessian":[9E1,3.5E1,5.5E1,8E0,2.7E1,2.5E1,3E1,5E0,3E0,8E0,1.9E1,9E0,1.6E1,1.7E1,1.3E1,1.2E1,7E0,4E0,1.2E1,4E0,3E0,9E0,3E0],"tree_param":{"num_deleted":"0","num_feature":"10","num_nodes":"23","size_leaf_vector":"1"}},{"base_weights":[1.9111559E-2,-2.3837592E-1,1.7975634E-1,-2.734867E-1,3.4163357E-3,2.2417599E-1,2.6514791E-2,-3.7193197E-1,-1.3701633E-1,5.288446E-3,3.2246566E-1,4.258763E-3,-5.8215107E-3,-2.823799E-2,-1.0316022E-2,-6.6725013E-4,-2.3106061E-1,2.2888407E-2,9.294473E-3,-1.6173743E-2,-1.6388837E-3],"categories":[],"categories_nodes":[],"categories_segments":[],"categories_sizes":[],"default_left":[0,0,0,0,0,0,0,0,0,0,0,0,0,0,0,0,0,0,0,0,0],"id":30,"left_children":[1,3,5,7,-1,9,11,13,15,-1,17,-1,-1,-1,-1,-1,19,-1,-1,-1,-1],"loss_changes":[3.6770215E0,4.0533376E-1,3.433683E-1,3.1462502E-1,0E0,4.1187382E-1,1.2418457E-1,3.4925723E-1,1.4693466E-1,0E0,2.5708008E-1,0E0,0E0,0E0,0E0,0E0,1.0036534E-1,0E0,0E0,0E0,0E0],"parents":[2147483647,0,0,1,1,2,2,3,3,5,5,6,6,7,7,8,8,10,10,16,16],"right_children":[2,4,6,8,-1,10,12,14,16,-1,18,-1,-1,-1,-1,-1,20,-1,-1,-1,-1],"split_conditions":[-5.411502E-1,1.1403254E-1,-4.495385E-1,9.1140725E-2,3.4163357E-3,-1.8473592E-1,1.411448E0,-9.454978E-1,-1.1792327E0,5.288446E-3,5.817187E-1,4.258763E-3,-5.8215107E-3,-2.823799E-2,-1.0316022E-2,-6.6725013E-4,-7.680513E-1,2.2888407E-2,9.294473E-3,-1.6173743E-2,-1.6388837E-3],"split_indices":[3,0,7,5,0,5,5,0,4,0,5,0,0,0,0,0,4,0,0,0,0],"split_type":[0,0,0,0,0,0,0,0,0,0,0,0,0,0,0,0,0,0,0,0,0],"sum_hessian":[8.7E1,3.3E1,5.4E1,3E1,3E0,4.1E1,1.3E1,1.6E1,1.4E1,2E1,2.1E1,1E1,3E0,6E0,1E1,7E0,7E0,9E0,1.2E1,4E0,3E0],"tree_param":{"num_deleted":"0","num_feature":"10","num_nodes":"21","size_leaf_vector":"1"}},{"base_weights":[4.62134E-3,-2.8406096E-1,1.18878156E-1,-2.3906399E-2,-1.3876526E-1,-7.5114937E-3,1.563165E-1,2.5462266E-3,-1.941494E-1,1.950372E-1,-3.0376802E-3,-1.630775E-2,-4.4064852E-3,2.6974168E-1,1.2047277E-1,1.9120838E-2,6.312739E-3,-0E0,7.6758787E-3],"categories":[],"categories_nodes":[],"categories_segments":[],"categories_sizes":[],"default_left":[0,0,0,0,0,0,0,0,0,0,0,0,0,0,0,0,0,0,0],"id":31,"left_children":[1,3,5,-1,7,-1,9,-1,11,13,-1,-1,-1,15,17,-1,-1,-1,-1],"loss_changes":[2.919835E0,5.7689095E-1,6.688895E-1,0E0,1.9230235E-1,0E0,5.043688E-1,0E0,1.11765176E-1,2.014265E-1,0E0,0E0,0E0,2.7270103E-1,1.0305095E-1,0E0,0E0,0E0,0E0],"parents":[2147483647,0,0,1,1,2,2,4,4,6,6,8,8,9,9,13,13,14,14],"right_children":[2,4,6,-1,8,-1,10,-1,12,14,-1,-1,-1,16,18,-1,-1,-1,-1],"split_conditions":[-7.664348E-1,-1.1061727E0,-1.198039E0,-2.3906399E-2,-1.3113719E0,-7.5114937E-3,1.0810733E0,2.5462266E-3,-9.514377E-1,-2.8080583E-1,-3.0376802E-3,-1.630775E-2,-4.4064852E-3,1.0032114E0,-1.8473592E-1,1.9120838E-2,6.312739E-3,-0E0,7.6758787E-3],"split_indices":[4,1,5,0,0,0,6,0,2,6,0,0,0,1,5,0,0,0,0],"split_type":[0,0,0,0,0,0,0,0,0,0,0,0,0,0,0,0,0,0,0],"sum_hessian":[8.7E1,2.4E1,6.3E1,9E0,1.5E1,7E0,5.6E1,3E0,1.2E1,4.8E1,8E0,4E0,8E0,2.2E1,2.6E1,1.1E1,1.1E1,6E0,2E1],"tree_param":{"num_deleted":"0","num_feature":"10","num_nodes":"19","size_leaf_vector":"1"}},{"base_weights":[3.5385557E-2,-2.5142932E-1,1.4567399E-1,-3.5123536E-1,-3.3288673E-3,2.0661066E-1,-1.2590498E-2,-6.288039E-3,-2.206983E-2,2.3272553E-1,-1.7038182E-3,-7.3240893E-3,1.4492142E-3,2.278622E-3,2.5987405E-1,4.2788485E-1,9.650896E-3,2.6715402E-2,6.813945E-3],"categories":[],"categories_nodes":[],"categories_segments":[],"categories_sizes":[],"default_left":[0,0,0,0,0,0,0,0,0,0,0,0,0,0,0,0,0,0,0],"id":32,"left_children":[1,3,5,7,-1,9,11,-1,-1,13,-1,-1,-1,-1,15,17,-1,-1,-1],"loss_changes":[2.7464347E0,3.7761867E-1,6.295825E-1,1.927098E-1,0E0,3.1692863E-1,1.1619243E-1,0E0,0E0,1.7101121E-1,0E0,0E0,0E0,0E0,2.5969195E-1,1.3942897E-1,0E0,0E0,0E0],"parents":[2147483647,0,0,1,1,2,2,3,3,5,5,6,6,9,9,14,14,15,15],"right_children":[2,4,6,8,-1,10,12,-1,-1,14,-1,-1,-1,-1,16,18,-1,-1,-1],"split_conditions":[-7.2602713E-1,-8.75915E-1,1.6293676E-1,-4.807302E-1,-3.3288673E-3,8.940556E-1,2.2907749E-1,-6.288039E-3,-2.206983E-2,-9.252791E-1,-1.7038182E-3,-7.3240893E-3,1.4492142E-3,2.278622E-3,-8.729048E-3,1.1173592E0,9.650896E-3,2.6715402E-2,6.813945E-3],"split_indices":[3,4,7,6,0,6,7,0,0,8,0,0,0,0,8,1,0,0,0],"split_type":[0,0,0,0,0,0,0,0,0,0,0,0,0,0,0,0,0,0,0],"sum_hessian":[8.5E1,2.3E1,6.2E1,1.4E1,9E0,4.5E1,1.7E1,5E0,9E0,4.1E1,4E0,4E0,1.3E1,6E0,3.5E1,8E0,2.7E1,5E0,3E0],"tree_param":{"num_deleted":"0","num_feature":"10","num_nodes":"19","size_leaf_vector":"1"}},{"base_weights":[-8.377578E-3,-2.4036694E-1,1.060374E-1,-3.2666137E-3,-1.4958692E-2,-0E0,2.2735329E-1,-8.366107E-3,7.325443E-2,5.2951504E-3,2.0661423E-2,5.370602E-3,-4.5423605E-3],"categories":[],"categories_nodes":[],"categories_segments":[],"categories_sizes":[],"default_left":[0,0,0,0,0,0,0,0,0,0,0,0,0],"id":33,"left_children":[1,3,5,-1,-1,7,9,-1,11,-1,-1,-1,-1],"loss_changes":[2.3216238E0,2.4250782E-1,7.4346894E-1,0E0,0E0,4.0338984E-1,5.1383865E-1,0E0,1.403369E-1,0E0,0E0,0E0,0E0],"parents":[2147483647,0,0,1,1,2,2,5,5,6,6,8,8],"right_children":[2,4,6,-1,-1,8,10,-1,12,-1,-1,-1,-1],"split_conditions":[-7.664348E-1,-4.807302E-1,6.510526E-1,-3.2666137E-3,-1.4958692E-2,3.0554754E-1,-4.0505734E-1,-8.366107E-3,3.0293122E-2,5.2951504E-3,2.0661423E-2,5.370602E-3,-4.5423605E-3],"split_indices":[4,6,0,0,0,5,5,0,2,0,0,0,0],"split_type":[0,0,0,0,0,0,0,0,0,0,0,0,0],"sum_hessian":[8.5E1,2.8E1,5.7E1,8E0,2E1,3.1E1,2.6E1,9E0,2.2E1,1.7E1,9E0,1.9E1,3E0],"tree_param":{"num_deleted":"0","num_feature":"10","num_nodes":"13","size_leaf_vector":"1"}},{"base_weights":[-1.2684389E-2,-2.305053E-1,1.3935947E-1,-2.3704767E-2,-1.5191132E-1,1.6758208E-1,-2.3847152E-3,-3.9680675E-2,-2.4734786E-1,2.0942278E-4,1.9004805E-1,-6.241618E-3,4.609279E-3,-0E0,-1.586794E-2,2.9220548E-1,6.5059313E-3,5.4200036E-3,2.0999078E-2],"categories":[],"categories_nodes":[],"categories_segments":[],"categories_sizes":[],"default_left":[0,0,0,0,0,0,0,0,0,0,0,0,0,0,0,0,0,0,0],"id":34,"left_children":[1,3,5,-1,7,9,-1,11,13,-1,15,-1,-1,-1,-1,17,-1,-1,-1],"loss_changes":[2.8894143E0,5.5458856E-1,2.8921795E-1,0E0,2.7209842E-1,1.4496613E-1,0E0,1.8320194E-1,2.908845E-1,0E0,1.5851355E-1,0E0,0E0,0E0,0E0,2.0695293E-1,0E0,0E0,0E0],"parents":[2147483647,0,0,1,1,2,2,4,4,5,5,7,7,8,8,10,10,15,15],"right_children":[2,4,6,-1,8,10,-1,12,14,-1,16,-1,-1,-1,-1,18,-1,-1,-1],"split_conditions":[-5.411502E-1,-1.3390424E0,1.4048963E0,-2.3704767E-2,3.4287897E-1,-2.6072568E-1,-2.3847152E-3,-7.6973563E-1,-4.807302E-1,2.0942278E-4,-6.151942E-1,-6.241618E-3,4.609279E-3,-0E0,-1.586794E-2,-7.879439E-2,6.5059313E-3,5.4200036E-3,2.0999078E-2],"split_indices":[3,1,5,0,1,3,0,3,6,0,6,0,0,0,0,5,0,0,0],"split_type":[0,0,0,0,0,0,0,0,0,0,0,0,0,0,0,0,0,0,0],"sum_hessian":[8.5E1,3.5E1,5E1,7E0,2.8E1,4.4E1,6E0,1.4E1,1.4E1,6E0,3.8E1,9E0,5E0,3E0,1.1E1,1.2E1,2.6E1,6E0,6E0],"tree_param":{"num_deleted":"0","num_feature":"10","num_nodes":"19","size_leaf_vector":"1"}},{"base_weights":[-1.943195E-3,-2.3097025E-1,1.5330955E-1,-2.2667684E-2,-1.5561177E-1,1.8271235E-1,-7.5347617E-4,-3.4467347E-2,-2.516391E-1,5.129282E-3,2.4104354E-1,-7.796399E-3,4.749149E-3,-2.1169689E-3,-1.5740408E-2,1.824097E-2,5.9715416E-3],"categories":[],"categories_nodes":[],"categories_segments":[],"categories_sizes":[],"default_left":[0,0,0,0,0,0,0,0,0,0,0,0,0,0,0,0,0],"id":35,"left_children":[1,3,5,-1,7,9,-1,11,13,-1,15,-1,-1,-1,-1,-1,-1],"loss_changes":[3.0655277E0,4.5510292E-1,2.7200937E-1,0E0,2.88445E-1,1.4656043E-1,0E0,2.4102862E-1,1.4927536E-1,0E0,2.6926947E-1,0E0,0E0,0E0,0E0,0E0,0E0],"parents":[2147483647,0,0,1,1,2,2,4,4,5,5,7,7,8,8,10,10],"right_children":[2,4,6,-1,8,10,-1,12,14,-1,16,-1,-1,-1,-1,-1,-1],"split_conditions":[-5.411502E-1,-1.3390424E0,1.4048963E0,-2.2667684E-2,3.4287897E-1,-1.8473592E-1,-7.5347617E-4,-8.1168187E-1,-4.807302E-1,5.129282E-3,6.486188E-1,-7.796399E-3,4.749149E-3,-2.1169689E-3,-1.5740408E-2,1.824097E-2,5.9715416E-3],"split_indices":[3,1,5,0,1,5,0,3,6,0,5,0,0,0,0,0,0],"split_type":[0,0,0,0,0,0,0,0,0,0,0,0,0,0,0,0,0],"sum_hessian":[8.4E1,3.4E1,5E1,7E0,2.7E1,4.3E1,7E0,1.3E1,1.4E1,2E1,2.3E1,7E0,6E0,4E0,1E1,1E1,1.3E1],"tree_param":{"num_deleted":"0","num_feature":"10","num_nodes":"17","size_leaf_vector":"1"}},{"base_weights":[1.5441358E-2,-2.2040972E-1,1.2450604E-1,-1.7457705E-2,-1.2583011E-1,1.6426775E-1,-7.5078686E-4,-9.267532E-3,1.704465E-3,4.4426117E-3,2.2819336E-1,1.3554162E-2,-0E0],"categories":[],"categories_nodes":[],"categories_segments":[],"categories_sizes":[],"default_left":[0,0,0,0,0,0,0,0,0,0,0,0,0],"id":36,"left_children":[1,3,5,-1,7,9,-1,-1,-1,-1,11,-1,-1],"loss_changes":[2.1271398E0,2.2515893E-1,3.3360642E-1,0E0,1.8325892E-1,1.6496408E-1,0E0,0E0,0E0,0E0,1.9857562E-1,0E0,0E0],"parents":[2147483647,0,0,1,1,2,2,4,4,5,5,10,10],"right_children":[2,4,6,-1,8,10,-1,-1,-1,-1,12,-1,-1],"split_conditions":[-6.819898E-1,-9.0726733E-1,1.6293676E-1,-1.7457705E-2,4.469892E-1,-1.8473592E-1,-7.5078686E-4,-9.267532E-3,1.704465E-3,4.4426117E-3,1.4024643E0,1.3554162E-2,-0E0],"split_indices":[3,3,7,0,6,5,0,0,0,0,5,0,0],"split_type":[0,0,0,0,0,0,0,0,0,0,0,0,0],"sum_hessian":[8.1E1,2.5E1,5.6E1,9E0,1.6E1,4.4E1,1.2E1,1.2E1,4E0,2.2E1,2.2E1,1.8E1,4E0],"tree_param":{"num_deleted":"0","num_feature":"10","num_nodes":"13","size_leaf_vector":"1"}},{"base_weights":[-0E0,-1.8990645E-1,1.1530854E-1,-1.0973448E-3,-2.3043606E-1,1.7757942E-1,2.2674033E-3,-1.0157658E-3,-1.3158548E-2,1.7922892E-3,2.3756664E-1,2.2948021E-2,8.056014E-3],"categories":[],"categories_nodes":[],"categories_segments":[],"categories_sizes":[],"default_left":[0,0,0,0,0,0,0,0,0,0,0,0,0],"id":37,"left_children":[1,3,5,-1,7,9,-1,-1,-1,-1,11,-1,-1],"loss_changes":[1.9214103E0,1.9434655E-1,2.0926195E-1,0E0,1.4514017E-1,2.0220476E-1,0E0,0E0,0E0,0E0,1.8561435E-1,0E0,0E0],"parents":[2147483647,0,0,1,1,2,2,4,4,5,5,10,10],"right_children":[2,4,6,-1,8,10,-1,-1,-1,-1,12,-1,-1],"split_conditions":[-5.959617E-1,-1.1866541E0,3.4662253E-1,-1.0973448E-3,-1.2940669E0,-1.16818495E-1,2.2674033E-3,-1.0157658E-3,-1.3158548E-2,1.7922892E-3,1.1819877E-1,2.2948021E-2,8.056014E-3],"split_indices":[3,4,9,0,9,3,0,0,0,0,3,0,0],"split_type":[0,0,0,0,0,0,0,0,0,0,0,0,0],"sum_hessian":[8.6E1,3.2E1,5.4E1,7E0,2.5E1,2.7E1,2.7E1,4E0,2.1E1,9E0,1.8E1,3E0,1.5E1],"tree_param":{"num_deleted":"0","num_feature":"10","num_nodes":"13","size_leaf_vector":"1"}},{"base_weights":[1.8339924E-3,-1.9315329E-1,1.2415642E-1,-1.8980792E-2,-1.0684214E-1,2.0009685E-1,3.4212836E-3,1.590029E-2,-1.9639711E-1,1.5428806E-2,3.7824728E-3,-2.1836075E-3,7.803505E-3,1.6814632E-3,-1.3251974E-2],"categories":[],"categories_nodes":[],"categories_segments":[],"categories_sizes":[],"default_left":[0,0,0,0,0,0,0,0,0,0,0,0,0,0,0],"id":38,"left_children":[1,3,5,-1,7,9,-1,11,13,-1,-1,-1,-1,-1,-1],"loss_changes":[2.1159976E0,4.5798433E-1,1.9222796E-1,0E0,2.9597735E-1,2.3523295E-1,0E0,1.0990856E-1,2.688974E-1,0E0,0E0,0E0,0E0,0E0,0E0],"parents":[2147483647,0,0,1,1,2,2,4,4,5,5,7,7,8,8],"right_children":[2,4,6,-1,8,10,-1,12,14,-1,-1,-1,-1,-1,-1],"split_conditions":[-5.959617E-1,-1.1061727E0,-2.8080583E-1,-1.8980792E-2,3.4287897E-1,1.0032114E0,3.4212836E-3,-7.6973563E-1,-2.9326922E-1,1.5428806E-2,3.7824728E-3,-2.1836075E-3,7.803505E-3,1.6814632E-3,-1.3251974E-2],"split_indices":[3,1,6,0,1,1,0,3,7,0,0,0,0,0,0],"split_type":[0,0,0,0,0,0,0,0,0,0,0,0,0,0,0],"sum_hessian":[8.7E1,3.3E1,5.4E1,9E0,2.4E1,2.1E1,3.3E1,1E1,1.4E1,1E1,1.1E1,7E0,3E0,3E0,1.1E1],"tree_param":{"num_deleted":"0","num_feature":"10","num_nodes":"15","size_leaf_vector":"1"}},{"base_weights":[1.1227912E-2,-1.6885605E-1,1.216328E-1,-2.5511384E-3,-2.4153027E-1,1.5646769E-1,-8.253278E-4,-3.0159974E-1,-2.2223236E-3,1.4366128E-3,2.0752864E-1,-6.983901E-4,-1.8484205E-2,2.8510588E-1,5.7789716E-3,2.4140407E-3,1.6597772E-2],"categories":[],"categories_nodes":[],"categories_segments":[],"categories_sizes":[],"default_left":[0,0,0,0,0,0,0,0,0,0,0,0,0,0,0,0,0],"id":39,"left_children":[1,3,5,-1,7,9,-1,11,-1,-1,13,-1,-1,15,-1,-1,-1],"loss_changes":[1.6859167E0,2.3245138E-1,2.716185E-1,0E0,1.7692602E-1,2.5086975E-1,0E0,2.3063648E-1,0E0,0E0,1.4097404E-1,0E0,0E0,1.1237645E-1,0E0,0E0,0E0],"parents":[2147483647,0,0,1,1,2,2,4,4,5,5,7,7,10,10,13,13],"right_children":[2,4,6,-1,8,10,-1,12,-1,-1,14,-1,-1,16,-1,-1,-1],"split_conditions":[-5.411502E-1,-8.515091E-2,7.3506415E-1,-2.5511384E-3,6.398151E-1,-6.4396733E-1,-8.253278E-4,-1.3800186E0,-2.2223236E-3,1.4366128E-3,-2.8080583E-1,-6.983901E-4,-1.8484205E-2,-9.252791E-1,5.7789716E-3,2.4140407E-3,1.6597772E-2],"split_indices":[3,6,6,0,5,5,0,5,0,0,6,0,0,8,0,0,0],"split_type":[0,0,0,0,0,0,0,0,0,0,0,0,0,0,0,0,0],"sum_hessian":[8.3E1,3.1E1,5.2E1,1.3E1,1.8E1,4.2E1,1E1,1.3E1,5E0,1.3E1,2.9E1,3E0,1E1,1.4E1,1.5E1,3E0,1.1E1],"tree_param":{"num_deleted":"0","num_feature":"10","num_nodes":"17","size_leaf_vector":"1"}},{"base_weights":[-1.2660815E-2,-1.7367536E-1,1.0244112E-1,-2.1203795E-2,-1.181729E-1,1.2480593E-1,-0E0,-2.4469692E-2,-1.9353044E-1,3.5795127E-4,1.4933582E-1,-4.857847E-3,4.810093E-3,-0E0,-1.36075765E-2,1.0110326E-2,2.6110027E-3],"categories":[],"categories_nodes":[],"categories_segments":[],"categories_sizes":[],"default_left":[0,0,0,0,0,0,0,0,0,0,0,0,0,0,0,0,0],"id":40,"left_children":[1,3,5,-1,7,9,-1,11,13,-1,15,-1,-1,-1,-1,-1,-1],"loss_changes":[1.6372933E0,4.09881E-1,1.1901045E-1,0E0,1.9942415E-1,1.0448772E-1,0E0,1.4978269E-1,2.520789E-1,0E0,1.3857383E-1,0E0,0E0,0E0,0E0,0E0,0E0],"parents":[2147483647,0,0,1,1,2,2,4,4,5,5,7,7,8,8,10,10],"right_children":[2,4,6,-1,8,10,-1,12,14,-1,16,-1,-1,-1,-1,-1,-1],"split_conditions":[-5.959617E-1,-1.3390424E0,1.53271E0,-2.1203795E-2,3.4287897E-1,-8.25887E-1,-0E0,-7.6973563E-1,-4.807302E-1,3.5795127E-4,-5.7243776E-1,-4.857847E-3,4.810093E-3,-0E0,-1.36075765E-2,1.0110326E-2,2.6110027E-3],"split_indices":[3,1,9,0,1,5,0,3,6,0,7,0,0,0,0,0,0],"split_type":[0,0,0,0,0,0,0,0,0,0,0,0,0,0,0,0,0],"sum_hessian":[8.6E1,3.6E1,5E1,5E0,3.1E1,4.1E1,9E0,1.5E1,1.6E1,8E0,3.3E1,1E1,5E0,5E0,1.1E1,2E1,1.3E1],"tree_param":{"num_deleted":"0","num_feature":"10","num_nodes":"17","size_leaf_vector":"1"}},{"base_weights":[-1.0270446E-3,-2.0364358E-1,1.1137549E-1,-2.9768267E-1,-6.601897E-3,7.5119026E-3,-0E0,-3.0121673E-3,-1.7951215E-2],"categories":[],"categories_nodes":[],"categories_segments":[],"categories_sizes":[],"default_left":[0,0,0,0,0,0,0,0,0],"id":41,"left_children":[1,3,5,7,-1,-1,-1,-1,-1],"loss_changes":[1.9677497E0,1.2646818E-1,2.4318278E-1,1.1122346E-1,0E0,0E0,0E0,0E0,0E0],"parents":[2147483647,0,0,1,1,2,2,3,3],"right_children":[2,4,6,8,-1,-1,-1,-1,-1],"split_conditions":[-6.819898E-1,-9.03612E-1,7.3506415E-1,-4.807302E-1,-6.601897E-3,7.5119026E-3,-0E0,-3.0121673E-3,-1.7951215E-2],"split_indices":[3,3,6,6,0,0,0,0,0],"split_type":[0,0,0,0,0,0,0,0,0],"sum_hessian":[8.4E1,3E1,5.4E1,1.1E1,1.9E1,4E1,1.4E1,3E0,8E0],"tree_param":{"num_deleted":"0","num_feature":"10","num_nodes":"9","size_leaf_vector":"1"}},{"base_weights":[-1.6995937E-2,-2.0156333E-1,1.0680448E-1,-1.8283643E-2,-1.4589301E-1,1.7624989E-1,1.9903283E-3,-1.7738691E-1,1.0377544E-3,2.4506567E-1,3.6471996E-3,-2.5858958E-3,-1.13800345E-2,3.1823912E-3,1.8033653E-2],"categories":[],"categories_nodes":[],"categories_segments":[],"categories_sizes":[],"default_left":[0,0,0,0,0,0,0,0,0,0,0,0,0,0,0],"id":42,"left_children":[1,3,5,-1,7,9,-1,11,-1,13,-1,-1,-1,-1,-1],"loss_changes":[2.0417616E0,2.2439134E-1,2.1797138E-1,0E0,1.7154849E-1,1.2804991E-1,0E0,1.1805493E-1,0E0,2.2823721E-1,0E0,0E0,0E0,0E0,0E0],"parents":[2147483647,0,0,1,1,2,2,4,4,5,5,7,7,9,9],"right_children":[2,4,6,-1,8,10,-1,12,-1,14,-1,-1,-1,-1,-1],"split_conditions":[-5.959617E-1,-1.3390424E0,-9.77342E-2,-1.8283643E-2,6.95681E-1,1.23472035E-1,1.9903283E-3,-4.807302E-1,1.0377544E-3,-5.8701053E-2,3.6471996E-3,-2.5858958E-3,-1.13800345E-2,3.1823912E-3,1.8033653E-2],"split_indices":[3,1,6,0,6,3,0,6,0,3,0,0,0,0,0],"split_type":[0,0,0,0,0,0,0,0,0,0,0,0,0,0,0],"sum_hessian":[8.7E1,3.5E1,5.2E1,7E0,2.8E1,2.4E1,2.8E1,2.4E1,4E0,1.3E1,1.1E1,8E0,1.6E1,6E0,7E0],"tree_param":{"num_deleted":"0","num_feature":"10","num_nodes":"15","size_leaf_vector":"1"}},{"base_weights":[4.387496E-3,-1.9426072E-1,8.544032E-2,-1.7868532E-2,-4.206005E-3,-3.8620469E-3,1.13876686E-1,1.4028929E-1,2.9052928E-4,1.0310777E-3,1.9154139E-1,2.5253823E-1,1.1799673E-3,1.4489657E-2,3.0352242E-4],"categories":[],"categories_nodes":[],"categories_segments":[],"categories_sizes":[],"default_left":[0,0,0,0,0,0,0,0,0,0,0,0,0,0,0],"id":43,"left_children":[1,3,5,-1,-1,-1,7,9,-1,-1,11,13,-1,-1,-1],"loss_changes":[1.3420986E0,3.569494E-1,2.9002327E-1,0E0,0E0,0E0,1.3299876E-1,2.2629601E-1,0E0,0E0,2.5325668E-1,1.5229702E-1,0E0,0E0,0E0],"parents":[2147483647,0,0,1,1,2,2,6,6,7,7,10,10,11,11],"right_children":[2,4,6,-1,-1,-1,8,10,-1,-1,12,14,-1,-1,-1],"split_conditions":[-9.454978E-1,9.1140725E-2,-1.198039E0,-1.7868532E-2,-4.206005E-3,-3.8620469E-3,7.184143E-1,-5.8305913E-1,2.9052928E-4,1.0310777E-3,1.2480922E0,1.2058913E0,1.1799673E-3,1.4489657E-2,3.0352242E-4],"split_indices":[0,5,5,0,0,0,3,2,0,0,2,1,0,0,0],"split_type":[0,0,0,0,0,0,0,0,0,0,0,0,0,0,0],"sum_hessian":[8.2E1,2.3E1,5.9E1,8E0,1.5E1,8E0,5.1E1,4E1,1.1E1,1.3E1,2.7E1,1.9E1,8E0,1.6E1,3E0],"tree_param":{"num_deleted":"0","num_feature":"10","num_nodes":"15","size_leaf_vector":"1"}},{"base_weights":[-2.55113E-2,-1.6981985E-1,8.266936E-2,-1.7483214E-2,-1.1710499E-1,1.0982206E-1,-8.031274E-4,-1.7789962E-2,-9.52183E-3,6.5259277E-3,-1.4369629E-3,-5.3178365E-3,5.067926E-3],"categories":[],"categories_nodes":[],"categories_segments":[],"categories_sizes":[],"default_left":[0,0,0,0,0,0,0,0,0,0,0,0,0],"id":44,"left_children":[1,3,5,-1,7,9,-1,11,-1,-1,-1,-1,-1],"loss_changes":[1.2716656E0,2.4419212E-1,1.3445851E-1,0E0,1.8699443E-1,1.2003502E-1,0E0,1.5901634E-1,0E0,0E0,0E0,0E0,0E0],"parents":[2147483647,0,0,1,1,2,2,4,4,5,5,7,7],"right_children":[2,4,6,-1,8,10,-1,12,-1,-1,-1,-1,-1],"split_conditions":[-5.959617E-1,-1.3390424E0,1.3827225E0,-1.7483214E-2,3.4287897E-1,7.688385E-1,-8.031274E-4,-7.6973563E-1,-9.52183E-3,6.5259277E-3,-1.4369629E-3,-5.3178365E-3,5.067926E-3],"split_indices":[3,1,9,0,1,7,0,3,0,0,0,0,0],"split_type":[0,0,0,0,0,0,0,0,0,0,0,0,0],"sum_hessian":[7.9E1,3.4E1,4.5E1,6E0,2.8E1,3.6E1,9E0,1.3E1,1.5E1,3.2E1,4E0,8E0,5E0],"tree_param":{"num_deleted":"0","num_feature":"10","num_nodes":"13","size_leaf_vector":"1"}},{"base_weights":[-1.4095373E-2,-1.9400345E-1,7.111201E-2,-2.7837327E-1,-4.4316687E-3,-1.8856015E-2,1.3741869E-1,-1.8648697E-2,-3.6705036E-3,-8.52935E-3,1.7821239E-3,3.8130458E-3,1.2185526E-2],"categories":[],"categories_nodes":[],"categories_segments":[],"categories_sizes":[],"default_left":[0,0,0,0,0,0,0,0,0,0,0,0,0],"id":45,"left_children":[1,3,5,7,-1,9,11,-1,-1,-1,-1,-1,-1],"loss_changes":[1.2831037E0,1.7865765E-1,3.4851438E-1,1.9943678E-1,0E0,2.1803324E-1,1.6393614E-1,0E0,0E0,0E0,0E0,0E0,0E0],"parents":[2147483647,0,0,1,1,2,2,3,3,5,5,6,6],"right_children":[2,4,6,8,-1,10,12,-1,-1,-1,-1,-1,-1],"split_conditions":[-7.664348E-1,9.1140725E-2,1.1403254E-1,-9.454978E-1,-4.4316687E-3,3.0554754E-1,-2.106748E-2,-1.8648697E-2,-3.6705036E-3,-8.52935E-3,1.7821239E-3,3.8130458E-3,1.2185526E-2],"split_indices":[4,5,0,0,0,5,5,0,0,0,0,0,0],"split_type":[0,0,0,0,0,0,0,0,0,0,0,0,0],"sum_hessian":[8.1E1,2.6E1,5.5E1,1.3E1,1.3E1,2.3E1,3.2E1,8E0,5E0,6E0,1.7E1,2.2E1,1E1],"tree_param":{"num_deleted":"0","num_feature":"10","num_nodes":"13","size_leaf_vector":"1"}},{"base_weights":[-2.095845E-2,-1.9992161E-1,4.312268E-2,-1.8256504E-2,-4.0400885E-3,-5.1834085E-3,7.466186E-2,1.2235987E-1,1.2345691E-2,9.645138E-4,8.51643E-3,2.293168E-3,-5.544883E-3],"categories":[],"categories_nodes":[],"categories_segments":[],"categories_sizes":[],"default_left":[0,0,0,0,0,0,0,0,0,0,0,0,0],"id":46,"left_children":[1,3,5,-1,-1,-1,7,9,11,-1,-1,-1,-1],"loss_changes":[9.990947E-1,3.7853462E-1,2.965082E-1,0E0,0E0,0E0,1.425538E-1,1.2113184E-1,1.0185345E-1,0E0,0E0,0E0,0E0],"parents":[2147483647,0,0,1,1,2,2,6,6,7,7,8,8],"right_children":[2,4,6,-1,-1,-1,8,10,12,-1,-1,-1,-1],"split_conditions":[-9.454978E-1,9.1140725E-2,-1.198039E0,-1.8256504E-2,-4.0400885E-3,-5.1834085E-3,-5.0407E-1,-5.888137E-1,1.4048963E0,9.645138E-4,8.51643E-3,2.293168E-3,-5.544883E-3],"split_indices":[0,5,5,0,0,0,7,5,5,0,0,0,0],"split_type":[0,0,0,0,0,0,0,0,0,0,0,0,0],"sum_hessian":[8.4E1,2.2E1,6.2E1,8E0,1.4E1,1E1,5.2E1,2.8E1,2.4E1,1E1,1.8E1,2E1,4E0],"tree_param":{"num_deleted":"0","num_feature":"10","num_nodes":"13","size_leaf_vector":"1"}},{"base_weights":[-5.8496734E-3,-1.5752499E-1,5.8683928E-2,-1.1124552E-2,-1.4833605E-2,-5.0745714E-3,8.614493E-2,2.7119976E-3,-7.850196E-3,1.3620873E-2,2.2826842E-3],"categories":[],"categories_nodes":[],"categories_segments":[],"categories_sizes":[],"default_left":[0,0,0,0,0,0,0,0,0,0,0],"id":47,"left_children":[1,3,5,-1,7,-1,9,-1,-1,-1,-1],"loss_changes":[8.8048595E-1,2.232598E-1,2.7992007E-1,0E0,1.1699439E-1,0E0,3.6304608E-1,0E0,0E0,0E0,0E0],"parents":[2147483647,0,0,1,1,2,2,4,4,6,6],"right_children":[2,4,6,-1,8,-1,10,-1,-1,-1,-1],"split_conditions":[-7.680513E-1,-7.648723E-1,-1.198039E0,-1.1124552E-2,-6.505517E-1,-5.0745714E-3,-4.155039E-1,2.7119976E-3,-7.850196E-3,1.3620873E-2,2.2826842E-3],"split_indices":[4,3,5,0,3,0,9,0,0,0,0],"split_type":[0,0,0,0,0,0,0,0,0,0,0],"sum_hessian":[8.7E1,2.6E1,6.1E1,1.7E1,9E0,8E0,5.3E1,6E0,3E0,8E0,4.5E1],"tree_param":{"num_deleted":"0","num_feature":"10","num_nodes":"11","size_leaf_vector":"1"}},{"base_weights":[-6.7998734E-3,-1.4008307E-1,7.238795E-2,-0E0,-8.9264205E-3,9.205519E-2,-1.6165165E-3,4.1465164E-4,1.3164619E-1,1.0102124E-2,2.2903415E-3],"categories":[],"categories_nodes":[],"categories_segments":[],"categories_sizes":[],"default_left":[0,0,0,0,0,0,0,0,0,0,0],"id":48,"left_children":[1,3,5,-1,-1,7,-1,-1,9,-1,-1],"loss_changes":[8.7181675E-1,1.5661609E-1,1.1398411E-1,0E0,0E0,1.3082835E-1,0E0,0E0,1.4120048E-1,0E0,0E0],"parents":[2147483647,0,0,1,1,2,2,5,5,8,8],"right_children":[2,4,6,-1,-1,8,-1,-1,10,-1,-1],"split_conditions":[-5.959617E-1,-4.807302E-1,1.4048963E0,-0E0,-8.9264205E-3,-4.8652673E-1,-1.6165165E-3,4.1465164E-4,-9.77342E-2,1.0102124E-2,2.2903415E-3],"split_indices":[3,6,5,0,0,5,0,0,6,0,0],"split_type":[0,0,0,0,0,0,0,0,0,0,0],"sum_hessian":[8E1,3E1,5E1,7E0,2.3E1,4.3E1,7E0,1.5E1,2.8E1,1.4E1,1.4E1],"tree_param":{"num_deleted":"0","num_feature":"10","num_nodes":"11","size_leaf_vector":"1"}},{"base_weights":[-2.1532262E-2,-8.89343E-3,5.1331297E-2,-4.5537916E-3,7.7416256E-2,1.6174713E-2,2.6606792E-3],"categories":[],"categories_nodes":[],"categories_segments":[],"categories_sizes":[],"default_left":[0,0,0,0,0,0,0],"id":49,"left_children":[1,-1,3,-1,5,-1,-1],"loss_changes":[1.0014291E0,0E0,2.2485118E-1,0E0,2.4885789E-1,0E0,0E0],"parents":[2147483647,0,0,2,2,4,4],"right_children":[2,-1,4,-1,6,-1,-1],"split_conditions":[-7.664348E-1,-8.89343E-3,-1.198039E0,-4.5537916E-3,-5.269257E-1,1.6174713E-2,2.6606792E-3],"split_indices":[4,0,5,0,9,0,0],"split_type":[0,0,0,0,0,0,0],"sum_hessian":[8.5E1,2.7E1,5.8E1,8E0,5E1,3E0,4.7E1],"tree_param":{"num_deleted":"0","num_feature":"10","num_nodes":"7","size_leaf_vector":"1"}},{"base_weights":[-6.263139E-3,-1.2727432E-1,6.337314E-2,-1.4279899E-2,-3.490901E-3,-0E0,1.10514365E-1,2.420809E-3,2.2121838E-1,1.7340584E-2,4.2810277E-3],"categories":[],"categories_nodes":[],"categories_segments":[],"categories_sizes":[],"default_left":[0,0,0,0,0,0,0,0,0,0,0],"id":50,"left_children":[1,3,5,-1,-1,-1,7,-1,9,-1,-1],"loss_changes":[7.5601155E-1,2.4470925E-1,1.7813836E-1,0E0,0E0,0E0,1.8918511E-1,0E0,1.14394546E-1,0E0,0E0],"parents":[2147483647,0,0,1,1,2,2,6,6,8,8],"right_children":[2,4,6,-1,-1,-1,8,-1,10,-1,-1],"split_conditions":[-5.959617E-1,-1.3390424E0,6.510526E-1,-1.4279899E-2,-3.490901E-3,-0E0,-1.8473592E-1,2.420809E-3,-5.381601E-1,1.7340584E-2,4.2810277E-3],"split_indices":[3,1,0,0,0,0,5,0,1,0,0],"split_type":[0,0,0,0,0,0,0,0,0,0,0],"sum_hessian":[8.7E1,3.2E1,5.5E1,7E0,2.5E1,2.3E1,3.2E1,2.2E1,1E1,4E0,6E0],"tree_param":{"num_deleted":"0","num_feature":"10","num_nodes":"11","size_leaf_vector":"1"}},{"base_weights":[-1.0271633E-2,-1.3457306E-1,7.1021795E-2,-1.3655156E-2,-9.125649E-2,1.2137185E-1,1.3847669E-3,-5.5653835E-4,-7.535264E-3,2.5878947E-3,1.251659E-2],"categories":[],"categories_nodes":[],"categories_segments":[],"categories_sizes":[],"default_left":[0,0,0,0,0,0,0,0,0,0,0],"id":51,"left_children":[1,3,5,-1,7,9,-1,-1,-1,-1,-1],"loss_changes":[9.657723E-1,1.6666615E-1,1.0607672E-1,0E0,1.2980357E-1,1.8126965E-1,0E0,0E0,0E0,0E0,0E0],"parents":[2147483647,0,0,1,1,2,2,4,4,5,5],"right_children":[2,4,6,-1,8,10,-1,-1,-1,-1,-1],"split_conditions":[-5.959617E-1,-1.3390424E0,-2.8080583E-1,-1.3655156E-2,3.4287897E-1,-7.879439E-2,1.3847669E-3,-5.5653835E-4,-7.535264E-3,2.5878947E-3,1.251659E-2],"split_indices":[3,1,6,0,1,5,0,0,0,0,0],"split_type":[0,0,0,0,0,0,0,0,0,0,0],"sum_hessian":[9.3E1,3.7E1,5.6E1,7E0,3E1,2.4E1,3.2E1,1.4E1,1.6E1,1.7E1,7E0],"tree_param":{"num_deleted":"0","num_feature":"10","num_nodes":"11","size_leaf_vector":"1"}},{"base_weights":[2.4477842E-3,-6.1842535E-2,1.1599528E-1,-1.2361777E-1,-1.4546239E-4,-3.3549438E-4,8.432495E-3,-4.3972614E-4,-8.43031E-3],"categories":[],"categories_nodes":[],"categories_segments":[],"categories_sizes":[],"default_left":[0,0,0,0,0,0,0,0,0],"id":52,"left_children":[1,3,5,7,-1,-1,-1,-1,-1],"loss_changes":[6.4038914E-1,1.8722165E-1,2.2407746E-1,1.1508566E-1,0E0,0E0,0E0,0E0,0E0],"parents":[2147483647,0,0,1,1,2,2,3,3],"right_children":[2,4,6,8,-1,-1,-1,-1,-1],"split_conditions":[6.510526E-1,-7.664348E-1,-9.252791E-1,-4.807302E-1,-1.4546239E-4,-3.3549438E-4,8.432495E-3,-4.3972614E-4,-8.43031E-3],"split_indices":[0,4,8,6,0,0,0,0,0],"split_type":[0,0,0,0,0,0,0,0,0],"sum_hessian":[8.5E1,5.4E1,3.1E1,2.5E1,2.9E1,9E0,2.2E1,8E0,1.7E1],"tree_param":{"num_deleted":"0","num_feature":"10","num_nodes":"9","size_leaf_vector":"1"}},{"base_weights":[-3.8318725E-3,-1.0022102E-1,8.5837595E-2,-1.2378763E-2,-2.983029E-3,1.8031573E-1,2.4356719E-3,1.392365E-2,-0E0],"categories":[],"categories_nodes":[],"categories_segments":[],"categories_sizes":[],"default_left":[0,0,0,0,0,0,0,0,0],"id":53,"left_children":[1,3,5,-1,-1,7,-1,-1,-1],"loss_changes":[7.274236E-1,1.9955283E-1,1.1913243E-1,0E0,0E0,1.8517905E-1,0E0,0E0,0E0],"parents":[2147483647,0,0,1,1,2,2,5,5],"right_children":[2,4,6,-1,-1,8,-1,-1,-1],"split_conditions":[-1.09648526E-1,-9.03612E-1,1.23472035E-1,-1.2378763E-2,-2.983029E-3,-9.77342E-2,2.4356719E-3,1.392365E-2,-0E0],"split_indices":[3,3,3,0,0,6,0,0,0],"split_type":[0,0,0,0,0,0,0,0,0],"sum_hessian":[8.2E1,4E1,4.2E1,7E0,3.3E1,1E1,3.2E1,6E0,4E0],"tree_param":{"num_deleted":"0","num_feature":"10","num_nodes":"9","size_leaf_vector":"1"}},{"base_weights":[8.585508E-3,-3.8454704E-2,1.09062314E-1,-1.2494478E-1,6.1374676E-4,1.3624755E-2,2.9746594E-3,-3.1289991E-3,-1.5847102E-2],"categories":[],"categories_nodes":[],"categories_segments":[],"categories_sizes":[],"default_left":[0,0,0,0,0,0,0,0,0],"id":54,"left_children":[1,3,5,7,-1,-1,-1,-1,-1],"loss_changes":[4.2718235E-1,2.760573E-1,1.8552488E-1,2.1761256E-1,0E0,0E0,0E0,0E0,0E0],"parents":[2147483647,0,0,1,1,2,2,3,3],"right_children":[2,4,6,8,-1,-1,-1,-1,-1],"split_conditions":[6.510526E-1,9.706039E-2,-4.155039E-1,-1.7575422E-1,6.1374676E-4,1.3624755E-2,2.9746594E-3,-3.1289991E-3,-1.5847102E-2],"split_indices":[0,5,9,9,0,0,0,0,0],"split_type":[0,0,0,0,0,0,0,0,0],"sum_hessian":[8.7E1,5.9E1,2.8E1,2.2E1,3.7E1,5E0,2.3E1,1.8E1,4E0],"tree_param":{"num_deleted":"0","num_feature":"10","num_nodes":"9","size_leaf_vector":"1"}},{"base_weights":[-0E0,-7.6038346E-2,9.3931325E-2,-8.791384E-3,-3.109295E-2,1.2840536E-2,2.6752222E-3,2.4717227E-3,-7.9604395E-2,-7.023677E-3,9.789001E-4],"categories":[],"categories_nodes":[],"categories_segments":[],"categories_sizes":[],"default_left":[0,0,0,0,0,0,0,0,0,0,0],"id":55,"left_children":[1,3,5,-1,7,-1,-1,-1,9,-1,-1],"loss_changes":[6.216285E-1,1.8912438E-1,2.1203154E-1,0E0,1.4367972E-1,0E0,0E0,0E0,1.5369415E-1,0E0,0E0],"parents":[2147483647,0,0,1,1,2,2,4,4,8,8],"right_children":[2,4,6,-1,8,-1,-1,-1,10,-1,-1],"split_conditions":[-1.6305938E-2,-1.1061727E0,1.1819877E-1,-8.791384E-3,3.4287897E-1,1.2840536E-2,2.6752222E-3,2.4717227E-3,-6.819898E-1,-7.023677E-3,9.789001E-4],"split_indices":[3,1,3,0,1,0,0,0,3,0,0],"split_type":[0,0,0,0,0,0,0,0,0,0,0],"sum_hessian":[8.5E1,4.7E1,3.8E1,1.3E1,3.4E1,6E0,3.2E1,1.2E1,2.2E1,1.4E1,8E0],"tree_param":{"num_deleted":"0","num_feature":"10","num_nodes":"11","size_leaf_vector":"1"}},{"base_weights":[1.5944905E-3,-4.024523E-3,1.9189463E-3],"categories":[],"categories_nodes":[],"categories_segments":[],"categories_sizes":[],"default_left":[0,0,0],"id":56,"left_children":[1,-1,-1],"loss_changes":[2.2835605E-1,0E0,0E0],"parents":[2147483647,0,0],"right_children":[2,-1,-1],"split_conditions":[-7.085036E-1,-4.024523E-3,1.9189463E-3],"split_indices":[3,0,0],"split_type":[0,0,0],"sum_hessian":[7.5E1,2.2E1,5.3E1],"tree_param":{"num_deleted":"0","num_feature":"10","num_nodes":"3","size_leaf_vector":"1"}},{"base_weights":[-1.3669128E-2,1.0699162E-1,-5.3976E-2,-0E0,8.394303E-3,-7.178212E-3,-2.9172882E-4],"categories":[],"categories_nodes":[],"categories_segments":[],"categories_sizes":[],"default_left":[0,0,0,0,0,0,0],"id":57,"left_children":[1,3,5,-1,-1,-1,-1],"loss_changes":[4.333211E-1,1.4276162E-1,2.7750003E-1,0E0,0E0,0E0,0E0],"parents":[2147483647,0,0,1,1,2,2],"right_children":[2,4,6,-1,-1,-1,-1],"split_conditions":[-6.151942E-1,-7.4545115E-1,-7.680513E-1,-0E0,8.394303E-3,-7.178212E-3,-2.9172882E-4],"split_indices":[6,5,4,0,0,0,0],"split_type":[0,0,0,0,0,0,0],"sum_hessian":[8.8E1,2.1E1,6.7E1,8E0,1.3E1,2.2E1,4.5E1],"tree_param":{"num_deleted":"0","num_feature":"10","num_nodes":"7","size_leaf_vector":"1"}},{"base_weights":[8.588158E-3,-9.9784E-3,2.869861E-2,1.020283E-1,-0E0,7.723309E-4,9.719084E-3],"categories":[],"categories_nodes":[],"categories_segments":[],"categories_sizes":[],"default_left":[0,0,0,0,0,0,0],"id":58,"left_children":[1,-1,3,5,-1,-1,-1],"loss_changes":[3.3608785E-1,0E0,1.6559707E-1,1.5192902E-1,0E0,0E0,0E0],"parents":[2147483647,0,0,2,2,3,3],"right_children":[2,-1,4,6,-1,-1,-1],"split_conditions":[-1.363023E0,-9.9784E-3,-6.9082415E-1,-3.7164292E-1,-0E0,7.723309E-4,9.719084E-3],"split_indices":[1,0,6,5,0,0,0],"split_type":[0,0,0,0,0,0,0],"sum_hessian":[8.2E1,6E0,7.6E1,2.1E1,5.5E1,1.2E1,9E0],"tree_param":{"num_deleted":"0","num_feature":"10","num_nodes":"7","size_leaf_vector":"1"}},{"base_weights":[4.087938E-3,-8.641118E-2,4.15227E-2,-9.248594E-3,-8.5296655E-5,-6.229227E-3,5.6590725E-2,5.0414703E-3,6.494213E-4],"categories":[],"categories_nodes":[],"categories_segments":[],"categories_sizes":[],"default_left":[0,0,0,0,0,0,0,0,0],"id":59,"left_children":[1,3,5,-1,-1,-1,7,-1,-1],"loss_changes":[2.9383892E-1,1.8973187E-1,1.5793413E-1,0E0,0E0,0E0,1.01114154E-1,0E0,0E0],"parents":[2147483647,0,0,1,1,2,2,6,6],"right_children":[2,4,6,-1,-1,-1,8,-1,-1],"split_conditions":[-7.085036E-1,-1.0914849E0,-1.198039E0,-9.248594E-3,-8.5296655E-5,-6.229227E-3,-9.77342E-2,5.0414703E-3,6.494213E-4],"split_indices":[3,4,5,0,0,0,6,0,0],"split_type":[0,0,0,0,0,0,0,0,0],"sum_hessian":[8.6E1,2.4E1,6.2E1,1E1,1.4E1,4E0,5.8E1,2.7E1,3.1E1],"tree_param":{"num_deleted":"0","num_feature":"10","num_nodes":"9","size_leaf_vector":"1"}},{"base_weights":[-7.6542282E-3,-5.2345786E-3,4.359622E-2,1.0544183E-1,-0E0,7.9767173E-4,1.0509071E-2],"categories":[],"categories_nodes":[],"categories_segments":[],"categories_sizes":[],"default_left":[0,0,0,0,0,0,0],"id":60,"left_children":[1,-1,3,5,-1,-1,-1],"loss_changes":[4.284231E-1,0E0,1.5117888E-1,1.8961188E-1,0E0,0E0,0E0],"parents":[2147483647,0,0,2,2,3,3],"right_children":[2,-1,4,6,-1,-1,-1],"split_conditions":[-6.819898E-1,-5.2345786E-3,-6.1957556E-1,-3.7164292E-1,-0E0,7.9767173E-4,1.0509071E-2],"split_indices":[3,0,6,5,0,0,0],"split_type":[0,0,0,0,0,0,0],"sum_hessian":[8.3E1,2.9E1,5.4E1,2.2E1,3.2E1,1.3E1,9E0],"tree_param":{"num_deleted":"0","num_feature":"10","num_nodes":"7","size_leaf_vector":"1"}},{"base_weights":[-0E0,-9.545017E-2,4.3957856E-2,-7.040256E-3,-0E0,1.0223247E-1,3.4255043E-4,1.0298664E-2,6.8433606E-4],"categories":[],"categories_nodes":[],"categories_segments":[],"categories_sizes":[],"default_left":[0,0,0,0,0,0,0,0,0],"id":61,"left_children":[1,3,5,-1,-1,7,-1,-1,-1],"loss_changes":[3.7490276E-1,1.21594995E-1,1.2245928E-1,0E0,0E0,1.8648846E-1,0E0,0E0,0E0],"parents":[2147483647,0,0,1,1,2,2,5,5],"right_children":[2,4,6,-1,-1,8,-1,-1,-1],"split_conditions":[-7.085036E-1,-7.406182E-1,-2.8080583E-1,-7.040256E-3,-0E0,6.251604E-1,3.4255043E-4,1.0298664E-2,6.8433606E-4],"split_indices":[3,2,6,0,0,1,0,0,0],"split_type":[0,0,0,0,0,0,0,0,0],"sum_hessian":[8.8E1,2.7E1,6.1E1,1.8E1,9E0,2.2E1,3.9E1,9E0,1.3E1],"tree_param":{"num_deleted":"0","num_feature":"10","num_nodes":"9","size_leaf_vector":"1"}},{"base_weights":[4.5749097E-4,-4.835963E-3,5.0823405E-2,-3.930366E-3,7.611618E-2,1.7223826E-1,1.8256657E-3,1.1072971E-2,-0E0],"categories":[],"categories_nodes":[],"categories_segments":[],"categories_sizes":[],"default_left":[0,0,0,0,0,0,0,0,0],"id":62,"left_children":[1,-1,3,-1,5,7,-1,-1,-1],"loss_changes":[4.0656087E-1,0E0,1.8905924E-1,0E0,1.5555793E-1,1.0478452E-1,0E0,0E0,0E0],"parents":[2147483647,0,0,2,2,4,4,5,5],"right_children":[2,-1,4,-1,6,8,-1,-1,-1],"split_conditions":[-7.085036E-1,-4.835963E-3,-1.1188767E0,-3.930366E-3,-5.117496E-1,6.395915E-1,1.8256657E-3,1.1072971E-2,-0E0],"split_indices":[3,0,1,0,1,7,0,0,0],"split_type":[0,0,0,0,0,0,0,0,0],"sum_hessian":[8.2E1,2.7E1,5.5E1,8E0,4.7E1,1.2E1,3.5E1,9E0,3E0],"tree_param":{"num_deleted":"0","num_feature":"10","num_nodes":"9","size_leaf_vector":"1"}},{"base_weights":[9.963606E-4,-1.0924758E-1,2.3371999E-3,-1.192603E-2,-2.8705746E-3],"categories":[],"categories_nodes":[],"categories_segments":[],"categories_sizes":[],"default_left":[0,0,0,0,0],"id":63,"left_children":[1,3,-1,-1,-1],"loss_changes":[4.1745844E-1,1.1753714E-1,0E0,0E0,0E0],"parents":[2147483647,0,0,1,1],"right_children":[2,4,-1,-1,-1],"split_conditions":[-7.664348E-1,-1.3390424E0,2.3371999E-3,-1.192603E-2,-2.8705746E-3],"split_indices":[4,1,0,0,0],"split_type":[0,0,0,0,0],"sum_hessian":[8.2E1,2.3E1,5.9E1,5E0,1.8E1],"tree_param":{"num_deleted":"0","num_feature":"10","num_nodes":"5","size_leaf_vector":"1"}},{"base_weights":[-1.277455E-2,-8.545164E-2,7.790608E-4,-1.00216465E-2,-9.988041E-5],"categories":[],"categories_nodes":[],"categories_segments":[],"categories_sizes":[],"default_left":[0,0,0,0,0],"id":64,"left_children":[1,3,-1,-1,-1],"loss_changes":[1.8348773E-1,2.1924782E-1,0E0,0E0,0E0],"parents":[2147483647,0,0,1,1],"right_children":[2,4,-1,-1,-1],"split_conditions":[-9.099312E-1,9.1140725E-2,7.790608E-4,-1.00216465E-2,-9.988041E-5],"split_indices":[0,5,0,0,0],"split_type":[0,0,0,0,0],"sum_hessian":[8.4E1,2.4E1,6E1,9E0,1.5E1],"tree_param":{"num_deleted":"0","num_feature":"10","num_nodes":"5","size_leaf_vector":"1"}},{"base_weights":[-9.062786E-3,-8.744806E-2,2.0029233E-3,-1.3927403E-3,-8.385274E-3],"categories":[],"categories_nodes":[],"categories_segments":[],"categories_sizes":[],"default_left":[0,0,0,0,0],"id":65,"left_children":[1,3,-1,-1,-1],"loss_changes":[3.470757E-1,1.4317054E-1,0E0,0E0,0E0],"parents":[2147483647,0,0,1,1],"right_children":[2,4,-1,-1,-1],"split_conditions":[-5.959617E-1,1.4164178E-1,2.0029233E-3,-1.3927403E-3,-8.385274E-3],"split_indices":[3,6,0,0,0],"split_type":[0,0,0,0,0],"sum_hessian":[8.7E1,3.4E1,5.3E1,2.1E1,1.3E1],"tree_param":{"num_deleted":"0","num_feature":"10","num_nodes":"5","size_leaf_vector":"1"}},{"base_weights":[-6.1597615E-3,-7.315332E-2,5.8545012E-2,-1.0772737E-1,1.7399483E-3,8.882036E-3,1.0629984E-3,-7.130814E-3,1.1481942E-3],"categories":[],"categories_nodes":[],"categories_segments":[],"categories_sizes":[],"default_left":[0,0,0,0,0,0,0,0,0],"id":66,"left_children":[1,3,5,7,-1,-1,-1,-1,-1],"loss_changes":[3.5686263E-1,1.6406786E-1,1.5839331E-1,1.6114983E-1,0E0,0E0,0E0,0E0,0E0],"parents":[2147483647,0,0,1,1,2,2,3,3],"right_children":[2,4,6,8,-1,-1,-1,-1,-1],"split_conditions":[-1.09648526E-1,6.4813733E-1,1.23472035E-1,4.78033E-1,1.7399483E-3,8.882036E-3,1.0629984E-3,-7.130814E-3,1.1481942E-3],"split_indices":[3,5,3,0,0,0,0,0,0],"split_type":[0,0,0,0,0,0,0,0,0],"sum_hessian":[8E1,4E1,4E1,3.1E1,9E0,8E0,3.2E1,2.5E1,6E0],"tree_param":{"num_deleted":"0","num_feature":"10","num_nodes":"9","size_leaf_vector":"1"}},{"base_weights":[-6.2329075E-3,-4.303082E-3,1.151394E-3],"categories":[],"categories_nodes":[],"categories_segments":[],"categories_sizes":[],"default_left":[0,0,0],"id":67,"left_children":[1,-1,-1],"loss_changes":[2.1617597E-1,0E0,0E0],"parents":[2147483647,0,0],"right_children":[2,-1,-1],"split_conditions":[-7.664348E-1,-4.303082E-3,1.151394E-3],"split_indices":[4,0,0],"split_type":[0,0,0],"sum_hessian":[8.8E1,2.4E1,6.4E1],"tree_param":{"num_deleted":"0","num_feature":"10","num_nodes":"3","size_leaf_vector":"1"}},{"base_weights":[-3.6442194E-3,-5.437565E-2,4.8483174E-2,-1.4145601E-1,-4.2961453E-4,4.3024306E-4,7.187187E-3,-0E0,-1.0130753E-2],"categories":[],"categories_nodes":[],"categories_segments":[],"categories_sizes":[],"default_left":[0,0,0,0,0,0,0,0,0],"id":68,"left_children":[1,3,5,7,-1,-1,-1,-1,-1],"loss_changes":[2.2007431E-1,1.5521348E-1,1.3548145E-1,1.3039133E-1,0E0,0E0,0E0,0E0,0E0],"parents":[2147483647,0,0,1,1,2,2,3,3],"right_children":[2,4,6,8,-1,-1,-1,-1,-1],"split_conditions":[1.1403254E-1,9.1140725E-2,-2.106748E-2,-4.3476316E-1,-4.2961453E-4,4.3024306E-4,7.187187E-3,-0E0,-1.0130753E-2],"split_indices":[0,5,5,6,0,0,0,0,0],"split_type":[0,0,0,0,0,0,0,0,0],"sum_hessian":[8.1E1,4.2E1,3.9E1,1.3E1,2.9E1,2.9E1,1E1,4E0,9E0],"tree_param":{"num_deleted":"0","num_feature":"10","num_nodes":"9","size_leaf_vector":"1"}},{"base_weights":[6.7089084E-3,1.2586833E-3,-6.2147067E-3],"categories":[],"categories_nodes":[],"categories_segments":[],"categories_sizes":[],"default_left":[0,0,0],"id":69,"left_children":[1,-1,-1],"loss_changes":[1.9882672E-1,0E0,0E0],"parents":[2147483647,0,0],"right_children":[2,-1,-1],"split_conditions":[1.4010394E0,1.2586833E-3,-6.2147067E-3],"split_indices":[7,0,0],"split_type":[0,0,0],"sum_hessian":[8.4E1,7.5E1,9E0],"tree_param":{"num_deleted":"0","num_feature":"10","num_nodes":"3","size_leaf_vector":"1"}},{"base_weights":[6.76243E-3,3.678494E-3,-3.9054368E-2,-8.122512E-3,-4.2879497E-4],"categories":[],"categories_nodes":[],"categories_segments":[],"categories_sizes":[],"default_left":[0,0,0,0,0],"id":70,"left_children":[1,-1,3,-1,-1],"loss_changes":[2.6037973E-1,0E0,1.6578916E-1,0E0,0E0],"parents":[2147483647,0,0,2,2],"right_children":[2,-1,4,-1,-1],"split_conditions":[-2.8080583E-1,3.678494E-3,-9.03612E-1,-8.122512E-3,-4.2879497E-4],"split_indices":[6,0,3,0,0],"split_type":[0,0,0,0,0],"sum_hessian":[8.2E1,3.4E1,4.8E1,8E0,4E1],"tree_param":{"num_deleted":"0","num_feature":"10","num_nodes":"5","size_leaf_vector":"1"}},{"base_weights":[-4.88257E-3,-4.850361E-3,1.4815672E-2,2.2653171E-3,-1.8939894E-3],"categories":[],"categories_nodes":[],"categories_segments":[],"categories_sizes":[],"default_left":[0,0,0,0,0],"id":71,"left_children":[1,-1,3,-1,-1],"loss_changes":[1.6390534E-1,0E0,1.14929244E-1,0E0,0E0],"parents":[2147483647,0,0,2,2],"right_children":[2,-1,4,-1,-1],"split_conditions":[-1.1188767E0,-4.850361E-3,1.6293676E-1,2.2653171E-3,-1.8939894E-3],"split_indices":[1,0,7,0,0],"split_type":[0,0,0,0,0],"sum_hessian":[8.4E1,1.5E1,6.9E1,4.5E1,2.4E1],"tree_param":{"num_deleted":"0","num_feature":"10","num_nodes":"5","size_leaf_vector":"1"}},{"base_weights":[-2.308887E-3,-5.826327E-3,2.441588E-2,-1.3059083E-3,8.678707E-2,9.951481E-3,2.1698985E-3],"categories":[],"categories_nodes":[],"categories_segments":[],"categories_sizes":[],"default_left":[0,0,0,0,0,0,0],"id":72,"left_children":[1,-1,3,-1,5,-1,-1],"loss_changes":[2.7151355E-1,0E0,2.2581251E-1,0E0,1.22963026E-1,0E0,0E0],"parents":[2147483647,0,0,2,2,4,4],"right_children":[2,-1,4,-1,6,-1,-1],"split_conditions":[-1.1061727E0,-5.826327E-3,-1.8473592E-1,-1.3059083E-3,-6.1957556E-1,9.951481E-3,2.1698985E-3],"split_indices":[1,0,5,0,6,0,0],"split_type":[0,0,0,0,0,0,0],"sum_hessian":[8.4E1,1.6E1,6.8E1,3.7E1,3.1E1,7E0,2.4E1],"tree_param":{"num_deleted":"0","num_feature":"10","num_nodes":"7","size_leaf_vector":"1"}},{"base_weights":[6.4346856E-3,-3.8642802E-3,4.6264384E-2,1.060656E-2,1.3928433E-3],"categories":[],"categories_nodes":[],"categories_segments":[],"categories_sizes":[],"default_left":[0,0,0,0,0],"id":73,"left_children":[1,-1,3,-1,-1],"loss_changes":[2.7390686E-1,0E0,1.4412409E-1,0E0,0E0],"parents":[2147483647,0,0,2,2],"right_children":[2,-1,4,-1,-1],"split_conditions":[-7.085036E-1,-3.8642802E-3,-5.269257E-1,1.060656E-2,1.3928433E-3],"split_indices":[3,0,9,0,0],"split_type":[0,0,0,0,0],"sum_hessian":[8.1E1,2.5E1,5.6E1,4E0,5.2E1],"tree_param":{"num_deleted":"0","num_feature":"10","num_nodes":"5","size_leaf_vector":"1"}},{"base_weights":[-7.281152E-3,-4.483976E-3,4.0036417E-4],"categories":[],"categories_nodes":[],"categories_segments":[],"categories_sizes":[],"default_left":[0,0,0],"id":74,"left_children":[1,-1,-1],"loss_changes":[1.046257E-1,0E0,0E0],"parents":[2147483647,0,0],"right_children":[2,-1,-1],"split_conditions":[-1.1188767E0,-4.483976E-3,4.0036417E-4],"split_indices":[1,0,0],"split_type":[0,0,0],"sum_hessian":[7.5E1,1.2E1,6.3E1],"tree_param":{"num_deleted":"0","num_feature":"10","num_nodes":"3","size_leaf_vector":"1"}},{"base_weights":[-3.6863126E-3,-6.357933E-3,5.9462397E-4],"categories":[],"categories_nodes":[],"categories_segments":[],"categories_sizes":[],"default_left":[0,0,0],"id":75,"left_children":[1,-1,-1],"loss_changes":[1.8808188E-1,0E0,0E0],"parents":[2147483647,0,0],"right_children":[2,-1,-1],"split_conditions":[-9.03612E-1,-6.357933E-3,5.9462397E-4],"split_indices":[3,0,0],"split_type":[0,0,0],"sum_hessian":[9E1,1E1,8E1],"tree_param":{"num_deleted":"0","num_feature":"10","num_nodes":"3","size_leaf_vector":"1"}},{"base_weights":[-8.190606E-3,-5.0303047E-3,1.3478745E-2,7.144121E-2,-6.1093835E-4,-1.7427711E-3,1.2295022E-1,1.3141053E-2,8.366347E-4],"categories":[],"categories_nodes":[],"categories_segments":[],"categories_sizes":[],"default_left":[0,0,0,0,0,0,0,0,0],"id":76,"left_children":[1,-1,3,5,-1,-1,7,-1,-1],"loss_changes":[1.6827288E-1,0E0,1.021226E-1,1.2807488E-1,0E0,0E0,1.9049793E-1,0E0,0E0],"parents":[2147483647,0,0,2,2,3,3,6,6],"right_children":[2,-1,4,6,-1,-1,8,-1,-1],"split_conditions":[-1.1188767E0,-5.0303047E-3,3.4287897E-1,-7.250268E-1,-6.1093835E-4,-1.7427711E-3,1.5878344E-1,1.3141053E-2,8.366347E-4],"split_indices":[1,0,1,7,0,0,7,0,0],"split_type":[0,0,0,0,0,0,0,0,0],"sum_hessian":[7.8E1,1.5E1,6.3E1,2E1,4.3E1,6E0,1.4E1,5E0,9E0],"tree_param":{"num_deleted":"0","num_feature":"10","num_nodes":"9","size_leaf_vector":"1"}},{"base_weights":[3.541361E-3],"categories":[],"categories_nodes":[],"categories_segments":[],"categories_sizes":[],"default_left":[0],"id":77,"left_children":[-1],"loss_changes":[0E0],"parents":[2147483647],"right_children":[-1],"split_conditions":[1.7706805E-4],"split_indices":[0],"split_type":[0],"sum_hessian":[8.9E1],"tree_param":{"num_deleted":"0","num_feature":"10","num_nodes":"1","size_leaf_vector":"1"}},{"base_weights":[-4.2760577E-3,-5.3480635E-3,4.9428846E-4],"categories":[],"categories_nodes":[],"categories_segments":[],"categories_sizes":[],"default_left":[0,0,0],"id":78,"left_children":[1,-1,-1],"loss_changes":[1.3146438E-1,0E0,0E0],"parents":[2147483647,0,0],"right_children":[2,-1,-1],"split_conditions":[-9.03612E-1,-5.3480635E-3,4.9428846E-4],"split_indices":[3,0,0],"split_type":[0,0,0],"sum_hessian":[8.2E1,1E1,7.2E1],"tree_param":{"num_deleted":"0","num_feature":"10","num_nodes":"3","size_leaf_vector":"1"}},{"base_weights":[-6.064488E-4,-1.1184511E-3,6.9504745E-2,1.03852255E-2,7.8616384E-4],"categories":[],"categories_nodes":[],"categories_segments":[],"categories_sizes":[],"default_left":[0,0,0,0,0],"id":79,"left_children":[1,-1,3,-1,-1],"loss_changes":[1.3111156E-1,0E0,1.2304315E-1,0E0,0E0],"parents":[2147483647,0,0,2,2],"right_children":[2,-1,4,-1,-1],"split_conditions":[1.0852926E0,-1.1184511E-3,-5.117496E-1,1.03852255E-2,7.8616384E-4],"split_indices":[0,0,1,0,0],"split_type":[0,0,0,0,0],"sum_hessian":[8.7E1,6.8E1,1.9E1,4E0,1.5E1],"tree_param":{"num_deleted":"0","num_feature":"10","num_nodes":"5","size_leaf_vector":"1"}},{"base_weights":[1.0839219E-2],"categories":[],"categories_nodes":[],"categories_segments":[],"categories_sizes":[],"default_left":[0],"id":80,"left_children":[-1],"loss_changes":[0E0],"parents":[2147483647],"right_children":[-1],"split_conditions":[5.41961E-4],"split_indices":[0],"split_type":[0],"sum_hessian":[8.5E1],"tree_param":{"num_deleted":"0","num_feature":"10","num_nodes":"1","size_leaf_vector":"1"}},{"base_weights":[6.399058E-3,-9.086504E-4,5.3748805E-2,1.1205066E-2,7.5376465E-4],"categories":[],"categories_nodes":[],"categories_segments":[],"categories_sizes":[],"default_left":[0,0,0,0,0],"id":81,"left_children":[1,-1,3,-1,-1],"loss_changes":[1.0110328E-1,0E0,1.7034787E-1,0E0,0E0],"parents":[2147483647,0,0,2,2],"right_children":[2,-1,4,-1,-1],"split_conditions":[6.510526E-1,-9.086504E-4,-4.155039E-1,1.1205066E-2,7.5376465E-4],"split_indices":[0,0,9,0,0],"split_type":[0,0,0,0,0],"sum_hessian":[8.2E1,5.3E1,2.9E1,4E0,2.5E1],"tree_param":{"num_deleted":"0","num_feature":"10","num_nodes":"5","size_leaf_vector":"1"}},{"base_weights":[-6.5325894E-3,-5.351662E-3,1.3383499E-2,-2.6664285E-3,1.9466709E-3],"categories":[],"categories_nodes":[],"categories_segments":[],"categories_sizes":[],"default_left":[0,0,0,0,0],"id":82,"left_children":[1,-1,3,-1,-1],"loss_changes":[1.8093173E-1,0E0,1.21655405E-1,0E0,0E0],"parents":[2147483647,0,0,2,2],"right_children":[2,-1,4,-1,-1],"split_conditions":[-1.1061727E0,-5.351662E-3,-6.819898E-1,-2.6664285E-3,1.9466709E-3],"split_indices":[1,0,3,0,0],"split_type":[0,0,0,0,0],"sum_hessian":[8.4E1,1.4E1,7E1,1.8E1,5.2E1],"tree_param":{"num_deleted":"0","num_feature":"10","num_nodes":"5","size_leaf_vector":"1"}},{"base_weights":[-0E0,-3.8442032E-3,1.5301093E-3],"categories":[],"categories_nodes":[],"categories_segments":[],"categories_sizes":[],"default_left":[0,0,0],"id":83,"left_children":[1,-1,-1],"loss_changes":[2.1362573E-1,0E0,0E0],"parents":[2147483647,0,0],"right_children":[2,-1,-1],"split_conditions":[-7.664348E-1,-3.8442032E-3,1.5301093E-3],"split_indices":[4,0,0],"split_type":[0,0,0],"sum_hessian":[8.8E1,2.5E1,6.3E1],"tree_param":{"num_deleted":"0","num_feature":"10","num_nodes":"3","size_leaf_vector":"1"}},{"base_weights":[-6.2514045E-3],"categories":[],"categories_nodes":[],"categories_segments":[],"categories_sizes":[],"default_left":[0],"id":84,"left_children":[-1],"loss_changes":[0E0],"parents":[2147483647],"right_children":[-1],"split_conditions":[-3.1257022E-4],"split_indices":[0],"split_type":[0],"sum_hessian":[9E1],"tree_param":{"num_deleted":"0","num_feature":"10","num_nodes":"1","size_leaf_vector":"1"}},{"base_weights":[-8.7507395E-3,-5.5323623E-2,3.78684E-2,-8.2449615E-3,-1.135461E-3,7.260547E-3,7.734285E-7],"categories":[],"categories_nodes":[],"categories_segments":[],"categories_sizes":[],"default_left":[0,0,0,0,0,0,0],"id":85,"left_children":[1,3,5,-1,-1,-1,-1],"loss_changes":[1.8404913E-1,1.3116536E-1,1.5206756E-1,0E0,0E0,0E0,0E0],"parents":[2147483647,0,0,1,1,2,2],"right_children":[2,4,6,-1,-1,-1,-1],"split_conditions":[-7.879439E-2,-9.454978E-1,-6.1957556E-1,-8.2449615E-3,-1.135461E-3,7.260547E-3,7.734285E-7],"split_indices":[5,0,6,0,0,0,0],"split_type":[0,0,0,0,0,0,0],"sum_hessian":[8.2E1,4.2E1,4E1,8E0,3.4E1,9E0,3.1E1],"tree_param":{"num_deleted":"0","num_feature":"10","num_nodes":"7","size_leaf_vector":"1"}},{"base_weights":[7.4658706E-3,-2.900997E-3,1.3470784E-3],"categories":[],"categories_nodes":[],"categories_segments":[],"categories_sizes":[],"default_left":[0,0,0],"id":86,"left_children":[1,-1,-1],"loss_changes":[1.1451505E-1,0E0,0E0],"parents":[2147483647,0,0],"right_children":[2,-1,-1],"split_conditions":[-7.6973563E-1,-2.900997E-3,1.3470784E-3],"split_indices":[3,0,0],"split_type":[0,0,0],"sum_hessian":[9E1,1.9E1,7.1E1],"tree_param":{"num_deleted":"0","num_feature":"10","num_nodes":"3","size_leaf_vector":"1"}},{"base_weights":[-1.3303888E-3,-3.8751978E-3,1.8187443E-2,8.465168E-2,-9.126724E-4,-0E0,7.7303993E-3],"categories":[],"categories_nodes":[],"categories_segments":[],"categories_sizes":[],"default_left":[0,0,0,0,0,0,0],"id":87,"left_children":[1,-1,3,5,-1,-1,-1],"loss_changes":[1.4412159E-1,0E0,1.8499216E-1,1.6507494E-1,0E0,0E0,0E0],"parents":[2147483647,0,0,2,2,3,3],"right_children":[2,-1,4,6,-1,-1,-1],"split_conditions":[-1.1061727E0,-3.8751978E-3,3.4287897E-1,-6.408056E-1,-9.126724E-4,-0E0,7.7303993E-3],"split_indices":[1,0,1,7,0,0,0],"split_type":[0,0,0,0,0,0,0],"sum_hessian":[9.1E1,1.9E1,7.2E1,2.6E1,4.6E1,1.2E1,1.4E1],"tree_param":{"num_deleted":"0","num_feature":"10","num_nodes":"7","size_leaf_vector":"1"}},{"base_weights":[-5.548166E-3],"categories":[],"categories_nodes":[],"categories_segments":[],"categories_sizes":[],"default_left":[0],"id":88,"left_children":[-1],"loss_changes":[0E0],"parents":[2147483647],"right_children":[-1],"split_conditions":[-2.774083E-4],"split_indices":[0],"split_type":[0],"sum_hessian":[8.1E1],"tree_param":{"num_deleted":"0","num_feature":"10","num_nodes":"1","size_leaf_vector":"1"}},{"base_weights":[1.3848394E-2,1.2118107E-3,-5.6014294E-3],"categories":[],"categories_nodes":[],"categories_segments":[],"categories_sizes":[],"default_left":[0,0,0],"id":89,"left_children":[1,-1,-1],"loss_changes":[1.0638843E-1,0E0,0E0],"parents":[2147483647,0,0],"right_children":[2,-1,-1],"split_conditions":[1.6967726E0,1.2118107E-3,-5.6014294E-3],"split_indices":[6,0,0],"split_type":[0,0,0],"sum_hessian":[8.5E1,8E1,5E0],"tree_param":{"num_deleted":"0","num_feature":"10","num_nodes":"3","size_leaf_vector":"1"}},{"base_weights":[7.5796675E-3,-5.2160756E-3,2.4642091E-2,7.647972E-2,-9.877922E-4,6.566185E-3,-0E0],"categories":[],"categories_nodes":[],"categories_segments":[],"categories_sizes":[],"default_left":[0,0,0,0,0,0,0],"id":90,"left_children":[1,-1,3,5,-1,-1,-1],"loss_changes":[1.4734718E-1,0E0,1.7058864E-1,1.4604726E-1,0E0,0E0,0E0],"parents":[2147483647,0,0,2,2,3,3],"right_children":[2,-1,4,6,-1,-1,-1],"split_conditions":[-1.198039E0,-5.2160756E-3,-9.77342E-2,1.0032114E0,-9.877922E-4,6.566185E-3,-0E0],"split_indices":[5,0,6,1,0,0,0],"split_type":[0,0,0,0,0,0,0],"sum_hessian":[7.9E1,9E0,7E1,3.3E1,3.7E1,1.9E1,1.4E1],"tree_param":{"num_deleted":"0","num_feature":"10","num_nodes":"7","size_leaf_vector":"1"}},{"base_weights":[-1.7789172E-2,-5.282583E-2,1.0661817E-3,-7.6143467E-3,-1.1315063E-3],"categories":[],"categories_nodes":[],"categories_segments":[],"categories_sizes":[],"default_left":[0,0,0,0,0],"id":91,"left_children":[1,3,-1,-1,-1],"loss_changes":[1.2212951E-1,1.20216995E-1,0E0,0E0,0E0],"parents":[2147483647,0,0,1,1],"right_children":[2,4,-1,-1,-1],"split_conditions":[9.1140725E-2,-9.454978E-1,1.0661817E-3,-7.6143467E-3,-1.1315063E-3],"split_indices":[5,0,0,0,0],"split_type":[0,0,0,0,0],"sum_hessian":[8.5E1,4.6E1,3.9E1,9E0,3.7E1],"tree_param":{"num_deleted":"0","num_feature":"10","num_nodes":"5","size_leaf_vector":"1"}},{"base_weights":[-5.51692E-3,-4.6312897E-3,8.509193E-3,3.3425118E-3,-2.4300562E-2,-4.8059733E-3,1.5227355E-4],"categories":[],"categories_nodes":[],"categories_segments":[],"categories_sizes":[],"default_left":[0,0,0,0,0,0,0],"id":92,"left_children":[1,-1,3,-1,5,-1,-1],"loss_changes":[1.1427454E-1,0E0,1.4752698E-1,0E0,1.0190635E-1,0E0,0E0],"parents":[2147483647,0,0,2,2,4,4],"right_children":[2,-1,4,-1,6,-1,-1],"split_conditions":[-1.2684218E0,-4.6312897E-3,3.4287897E-1,3.3425118E-3,-6.819898E-1,-4.8059733E-3,1.5227355E-4],"split_indices":[1,0,1,0,3,0,0],"split_type":[0,0,0,0,0,0,0],"sum_hessian":[8.5E1,1.2E1,7.3E1,2.7E1,4.6E1,1.3E1,3.3E1],"tree_param":{"num_deleted":"0","num_feature":"10","num_nodes":"7","size_leaf_vector":"1"}},{"base_weights":[-2.1609718E-3,-1.9564077E-3,4.0303383E-2,7.174062E-3,3.5012394E-4],"categories":[],"categories_nodes":[],"categories_segments":[],"categories_sizes":[],"default_left":[0,0,0,0,0],"id":93,"left_children":[1,-1,3,-1,-1],"loss_changes":[1.2547268E-1,0E0,1.0763988E-1,0E0,0E0],"parents":[2147483647,0,0,2,2],"right_children":[2,-1,4,-1,-1],"split_conditions":[-1.6305938E-2,-1.9564077E-3,1.23472035E-1,7.174062E-3,3.5012394E-4],"split_indices":[3,0,3,0,0],"split_type":[0,0,0,0,0],"sum_hessian":[7.8E1,4.3E1,3.5E1,7E0,2.8E1],"tree_param":{"num_deleted":"0","num_feature":"10","num_nodes":"5","size_leaf_vector":"1"}},{"base_weights":[1.4438949E-3],"categories":[],"categories_nodes":[],"categories_segments":[],"categories_sizes":[],"default_left":[0],"id":94,"left_children":[-1],"loss_changes":[0E0],"parents":[2147483647],"right_children":[-1],"split_conditions":[7.219475E-5],"split_indices":[0],"split_type":[0],"sum_hessian":[8.5E1],"tree_param":{"num_deleted":"0","num_feature":"10","num_nodes":"1","size_leaf_vector":"1"}},{"base_weights":[-6.8723205E-3],"categories":[],"categories_nodes":[],"categories_segments":[],"categories_sizes":[],"default_left":[0],"id":95,"left_children":[-1],"loss_changes":[0E0],"parents":[2147483647],"right_children":[-1],"split_conditions":[-3.4361603E-4],"split_indices":[0],"split_type":[0],"sum_hessian":[8.7E1],"tree_param":{"num_deleted":"0","num_feature":"10","num_nodes":"1","size_leaf_vector":"1"}},{"base_weights":[-2.9823252E-3,3.5310794E-2,-1.7659456E-3,-0E0,5.496036E-3],"categories":[],"categories_nodes":[],"categories_segments":[],"categories_sizes":[],"default_left":[0,0,0,0,0],"id":96,"left_children":[1,3,-1,-1,-1],"loss_changes":[1.065008E-1,1.0969295E-1,0E0,0E0,0E0],"parents":[2147483647,0,0,1,1],"right_children":[2,4,-1,-1,-1],"split_conditions":[-5.0407E-1,-6.8060875E-1,-1.7659456E-3,-0E0,5.496036E-3],"split_indices":[7,7,0,0,0],"split_type":[0,0,0,0,0],"sum_hessian":[8.4E1,3.7E1,4.7E1,2.5E1,1.2E1],"tree_param":{"num_deleted":"0","num_feature":"10","num_nodes":"5","size_leaf_vector":"1"}},{"base_weights":[6.129269E-3],"categories":[],"categories_nodes":[],"categories_segments":[],"categories_sizes":[],"default_left":[0],"id":97,"left_children":[-1],"loss_changes":[0E0],"parents":[2147483647],"right_children":[-1],"split_conditions":[3.0646345E-4],"split_indices":[0],"split_type":[0],"sum_hessian":[8.8E1],"tree_param":{"num_deleted":"0","num_feature":"10","num_nodes":"1","size_leaf_vector":"1"}},{"base_weights":[-0E0],"categories":[],"categories_nodes":[],"categories_segments":[],"categories_sizes":[],"default_left":[0],"id":98,"left_children":[-1],"loss_changes":[0E0],"parents":[2147483647],"right_children":[-1],"split_conditions":[-0E0],"split_indices":[0],"split_type":[0],"sum_hessian":[7.8E1],"tree_param":{"num_deleted":"0","num_feature":"10","num_nodes":"1","size_leaf_vector":"1"}},{"base_weights":[2.3762984E-3,-1.4476537E-3,3.9759733E-2,8.945691E-3,6.708456E-4],"categories":[],"categories_nodes":[],"categories_segments":[],"categories_sizes":[],"default_left":[0,0,0,0,0],"id":99,"left_children":[1,-1,3,-1,-1],"loss_changes":[1.05297394E-1,0E0,1.3232633E-1,0E0,0E0],"parents":[2147483647,0,0,2,2],"right_children":[2,-1,4,-1,-1],"split_conditions":[-1.6305938E-2,-1.4476537E-3,1.1819877E-1,8.945691E-3,6.708456E-4],"split_indices":[3,0,3,0,0],"split_type":[0,0,0,0,0],"sum_hessian":[8.7E1,4.6E1,4.1E1,5E0,3.6E1],"tree_param":{"num_deleted":"0","num_feature":"10","num_nodes":"5","size_leaf_vector":"1"}},{"base_weights":[-0E0],"categories":[],"categories_nodes":[],"categories_segments":[],"categories_sizes":[],"default_left":[0],"id":100,"left_children":[-1],"loss_changes":[0E0],"parents":[2147483647],"right_children":[-1],"split_conditions":[-0E0],"split_indices":[0],"split_type":[0],"sum_hessian":[8E1],"tree_param":{"num_deleted":"0","num_feature":"10","num_nodes":"1","size_leaf_vector":"1"}},{"base_weights":[-0E0,-5.4582376E-2,2.3084402E-2,-7.939273E-3,5.9662598E-5,4.5615314E-3,-0E0],"categories":[],"categories_nodes":[],"categories_segments":[],"categories_sizes":[],"default_left":[0,0,0,0,0,0,0],"id":101,"left_children":[1,3,5,-1,-1,-1,-1],"loss_changes":[1.0294215E-1,1.5543652E-1,1.0172794E-1,0E0,0E0,0E0,0E0],"parents":[2147483647,0,0,1,1,2,2],"right_children":[2,4,6,-1,-1,-1,-1],"split_conditions":[-9.099312E-1,-8.946338E-2,-4.155039E-1,-7.939273E-3,5.9662598E-5,4.5615314E-3,-0E0],"split_indices":[0,5,9,0,0,0,0],"split_type":[0,0,0,0,0,0,0],"sum_hessian":[8.1E1,2.3E1,5.8E1,8E0,1.5E1,1.5E1,4.3E1],"tree_param":{"num_deleted":"0","num_feature":"10","num_nodes":"7","size_leaf_vector":"1"}},{"base_weights":[-4.1551725E-3,-4.101232E-2,1.4507953E-3,-8.896953E-3,-6.0390605E-4],"categories":[],"categories_nodes":[],"categories_segments":[],"categories_sizes":[],"default_left":[0,0,0,0,0],"id":102,"left_children":[1,3,-1,-1,-1],"loss_changes":[1.1120029E-1,1.5317118E-1,0E0,0E0,0E0],"parents":[2147483647,0,0,1,1],"right_children":[2,4,-1,-1,-1],"split_conditions":[-7.879439E-2,-9.7999907E-1,1.4507953E-3,-8.896953E-3,-6.0390605E-4],"split_indices":[5,0,0,0,0],"split_type":[0,0,0,0,0],"sum_hessian":[8.8E1,4.3E1,4.5E1,6E0,3.7E1],"tree_param":{"num_deleted":"0","num_feature":"10","num_nodes":"5","size_leaf_vector":"1"}},{"base_weights":[-1.2703063E-2],"categories":[],"categories_nodes":[],"categories_segments":[],"categories_sizes":[],"default_left":[0],"id":103,"left_children":[-1],"loss_changes":[0E0],"parents":[2147483647],"right_children":[-1],"split_conditions":[-6.3515315E-4],"split_indices":[0],"split_type":[0],"sum_hessian":[7.9E1],"tree_param":{"num_deleted":"0","num_feature":"10","num_nodes":"1","size_leaf_vector":"1"}},{"base_weights":[-0E0],"categories":[],"categories_nodes":[],"categories_segments":[],"categories_sizes":[],"default_left":[0],"id":104,"left_children":[-1],"loss_changes":[0E0],"parents":[2147483647],"right_children":[-1],"split_conditions":[-0E0],"split_indices":[0],"split_type":[0],"sum_hessian":[8E1],"tree_param":{"num_deleted":"0","num_feature":"10","num_nodes":"1","size_leaf_vector":"1"}},